{
    "network": {
        "LayerConvolutional-0": {
            "weights": [
                [
                    [
                        [
                            1.3656616391745124,
                            -1.5711813909856094,
                            0.6588869681614805
                        ],
                        [
                            -0.35145284947550187,
                            1.9175202606361181,
                            -0.9062391625252867
                        ],
                        [
                            0.2882323166328826,
                            -1.0650356200216438,
                            0.8910177868733884
                        ]
                    ]
                ],
                [
                    [
                        [
                            0.24781177673574806,
                            0.5854091327862716,
                            -1.333470277876821
                        ],
                        [
                            -1.5800427849581338,
                            1.5505387574217915,
                            0.6842373724725018
                        ],
                        [
                            0.6880191405970355,
                            -0.20403350042339932,
                            -1.6570100074417122
                        ]
                    ]
                ]
            ],
            "biases": [
                0.0003719948515834136,
                0.007562689567308968
            ],
            "kernel_size": 3,
            "num_kernels": 2,
            "num_channels": 1
        },
        "LayerMaxPooling-1": {
            "kernel_size": 2,
            "stride": 2
        },
        "LayerConvolutional-2": {
            "weights": [
                [
                    [
                        [
                            -0.563056190457368,
                            0.2886214557932875,
                            0.379293807672076
                        ],
                        [
                            0.5566896425830509,
                            -0.13907235814894728,
                            -0.6230394075604496
                        ],
                        [
                            0.324368876601765,
                            -0.3520377338552019,
                            -0.288901739702772
                        ]
                    ],
                    [
                        [
                            -0.06276276315236758,
                            0.17820541475063334,
                            -0.6127183167653899
                        ],
                        [
                            -0.09296819800852889,
                            -0.3481004790488516,
                            0.2069953423340485
                        ],
                        [
                            -0.9569322577176624,
                            -0.21042192701061752,
                            0.2418487627343566
                        ]
                    ]
                ],
                [
                    [
                        [
                            -1.0644316501967632,
                            0.3268115076230967,
                            0.25800671278828535
                        ],
                        [
                            0.5869017976821322,
                            -0.47216298346317803,
                            1.086156982418398
                        ],
                        [
                            -0.7058408104591337,
                            -0.5101015723711412,
                            0.4538126292599899
                        ]
                    ],
                    [
                        [
                            0.5100475843096273,
                            -0.33059655865802134,
                            0.45701744922282106
                        ],
                        [
                            -0.5417065131021251,
                            -0.13650140523929685,
                            -0.4943992245635505
                        ],
                        [
                            0.5009083749498009,
                            0.20874602727555966,
                            0.017182904890926536
                        ]
                    ]
                ],
                [
                    [
                        [
                            0.05877049828662986,
                            0.4304912745492836,
                            0.22222333721120288
                        ],
                        [
                            -0.35857510866488185,
                            -0.16625188640973645,
                            -0.7939623641719636
                        ],
                        [
                            -0.6120804539259412,
                            0.42587050345410704,
                            0.21408358758384072
                        ]
                    ],
                    [
                        [
                            0.05135319017644725,
                            0.040862021947610364,
                            0.06492807938856951
                        ],
                        [
                            0.31955488632837076,
                            -0.14231944325667842,
                            0.5140921985305644
                        ],
                        [
                            -0.5477936385143869,
                            -0.18192446016362548,
                            -0.0992679276368943
                        ]
                    ]
                ]
            ],
            "biases": [
                0.0015824364058800065,
                0.019617318270676788,
                0.021733603792963078
            ],
            "kernel_size": 3,
            "num_kernels": 3,
            "num_channels": 2
        },
        "LayerMaxPooling-3": {
            "kernel_size": 2,
            "stride": 2
        },
        "LayerFlatten-4": {},
        "LayerDense-5": {
            "weights": [
                [
                    0.262964264644114,
                    0.42093736084720657,
                    -0.32965718340957645,
                    0.046084903683678145,
                    0.1700098401017509,
                    0.15083169669625848,
                    0.06067418963342178,
                    -0.28799064388879786,
                    0.1075240431211164,
                    -0.19644340550114375
                ],
                [
                    0.01192793513306152,
                    0.25692957671560546,
                    -0.1382129951753903,
                    0.24171299696466964,
                    -0.12027542337139219,
                    -0.5835645543119247,
                    0.07225828017669285,
                    0.012948951818160638,
                    -0.26131077098293987,
                    0.31918218159156675
                ],
                [
                    0.3754751694316362,
                    0.11012450127678558,
                    0.15760306571960914,
                    0.2879429203700014,
                    0.11509327541157197,
                    -0.4714181475804625,
                    0.14202111442271165,
                    -0.15644804791480302,
                    -0.2083481728469205,
                    0.6000849912793592
                ],
                [
                    -0.10037311816852348,
                    0.2442914904494965,
                    0.01231488650276943,
                    -0.17745652431495482,
                    -0.08808751398386142,
                    0.2825421069074041,
                    0.4911827958570326,
                    0.20312515715201174,
                    0.0413279712175608,
                    -0.13320161285020213
                ],
                [
                    -0.2961717827022585,
                    0.27387175265114755,
                    -0.09664062526460747,
                    -0.23329928335676164,
                    -0.3187984810260252,
                    0.32636954251249806,
                    -0.1747976220793014,
                    -0.30481189658527885,
                    -0.33562571837643596,
                    0.06076310618410368
                ],
                [
                    0.10256743614949064,
                    -0.16832204072073495,
                    -0.17355390101488188,
                    0.04191966709939878,
                    -0.037067332052701844,
                    -0.0853097509095647,
                    -0.5618918486169885,
                    -0.1636117466669434,
                    0.15116662464364214,
                    0.0998841245923462
                ],
                [
                    0.04815195031284503,
                    -0.02320134104310448,
                    -0.09374754720311547,
                    0.27774613687811517,
                    -0.04645828248861959,
                    0.026738451527906205,
                    0.2015987786459146,
                    -0.06301653780652032,
                    0.058214784018337344,
                    0.06855692924708469
                ],
                [
                    0.40389022579522527,
                    0.12873774351132866,
                    -0.33427384340857197,
                    0.1953301890136137,
                    0.11304827795854515,
                    0.49790772505982767,
                    0.011590127914941817,
                    -0.16325018756066964,
                    -0.22977537519952435,
                    -0.0491717806725681
                ],
                [
                    -0.23138875264775918,
                    -0.12285855060773268,
                    0.014685795793893747,
                    0.553398472360396,
                    0.06308086400839574,
                    -0.4632176976687744,
                    0.04256771937565018,
                    0.2527540275947925,
                    -0.30658333713475994,
                    0.07322590372912526
                ],
                [
                    0.1614527912389496,
                    0.28045690159592407,
                    0.08541060049295607,
                    0.25017750885207257,
                    -0.005112659644505429,
                    -0.24149381925356778,
                    -0.17675338649701153,
                    0.0368905957031175,
                    0.0316185961611136,
                    0.07541515828743017
                ],
                [
                    -0.2760933070400191,
                    0.21131453487089266,
                    0.07375835273563056,
                    -0.1500852124591334,
                    0.27852997873110485,
                    0.24078624745189006,
                    -0.30524159552837565,
                    -0.2184646327712394,
                    -0.06735931429708159,
                    0.03409029485305633
                ],
                [
                    -0.16689256812045206,
                    0.24504441978324581,
                    -0.2048508418854878,
                    -0.38501134814385524,
                    -0.0071171492352473794,
                    -0.07174422748216189,
                    -0.21950143861597485,
                    -0.12691183891012628,
                    -0.22388820154722971,
                    -0.5915714794817176
                ],
                [
                    -0.21292748513378967,
                    -0.21478606812834014,
                    -0.1141227255510028,
                    0.07763061858139919,
                    -0.04133936353537906,
                    0.0066564217019554495,
                    -0.41315618048987596,
                    0.19156912470127285,
                    0.0745218570877965,
                    -0.35998652072555365
                ],
                [
                    0.16990609178484453,
                    -0.03999010594989877,
                    0.19432557024666228,
                    0.2602533957963552,
                    0.370738847986434,
                    -0.10958909412906512,
                    -0.0002867237743268108,
                    -0.049113831466329784,
                    -0.08873983626507778,
                    -0.11704575029595969
                ],
                [
                    0.1837336042369357,
                    -0.15796094968832974,
                    0.2861910443425646,
                    0.2653688358978415,
                    0.3071684037468287,
                    0.10197600646551612,
                    0.2873487133435222,
                    -0.3575390457743548,
                    -0.082822466694626,
                    0.29891543417355604
                ],
                [
                    -0.07039013358457925,
                    -0.32734595361450264,
                    -0.023107099217626284,
                    0.01565908142733944,
                    0.3191738695487899,
                    0.012427368649966325,
                    -0.28523640515195675,
                    -0.19680232499693207,
                    -0.15807205601169316,
                    0.07673510150397377
                ],
                [
                    -0.19922954777707988,
                    0.2187893840369845,
                    0.007738138715307286,
                    -0.13046535355153452,
                    0.10880186199207711,
                    -0.07465857514639997,
                    -0.30126605715706073,
                    -0.18928976075397236,
                    0.10798597580126522,
                    0.3852184906521767
                ],
                [
                    0.041084600336781574,
                    0.047150010116076,
                    0.38574464695316635,
                    0.1182430622225335,
                    0.24054354875719755,
                    0.1688448822292881,
                    -0.2865116319966331,
                    -0.2579520109908906,
                    -0.11549488429296266,
                    0.09571334098677138
                ],
                [
                    -0.048333538400572494,
                    0.13369828818241464,
                    0.12243869382239353,
                    -0.13827377573172303,
                    0.3897561476308743,
                    -0.04715215182915346,
                    -0.21129535828875318,
                    -0.13922420006653688,
                    0.04872552143480974,
                    -0.05704386561990952
                ],
                [
                    0.22007709257070404,
                    -0.47145276878390474,
                    0.09158961064044298,
                    -0.026109457464607605,
                    -0.09295424662109292,
                    0.19858185924863578,
                    -0.10232599125342859,
                    -0.3352228926960518,
                    0.11033551313035717,
                    0.16769495429564218
                ],
                [
                    -0.004797238591285075,
                    -0.2182381134108787,
                    -0.03678715328501293,
                    0.24370252799870154,
                    0.32142272180869363,
                    -0.06790983438880618,
                    -0.40452399457370336,
                    -0.37888675680393114,
                    0.04697287901488662,
                    -0.12921453696556265
                ],
                [
                    -0.08053426254622369,
                    -0.41978169849189817,
                    0.566076318198948,
                    -0.19414581866528277,
                    -0.44230834186852164,
                    -0.3065279979868077,
                    -0.11098982214347587,
                    -0.06649398703083165,
                    -0.20043050971119247,
                    -0.07574770239187789
                ],
                [
                    0.030229746958815595,
                    -0.10654468640421304,
                    0.0710284173464764,
                    -0.06849764400271549,
                    0.41685069642563355,
                    0.14817758077719834,
                    -0.37319272457452096,
                    0.07390703706737108,
                    -0.037551765459180486,
                    0.21849523339387114
                ],
                [
                    0.06334229721175164,
                    0.08577235625419373,
                    -0.12032838582993866,
                    0.20134821160427788,
                    -0.060495974650676736,
                    -0.0053555360683222855,
                    -0.32223928841833926,
                    -0.17582930660901824,
                    0.16601847394878236,
                    0.06944729385229396
                ],
                [
                    -0.15923490398131473,
                    -0.35681915391282215,
                    0.1837976614866653,
                    -0.09086586511204087,
                    -0.23479919352648762,
                    0.14716363914146907,
                    -0.1540209273354344,
                    0.11702075903567029,
                    0.04381552478965717,
                    0.04060056317522699
                ],
                [
                    -0.042285206190301385,
                    -0.18611419062077025,
                    0.37714697766484917,
                    -0.1708742174383933,
                    0.3596192255374137,
                    0.13507428900452914,
                    -0.2813964969334381,
                    -0.27175245122101416,
                    0.06701327091376241,
                    -0.2130330281538572
                ],
                [
                    -0.030750056604752322,
                    -0.09494510793651595,
                    0.09055702732678046,
                    -0.11000793106932473,
                    0.2796931232428345,
                    0.11613923716690702,
                    -0.03537878441852458,
                    0.0837976388718441,
                    0.002368398440737494,
                    -0.3607994197241044
                ],
                [
                    0.10553446935277681,
                    0.12889579488441757,
                    -0.13181582460634494,
                    0.15291662427136343,
                    -0.021014548380473435,
                    -0.384112221177608,
                    -0.05724412869707214,
                    0.47820612486500097,
                    -0.365653430064022,
                    0.027423675634256732
                ],
                [
                    -0.09638674756773757,
                    -0.10000892224019639,
                    0.15262134801747715,
                    -0.010424399298884725,
                    -0.006957555633155262,
                    -0.2915431745477677,
                    -0.009771855314607083,
                    -0.0438066116314393,
                    -0.2785536574352345,
                    -0.02829469852963723
                ],
                [
                    -0.22570201709800175,
                    0.03236796175460489,
                    -0.04676741398626383,
                    0.06637522380688629,
                    0.5554886225842531,
                    0.16413458358646152,
                    -0.0987747347810148,
                    0.12460951266222962,
                    -0.04890373600676771,
                    -0.061159178126369375
                ],
                [
                    -0.1650245617183662,
                    -0.025000615035634548,
                    -0.2837204465484455,
                    0.014032766297070617,
                    -0.12353579585074335,
                    0.30844902748066455,
                    0.13015116734006865,
                    -0.029751211700170938,
                    0.2469683211362039,
                    -0.03366044771129581
                ],
                [
                    0.15973822709928284,
                    -0.14556319778929333,
                    0.07155664413804415,
                    0.13646017207919361,
                    -0.20746735027941793,
                    -0.14019742014533346,
                    -0.03899829484744004,
                    -0.16427997736095046,
                    0.18345652771829576,
                    -0.0880423377026472
                ],
                [
                    -0.15907899540239487,
                    -0.02578349747649017,
                    0.06982496652762124,
                    0.39505005163414164,
                    -0.14009453068168556,
                    -0.06936008941853485,
                    -0.3018604571463609,
                    -0.21519546504557677,
                    -0.11699280188877387,
                    -0.2690819997146148
                ],
                [
                    -0.035576328580880584,
                    -0.16491251854742686,
                    -0.13610412530183436,
                    0.2761914210845831,
                    -0.262378321361552,
                    0.059654893612190465,
                    0.07463310827586869,
                    -0.23738501366601147,
                    0.24514188090357902,
                    -0.08788797323521734
                ],
                [
                    0.2858502630905513,
                    0.01663653158699271,
                    0.058455050320824604,
                    -0.018257609626226818,
                    0.11936820644332241,
                    0.09628327171446587,
                    -0.013955590561131525,
                    -0.025502197913165266,
                    0.06565309266614429,
                    0.27333883626712185
                ],
                [
                    0.3019616879108165,
                    0.09625965181472672,
                    0.004008120419129433,
                    0.022601208490069514,
                    0.03531075261843553,
                    0.014314530693442303,
                    0.4402883358133526,
                    0.04377471861128106,
                    0.04531270818131957,
                    -0.08437390920808967
                ],
                [
                    0.23870843240647,
                    0.04023559792751167,
                    -0.20681886747420553,
                    -0.04616327382067065,
                    -0.03373639910759006,
                    -0.12760463667817967,
                    0.3378415407841899,
                    0.060674121500138255,
                    0.030830658460713683,
                    -0.15495371064585833
                ],
                [
                    -0.08139304805276767,
                    -0.3960320592079654,
                    -0.4556982400222918,
                    0.11775419247683,
                    0.07653428989552331,
                    -0.050699795274911114,
                    -0.06279091702013671,
                    -0.05791985610894732,
                    -0.16290339794325515,
                    -0.16071632044836645
                ],
                [
                    0.24897014226948766,
                    0.08318838211013525,
                    -0.10630222788146279,
                    0.2823725274535066,
                    -0.0455710154132004,
                    0.14956710657178285,
                    0.14255404663837323,
                    -0.30772325203730816,
                    0.27661947153619343,
                    0.3063514568685173
                ],
                [
                    -0.09286293076330052,
                    0.17366702506581505,
                    0.3035554286741286,
                    -0.16785144498038526,
                    0.48594259113148763,
                    -0.14775518783513616,
                    -0.10619194622037595,
                    -0.12118752549859338,
                    -0.33515446845361735,
                    0.04755092855857994
                ],
                [
                    -0.21924696755597076,
                    0.0402538253089196,
                    -0.055792944362991155,
                    0.04247308478945655,
                    -0.019989170313894886,
                    -0.022862879866207293,
                    0.2097981792801877,
                    0.3054179770743207,
                    0.16366171475046926,
                    -0.1396753570972046
                ],
                [
                    0.28055686994072504,
                    -0.34007195679507124,
                    0.38613865968422956,
                    0.09745156418151718,
                    0.1233687693227647,
                    0.015216560978729216,
                    -0.06003747410484974,
                    -0.08971741151558711,
                    -0.061173224709279925,
                    -0.11049505776427272
                ],
                [
                    0.1698375293186963,
                    0.0508386173091086,
                    0.1283983487923175,
                    0.054524742899674766,
                    0.29898060792908326,
                    -0.07483358208984203,
                    -0.0051434528412962754,
                    0.3856570889241722,
                    -0.038285005688915116,
                    -0.14794935769391393
                ],
                [
                    0.04618123718701353,
                    0.08513973852521407,
                    -0.2151154252821613,
                    0.0676687539715027,
                    -0.21117155584666233,
                    0.14448045861830353,
                    -0.13891093792680342,
                    -0.11404603345836394,
                    0.3090353550162131,
                    -0.003875228025556551
                ],
                [
                    -0.06460251248211066,
                    0.21209632734830847,
                    -0.47972499794598455,
                    0.07498534991846882,
                    0.35930956451470375,
                    0.07577050678489393,
                    -0.16490436648574539,
                    -0.273327522887703,
                    0.14120859574343067,
                    0.30233341679246306
                ],
                [
                    -0.17275825691989974,
                    0.18471237282059128,
                    -0.12457329754485047,
                    0.3667806621528083,
                    0.27954418323877694,
                    -0.07807516504583639,
                    -0.1694383208046832,
                    0.032227139877566355,
                    0.3076272239431799,
                    -0.0492168560749872
                ],
                [
                    0.020791673117847416,
                    -0.3487875619124537,
                    0.2538195884848068,
                    0.24011812888521558,
                    -0.11002232641829415,
                    0.11442495745431958,
                    0.11291253701279927,
                    -0.23420670885167208,
                    -0.5629834215986304,
                    -0.08739047973308108
                ],
                [
                    -0.2179955108620526,
                    -0.04016678229894911,
                    0.27326351888185396,
                    0.11329242995425766,
                    -0.14290375738656655,
                    0.15627864735750568,
                    -0.04413388892986961,
                    0.0922389282315354,
                    0.22092969073186863,
                    0.11136573916535959
                ],
                [
                    -0.0036940212821013037,
                    -0.09325391739115085,
                    0.0806899169054217,
                    -0.07492853903994355,
                    0.16499665221210447,
                    -0.04109494771924482,
                    0.49484426356055783,
                    0.13811379470234908,
                    0.1977665262920396,
                    -0.06970691848900602
                ],
                [
                    -0.061437735286207634,
                    0.1477416461446932,
                    0.1086540848682915,
                    -0.2015839610193777,
                    0.0037352203917201026,
                    -0.12125218095164236,
                    0.27196849364967723,
                    -0.3377912871620024,
                    0.3240261918290314,
                    -0.22720910126988217
                ],
                [
                    -0.1132881292282236,
                    -0.1524410268162783,
                    0.2801676072460511,
                    -0.1877639380592833,
                    -0.07012957923263748,
                    0.2483856303813381,
                    -0.35254009552949517,
                    -0.08801458873032053,
                    0.1978718234563997,
                    0.4534184538870949
                ],
                [
                    -0.1389976358201861,
                    0.19307686733858792,
                    -0.28441673589963645,
                    -0.4049937731781248,
                    -0.09681400491773984,
                    0.11853712824769991,
                    0.2688525212185497,
                    -0.3061890920629226,
                    0.043724988190934524,
                    -0.2711789712756861
                ],
                [
                    -0.25041460238853125,
                    0.09651775665595382,
                    0.11376396127395004,
                    -0.38216516109049575,
                    0.012634614971960929,
                    -0.14633533723460962,
                    0.3310179600185514,
                    -0.07990006190059795,
                    -0.00914789894688554,
                    -0.024359910301356695
                ],
                [
                    -0.06784898297265197,
                    0.04813958023143388,
                    0.14719024575289572,
                    0.09746337127063406,
                    -0.12442537264551946,
                    -0.40081406778722856,
                    0.18422016880273115,
                    0.003036424789094897,
                    -4.7643123761860614e-05,
                    -0.1431092570014359
                ],
                [
                    0.48108378860972795,
                    0.05571983443358165,
                    0.11189429761697786,
                    0.17445245402948945,
                    0.1006489887344945,
                    0.11723711357881736,
                    -0.01961379697792368,
                    0.06370495901079144,
                    0.07104601508089534,
                    -0.2759382397071886
                ],
                [
                    0.11772740671708877,
                    0.3430816027049005,
                    0.34502525024627495,
                    -0.129658470788513,
                    -0.12318646732089154,
                    -0.10105409017398664,
                    0.36609359104419315,
                    -0.3686667728815258,
                    -0.1627280549588678,
                    0.1540568349870371
                ],
                [
                    0.10038215008620273,
                    0.2131989467860099,
                    0.3063193893988193,
                    0.012948938343916238,
                    0.12708632188008254,
                    -0.24629048442021176,
                    -0.0897088179950078,
                    -0.06713379412788777,
                    0.3627527392142421,
                    -0.3896308367839677
                ],
                [
                    0.2790363422096331,
                    -0.02561079974309223,
                    -0.09175659991109655,
                    -0.199645445918704,
                    -0.40372149846392513,
                    0.0647241438214308,
                    -0.016982252200184615,
                    -0.11642241983671034,
                    0.22350806161412756,
                    -0.3436079544048333
                ],
                [
                    0.23204362747431645,
                    0.14641919412475637,
                    0.07608883720739981,
                    0.01583864715856793,
                    0.15663369312368314,
                    -0.044898073299512946,
                    -0.06399970304194375,
                    -0.17716209911992112,
                    -0.19390469336603372,
                    0.26635176213798345
                ],
                [
                    -0.15690496383445246,
                    -0.022803174688489483,
                    -0.2611359255933908,
                    0.1951931212907086,
                    0.568172396858681,
                    -0.12085228076676975,
                    0.2620421228384082,
                    0.02890336852299052,
                    0.09363284301910885,
                    0.14186103061592265
                ],
                [
                    -0.2634692300311461,
                    0.06026926533655521,
                    0.2508219619814915,
                    0.13855760586598903,
                    -0.20912814209560288,
                    -0.17539578206593295,
                    -0.029130838283612903,
                    -0.014612485061279783,
                    -0.15435038559749328,
                    0.2228924181864059
                ],
                [
                    -0.09637080067810902,
                    0.09916197639177879,
                    0.24583723230362878,
                    0.47951108984110397,
                    0.326129632300875,
                    0.07018399311113932,
                    0.13271843731607025,
                    0.19085633711045383,
                    0.18843241625368357,
                    -0.053629945329893916
                ],
                [
                    0.10224755864999226,
                    -0.2027213847337178,
                    -0.12279563215682215,
                    0.1753452012290295,
                    -0.00546108486162337,
                    -0.20575212173691088,
                    -0.32550669243862135,
                    0.5560058024986159,
                    -0.27299063686865144,
                    0.4481403256800964
                ],
                [
                    -0.3314423534607934,
                    0.05902789410432573,
                    0.2741394844227959,
                    -0.09346768296151327,
                    0.002137948523729099,
                    -0.143813917717393,
                    0.10503580081288869,
                    -0.055431941520263206,
                    0.03685098876210518,
                    -0.07948022801855123
                ],
                [
                    0.08343011363883138,
                    0.16853948081834982,
                    0.2069882736295201,
                    0.20572843831257814,
                    -0.14831287340083507,
                    0.08657865767982839,
                    -0.23603559540063054,
                    0.15686118261869625,
                    0.17378930382273086,
                    -0.014289195992478968
                ],
                [
                    -0.17597363549150705,
                    -0.08143214644407272,
                    0.23517711441150588,
                    0.3516405356059706,
                    -0.1785201597240475,
                    0.15304771744305504,
                    0.19986439651593732,
                    -0.14796208789054835,
                    0.09013776268164166,
                    0.254944650430887
                ],
                [
                    -0.4018072140180182,
                    -0.2244759845577334,
                    -0.10135764854313456,
                    0.1548809819418032,
                    0.03725270557269473,
                    0.061367069017489013,
                    -0.029194741453159017,
                    -0.15898912166142434,
                    -0.055522587092076775,
                    -0.1026456069974062
                ],
                [
                    -0.09735755761369423,
                    0.2651053680294716,
                    0.3192667309701568,
                    0.2682188161504543,
                    0.001077129175308991,
                    0.28715071848688345,
                    0.08023487075191686,
                    0.034886925350687666,
                    0.27013431041097324,
                    0.10818170519055072
                ],
                [
                    -0.21176269114410148,
                    0.14436349151249112,
                    0.1445010062901586,
                    0.3513824894516514,
                    0.13364780166131152,
                    -0.2964583280022595,
                    -0.10660894725491522,
                    -0.14578984363633965,
                    0.27227809786350526,
                    -0.12414315421806327
                ],
                [
                    0.11787851298491882,
                    0.5552040565450569,
                    0.33760064498832737,
                    0.3651234831331453,
                    -0.30433070338076723,
                    0.17341329336900965,
                    -0.20463073335899276,
                    0.16467782769895142,
                    -0.13612428074478414,
                    -0.06301457653551963
                ],
                [
                    0.35764363020266754,
                    0.13350161055478063,
                    0.013715495238610053,
                    -0.10507960260045449,
                    -0.16123121190531378,
                    0.04057343245640885,
                    -0.21905458992907972,
                    0.15502411673360575,
                    0.040896443642581756,
                    -0.101040903007405
                ],
                [
                    0.17205411167084134,
                    0.2231386372587608,
                    0.17529378898976578,
                    0.13799893805919677,
                    -0.031836362264741284,
                    0.04762861387905579,
                    -0.1848955401150177,
                    -0.043969099368128595,
                    0.13172098157637083,
                    -0.08355359026797538
                ],
                [
                    -0.022897938753184785,
                    -0.11137389970066218,
                    0.18581995543659763,
                    -0.04482358149540613,
                    -0.4787589877128905,
                    0.10631560229853856,
                    0.16778171582834117,
                    -0.11882467682916295,
                    0.02070317134339728,
                    0.1986440466016106
                ],
                [
                    0.2181374227054467,
                    0.025605932457296803,
                    -0.022731166169435896,
                    0.10006855218541189,
                    -0.013416395396831654,
                    0.20873751113975247,
                    -0.31236227799124583,
                    -0.005886643225887801,
                    -0.07244515642810907,
                    -0.16375244516386597
                ],
                [
                    0.15710927140338501,
                    0.18862088756743195,
                    0.1752446906123473,
                    0.16744640239107056,
                    0.1962556442563002,
                    0.1443999322764117,
                    -0.06877441294917365,
                    0.09125754823850896,
                    0.184845511872357,
                    0.15687963480778072
                ],
                [
                    -0.1340326204647165,
                    -0.004497577838259694,
                    0.25357241801562197,
                    0.12713704337284823,
                    0.12530325966883374,
                    0.06494288017628957,
                    -0.013138675788844704,
                    0.021208589215915456,
                    0.1520777823529369,
                    -0.16716124720437336
                ],
                [
                    -0.035329130879339254,
                    0.08976867242501217,
                    -0.35544697679936155,
                    0.1340742724437142,
                    -0.005244878328910567,
                    0.006575990344961625,
                    -0.36203859846274145,
                    0.14427979931040438,
                    0.22853170837959458,
                    0.08767649249591658
                ],
                [
                    0.0533432072883616,
                    0.09149418571735965,
                    0.27635787052273414,
                    0.026340281166798228,
                    -0.012614265091704322,
                    0.025831386844957796,
                    0.23379136428515762,
                    0.016045264047221737,
                    0.07116185647520219,
                    0.2742509242234338
                ],
                [
                    -0.08740664176940305,
                    0.09760738317724363,
                    0.1332618002929103,
                    0.07493085871825292,
                    0.03722739317808841,
                    -0.026666441421328835,
                    -0.17982015914769006,
                    0.1909723099219845,
                    0.1410727536851704,
                    0.13581530380243584
                ],
                [
                    -0.2159359857474933,
                    0.1416485166814491,
                    0.1876170159617042,
                    0.11922377688478084,
                    0.2642032753662683,
                    0.12875950153001303,
                    -0.21314569236269384,
                    0.2089687355887439,
                    0.08591144398329757,
                    0.28637936035118344
                ],
                [
                    0.0170958607215131,
                    0.20560676667452715,
                    0.0021974477065392294,
                    0.19588724019335724,
                    0.017846140322804783,
                    0.3825680376708129,
                    0.16234992989814426,
                    0.043722786871130785,
                    -0.07157959423677422,
                    -0.18437533232824582
                ],
                [
                    0.2732918233825485,
                    -0.12528141405483328,
                    0.18029231470726875,
                    0.0033638513412263143,
                    -0.04072282994210259,
                    0.4810496429714538,
                    0.0861451691165439,
                    -0.10490670261984002,
                    0.02210668547980804,
                    0.1830705240143599
                ],
                [
                    0.053295213266264733,
                    -0.07863569819012678,
                    -0.1089469099674654,
                    -0.05132044528375502,
                    -0.18330438626420825,
                    0.2254200844046199,
                    -0.1907714445399513,
                    0.13304259469732993,
                    0.01626354744825809,
                    -0.027186438781418826
                ],
                [
                    0.2517887578335845,
                    -0.007058330448120323,
                    -0.0858026930238892,
                    0.028657007429236214,
                    0.10596900278749483,
                    -0.3890984497992314,
                    0.23725998272085783,
                    -0.06384941263351443,
                    0.04430449971944713,
                    0.014781242441595309
                ],
                [
                    -0.05079835758509746,
                    0.11303331775917186,
                    -0.04040587831055216,
                    -0.2421353137861493,
                    0.14534414862879494,
                    0.2190572310134998,
                    -0.03626489347882556,
                    0.08196240613614002,
                    -0.08365864664700237,
                    0.17881526567279982
                ],
                [
                    0.1607737491972188,
                    -0.13024114963808103,
                    0.19278387691801277,
                    -0.1665613107844309,
                    0.17108409829233018,
                    -0.19010675971865504,
                    0.1330594120288525,
                    -0.002425683315157523,
                    0.037450657712654434,
                    -0.029922285235417564
                ],
                [
                    -0.24342932435608125,
                    0.2713095190366397,
                    0.14100571225548236,
                    -0.18609675903027414,
                    -0.06649406530515864,
                    0.1949053349719084,
                    -0.11409079845473159,
                    0.10710815159444524,
                    0.1354039618947528,
                    -0.006938481153844914
                ],
                [
                    -0.19359452138454097,
                    -0.12371383241524136,
                    -0.1677517899057899,
                    -0.032208139116587556,
                    0.20959924966517546,
                    0.40208429969137294,
                    -0.03065190032507472,
                    0.15569281984504316,
                    -0.26271177123998973,
                    -0.18557345306607625
                ],
                [
                    0.1750779809969277,
                    -0.16054263090904997,
                    -0.06494353244359571,
                    -0.006255833474283833,
                    0.13183651237840993,
                    0.09075071557141655,
                    -0.006923104882513556,
                    0.016980901178031818,
                    -0.005183378104579057,
                    0.36543398602802224
                ],
                [
                    -0.009404629516329676,
                    -0.4446045408512356,
                    -0.24909745946301737,
                    0.14967025418349436,
                    0.10614591172978946,
                    0.246261747153279,
                    0.003392117511926045,
                    0.09518621300356148,
                    0.4334120825180102,
                    0.42842906032005645
                ],
                [
                    0.051249630693950624,
                    0.1841606181652587,
                    0.2514887132876706,
                    -0.05738730599077955,
                    0.1640806226207366,
                    -0.3238202883971827,
                    -0.11502104707228676,
                    -0.059138585826002954,
                    -0.22419058437773032,
                    0.057622825229569415
                ],
                [
                    -0.30681244445167244,
                    0.25568473436233247,
                    0.23412297708631113,
                    0.20800820572234924,
                    0.13661035810153035,
                    -0.030512640899649387,
                    -0.052012650546003035,
                    -0.2626512483847251,
                    -0.3177062565510108,
                    0.13424321270328432
                ],
                [
                    -0.04132490714823723,
                    -0.11431392184578289,
                    0.3113280561472991,
                    -0.10754998704399019,
                    -0.16520756059298936,
                    0.07958933802711823,
                    0.15254414922303433,
                    -0.1926342223080867,
                    0.03452900526400524,
                    0.39207352410744184
                ],
                [
                    0.18255663765448268,
                    -0.07952962223815159,
                    0.2549855332063404,
                    -0.21787491910622284,
                    -0.020933516802448725,
                    0.3138559924467861,
                    -0.06903019208888753,
                    0.15868574553743525,
                    0.12060838786618054,
                    -0.027066296748021426
                ],
                [
                    -0.1482505935028893,
                    0.09025908469757925,
                    -0.2617033536169838,
                    -0.19445749047669966,
                    0.01661418119961187,
                    -0.15924836939154535,
                    0.13769830799836077,
                    -0.38641599781553176,
                    0.19683948786661798,
                    0.22310160154523878
                ],
                [
                    -0.14040357381919713,
                    -0.31213057030017083,
                    0.1690066845602713,
                    -0.35932844433120087,
                    -0.047688399674210485,
                    0.0236545590801598,
                    -0.005765689789685203,
                    0.04096410632602402,
                    0.03146536403426167,
                    -0.06756680768454748
                ],
                [
                    0.2836748625555324,
                    -0.02577375322024774,
                    -0.23842257492149097,
                    0.3385342419008296,
                    -0.01760558125651158,
                    0.2920960944871443,
                    -0.07307701621803313,
                    0.3989344035530716,
                    0.34525436658459924,
                    0.09225536709260922
                ],
                [
                    0.12329898545477111,
                    -0.013766273608997433,
                    -0.3247467597361742,
                    0.33192344655179873,
                    0.23068588576448137,
                    0.3833997952155233,
                    -0.03984353799662175,
                    -0.08250639569432384,
                    0.22037700118149384,
                    -0.01930008718202765
                ],
                [
                    -0.074736667758418,
                    0.27466794125622884,
                    0.25913125079227106,
                    -0.37264354904301944,
                    0.2749558578897095,
                    -0.6299740402449971,
                    -0.20139416247646746,
                    0.34114871737538033,
                    0.3539692333109074,
                    0.04108266097384764
                ],
                [
                    0.21605083533746872,
                    -0.5342137885662518,
                    0.1163181100843149,
                    -0.07574057090158834,
                    -0.08510361342525324,
                    0.5123862907022908,
                    0.07033748436725037,
                    0.15461499629590156,
                    0.09631099396797163,
                    0.11185320267111493
                ],
                [
                    0.07914529146080188,
                    -0.009577563067159277,
                    -0.16584532922709871,
                    0.06157517856475322,
                    -0.011407763887390803,
                    0.13828395394616377,
                    0.18418783068672792,
                    -0.6417449966495387,
                    0.06823446223338915,
                    -0.025660722948281655
                ],
                [
                    0.04885723816768037,
                    -0.0724668296622001,
                    -0.0358381211011632,
                    0.08572194181195958,
                    0.045542798529015376,
                    -0.31298449323367894,
                    -0.37799641095779696,
                    -0.09288472352286262,
                    -0.19248285638915255,
                    -0.3172568888943593
                ],
                [
                    -0.33361034180171156,
                    0.04374949835548639,
                    -0.03171359887256078,
                    -0.015137807680710075,
                    -0.045881411857576264,
                    0.32198384100451827,
                    -0.18620524295620058,
                    0.09766836886347105,
                    -0.03654278216829635,
                    0.175806265970258
                ],
                [
                    -0.010908419016110784,
                    -0.32120605210988584,
                    0.31254599098454683,
                    0.015213665105254065,
                    0.571674042908402,
                    -0.29566503976682607,
                    -0.16599269572277492,
                    -0.13919353258655273,
                    -0.03368202702740287,
                    0.053488176485146685
                ],
                [
                    0.6553181741894715,
                    0.0067241699314539004,
                    -0.025020471927183874,
                    -0.11383715687057457,
                    0.18119759878668623,
                    -0.13459219855914697,
                    0.2274951358890966,
                    -0.060770661793540647,
                    -0.037170776232888836,
                    0.27079987896639
                ],
                [
                    -0.18144130266073044,
                    0.24720434180124695,
                    0.22385094696965643,
                    -0.12145834865209841,
                    0.33193750324246235,
                    -0.14328907732030174,
                    0.14876400324097566,
                    0.2728109306997734,
                    0.17183221654877695,
                    0.06556467180875769
                ],
                [
                    0.02265675111241182,
                    0.03142870703288339,
                    -0.41216815518245536,
                    0.006395030961815663,
                    -0.07363369471983292,
                    0.06473216716990383,
                    0.07370195849946783,
                    -0.24362540304392982,
                    -0.019407590954675525,
                    -0.1909422511394169
                ],
                [
                    -0.10557200499347465,
                    0.141394229531263,
                    0.30513935570224654,
                    0.017705126975184515,
                    -0.11566736573012426,
                    0.051273554773216795,
                    -0.03151152898532493,
                    -0.22171364432170393,
                    -0.11521735764249401,
                    0.23000059908330042
                ],
                [
                    -0.0582370447846652,
                    0.06884742763383582,
                    -0.2801529174030859,
                    0.3872492934617481,
                    -0.07959572473771684,
                    0.17236084384266168,
                    0.23817844409599784,
                    -0.2390696964119271,
                    0.06118246032383292,
                    0.048150796104168704
                ],
                [
                    -0.25429461678752174,
                    -0.16099659970657523,
                    0.1620742096693545,
                    0.14825917482577003,
                    -0.04099929919103085,
                    0.036680032972810854,
                    0.09070573472975162,
                    0.0128402573968456,
                    -0.06382292883669069,
                    -0.00448054578922668
                ],
                [
                    0.05020925945461436,
                    -0.1003654848069959,
                    0.20424478340231966,
                    -0.0010003879488979827,
                    -0.06413123887486628,
                    -0.06777657237707321,
                    0.20544711249357978,
                    0.09112887026988571,
                    -0.030571017875303856,
                    -0.05652539505196653
                ],
                [
                    0.03484852168500765,
                    0.24368713866838043,
                    -0.09296563666240532,
                    -0.18320376328885846,
                    -0.11804288564715731,
                    -0.3261951503208826,
                    -0.0020438101664301657,
                    -0.1797415286234409,
                    -0.16327181047891876,
                    0.36278748667413635
                ],
                [
                    -0.140386655209856,
                    0.4201902786914517,
                    -0.04660495628153417,
                    0.14870702185882637,
                    -0.39023395283862217,
                    0.4316644021194251,
                    -0.07031750250077831,
                    -0.10372358866829542,
                    0.15118458150787364,
                    0.18669836580372615
                ],
                [
                    0.22975940511674314,
                    0.3560607822008369,
                    0.1703206444374853,
                    0.32481065020890565,
                    0.27864696622177965,
                    0.28464034849828534,
                    -0.09723886060232118,
                    -0.06712924732154371,
                    0.1331703002146628,
                    -0.20882178897659373
                ],
                [
                    -0.005617771828302926,
                    0.3709627901792121,
                    -0.20863776391678854,
                    0.2496153807245672,
                    -0.014126678508388103,
                    0.09572120649201958,
                    0.4376786635237375,
                    0.14066739067499348,
                    0.014849259175416836,
                    0.03908496090755908
                ],
                [
                    0.03197883740082721,
                    -0.07915542839860894,
                    -0.15662316638529442,
                    0.1318933402420618,
                    0.11121015095574806,
                    -0.08766156955831131,
                    0.14870709804263557,
                    -0.07060201445335279,
                    -0.3859115785739098,
                    -0.10688846772344729
                ],
                [
                    0.19968465922882772,
                    0.08687535941980534,
                    -0.08740659580141477,
                    0.1539237978084128,
                    -0.16639605819093056,
                    0.10099712590100256,
                    0.08771236762936191,
                    -0.16269356985346953,
                    -0.04495101549978731,
                    -0.16807785659431573
                ],
                [
                    0.4904388021357338,
                    0.09611942735103632,
                    -0.13436770617952973,
                    0.007550479636005419,
                    0.6990776417944767,
                    -0.0636833716276499,
                    -0.03135849762103674,
                    0.19656729025021186,
                    -0.2220844642788896,
                    -0.029752232309705556
                ],
                [
                    0.16756546144185136,
                    0.1828000635635171,
                    0.090889743022246,
                    0.15523851338670833,
                    0.06803606744140263,
                    -0.334494954034954,
                    -0.26124267875823143,
                    0.05965828100227012,
                    -0.16473758755843407,
                    -0.1228459577312056
                ],
                [
                    0.4982997692169666,
                    0.223552507589894,
                    0.004501945057463543,
                    0.1000916275807523,
                    0.3315550624149961,
                    -0.3942320450363294,
                    -0.4104179424063955,
                    -0.10292401609050443,
                    -0.01725286682359353,
                    -0.17777546922539422
                ],
                [
                    -0.28912776359676307,
                    0.031912922469983465,
                    0.032669738793230714,
                    -0.08711275153648923,
                    -0.02324704472115402,
                    0.14861845806221768,
                    0.33908717602182553,
                    0.09998230756887473,
                    0.00779284592838099,
                    0.28820142794966996
                ],
                [
                    0.06848243437314755,
                    0.3036946930743607,
                    -0.021705352363701802,
                    0.07211300691925232,
                    -0.3854486908029584,
                    -0.08726032020045162,
                    0.49408804880708684,
                    -0.14063861234087066,
                    -0.042026048409762984,
                    -0.028117261740003226
                ],
                [
                    0.5007051714887876,
                    -0.09576507327745425,
                    -0.22259408420127255,
                    -0.27171151496870416,
                    -0.0964896712547488,
                    0.1656265750607133,
                    0.17801647676804533,
                    0.062050691774221074,
                    -0.018480351574004027,
                    0.18376484392906836
                ],
                [
                    0.04019903623162554,
                    0.19493176566756723,
                    -0.10203821410292181,
                    -0.05676396662413489,
                    0.12489789490782112,
                    -0.10034290261857097,
                    -0.14663588029857003,
                    0.16904194820003712,
                    0.09666228222714117,
                    0.4773900022451138
                ],
                [
                    0.0950010754701149,
                    0.055203329725917946,
                    -0.4003497205256648,
                    0.07300423005224063,
                    -0.015803175141219077,
                    0.23399780616690252,
                    0.2381218595325858,
                    0.1414939690702091,
                    0.10467467480867204,
                    -0.0342405247541576
                ],
                [
                    -0.06028066526685598,
                    -0.2674546180232252,
                    -0.10483643436421358,
                    0.19706054015543453,
                    0.0020420954778989637,
                    0.0717795484232954,
                    -0.22263097844289023,
                    0.10417860450534012,
                    -0.06561826753752745,
                    0.1548677404472706
                ],
                [
                    -0.19792583766816288,
                    0.2551188304683518,
                    -0.21741111384297102,
                    0.1160884393533925,
                    0.23590950350099177,
                    0.0456021218889766,
                    0.32985888674075003,
                    -0.03442615764915254,
                    0.09927970167699375,
                    0.38212194104074393
                ],
                [
                    0.3077875481310937,
                    -0.24042772164783074,
                    0.1947245714591034,
                    -0.00760799790486517,
                    0.11734016219922351,
                    -0.08528103211976303,
                    0.06586505476612312,
                    0.272046048569737,
                    0.2735322109866165,
                    0.0747293038054492
                ],
                [
                    0.08142192721511023,
                    0.14244909598939506,
                    -0.16528453247500074,
                    0.10722983925025859,
                    0.13107131506540567,
                    -0.11554190841473173,
                    -0.06240063928767039,
                    -0.10722182212648376,
                    -0.02165855548009834,
                    0.05407818497097079
                ],
                [
                    0.19951635735616852,
                    -0.05197698097036176,
                    -0.09532194169711249,
                    -0.10481994480984885,
                    -0.1462321913300489,
                    0.07767755195235346,
                    0.22684762832898994,
                    -0.13049547669839281,
                    0.06287354235528196,
                    0.10394234457009704
                ],
                [
                    -0.21960695541542669,
                    0.22641036375194315,
                    -0.08244364596734878,
                    -0.2421857210536962,
                    -0.11678809806427583,
                    -0.14220536334296618,
                    0.13965572810343582,
                    -0.01605205622769903,
                    0.18497676700206792,
                    0.36949113945860074
                ],
                [
                    0.07065933249234449,
                    0.35007884316731375,
                    -0.058383865398994324,
                    -0.14210681774416084,
                    0.10006919935629942,
                    -0.07295044242494869,
                    0.011401347752690257,
                    -0.004739794530839409,
                    -0.04875346984068005,
                    0.13792472300671818
                ],
                [
                    0.1206696363963949,
                    0.06925358124285197,
                    -0.1538421767001625,
                    0.3997987735670237,
                    0.19677786083474066,
                    -0.0417383452266353,
                    0.3362580382369718,
                    0.20013155284234632,
                    -0.19874756081914274,
                    -0.07003522933976751
                ],
                [
                    0.1532119896805941,
                    -0.12142932489093183,
                    -0.11835375851253423,
                    -0.05914815955033479,
                    0.011383104198735946,
                    0.04931906460305879,
                    -0.10218303038092845,
                    0.113537166623493,
                    -0.14746772107210493,
                    0.07421800990382746
                ],
                [
                    -0.052167991559167654,
                    -0.013595313423623823,
                    -0.01742917407556707,
                    -0.31909887085916827,
                    -0.12258518286166419,
                    -0.07503660350456727,
                    0.0984894208969528,
                    -0.07580889862959328,
                    0.05773212626795298,
                    0.1976698528236189
                ],
                [
                    -0.30401106462530175,
                    0.07197873017390986,
                    0.10657712762122272,
                    0.22559969454286125,
                    0.04543483247402923,
                    0.07110490644772043,
                    0.30654647142033054,
                    0.025554825200340178,
                    -0.2253213024003544,
                    -0.06911071753367977
                ],
                [
                    -0.02006758813971862,
                    0.09428732842424926,
                    -0.17574588870883975,
                    0.1006322916284607,
                    -0.22370039656952773,
                    0.4642674882678453,
                    0.005010229420159922,
                    -0.1429605115374879,
                    -0.24429456717122028,
                    0.2814854822324935
                ],
                [
                    -0.22403231059984133,
                    -0.15219450244752428,
                    0.04728103300912886,
                    -0.3166211040098094,
                    0.14108047550877093,
                    -0.018305081115397234,
                    0.05550814294234809,
                    0.19683324621874995,
                    0.2292475026955242,
                    0.06907758524668343
                ],
                [
                    0.037364144310984865,
                    -0.2543669500286536,
                    -0.25760018790545813,
                    0.18311648531186206,
                    -0.34043345090854155,
                    -0.17453964367323313,
                    -0.15483515955906033,
                    -0.1826082134848208,
                    0.26957557233712276,
                    0.3834241849045276
                ],
                [
                    0.46597164184825207,
                    0.47206397615905427,
                    -0.14892360183034933,
                    -0.25176138778378915,
                    0.06777395118887607,
                    -0.09892781204170789,
                    0.1823764333882431,
                    0.2274075662957126,
                    -0.2049777017111732,
                    0.05458104277571679
                ],
                [
                    -0.25681564480059793,
                    -0.11647507668832609,
                    -0.26003006562625336,
                    0.24752233174253635,
                    -0.22067218437125158,
                    0.32356781530978024,
                    0.13318287140545285,
                    -0.01945986348025029,
                    -0.1210779988265059,
                    -0.049642456653714306
                ],
                [
                    0.0743751612805808,
                    0.1245198733298381,
                    -0.3761906365234517,
                    -0.06400588816707267,
                    0.15383248664609556,
                    0.27240864930277403,
                    -0.4339318792324787,
                    -0.6167798020806073,
                    0.406715230129851,
                    0.21093496313914784
                ],
                [
                    0.42139533727362855,
                    0.012864072955504822,
                    0.3114640264702683,
                    0.11641077167708372,
                    0.2396023038205698,
                    -0.040375328300422224,
                    0.2251010330773367,
                    -0.07157040534377188,
                    0.3034834410641805,
                    0.07680002752311003
                ],
                [
                    0.13191866617792822,
                    0.1842207795510369,
                    -0.1528906141122608,
                    0.014851587499384604,
                    0.3271222974547058,
                    -0.24487163210749774,
                    -0.06615175455834656,
                    -0.43694114941117324,
                    -0.14765862284519146,
                    0.25460195070049363
                ],
                [
                    -0.21989377315376815,
                    0.2552047399956331,
                    0.6266949833454006,
                    -0.1573843735035272,
                    -0.21842966693332616,
                    0.2949121171506552,
                    -0.19383792894959495,
                    0.23336071383686366,
                    0.008383089347430041,
                    0.5678197478952164
                ],
                [
                    -0.06205115876881991,
                    -0.09578521567301436,
                    -0.02433510493403565,
                    -0.12233738385007374,
                    0.41190480235587834,
                    -0.18211406282188972,
                    -0.1374237629864696,
                    -0.10200690937037424,
                    0.045411551260693954,
                    0.28036868527305514
                ],
                [
                    0.1897326802240552,
                    0.1921919211458558,
                    0.018218814612843068,
                    -0.0014082002579172963,
                    -0.0519910058321148,
                    0.2104634641611724,
                    -0.11968638189015891,
                    0.19549305499935868,
                    0.18083581858510145,
                    -0.02104811320775585
                ]
            ],
            "biases": [
                [
                    -0.01335907077398345,
                    -0.04142404345306239,
                    0.2800747685473343,
                    0.35086606186960995,
                    0.0604480612212995,
                    -0.1114617396366615,
                    -0.03270171923169487,
                    0.06185223509463893,
                    0.27892171340276,
                    0.17021471524337375
                ]
            ],
            "n_inputs": 147,
            "n_neurons": 10
        },
        "ActivationReLU-6": {},
        "LayerDense-7": {
            "weights": [
                [
                    -0.16841500330377834,
                    -0.16171535378331878,
                    -0.7677885376520552,
                    0.14222981642078145,
                    -0.7251993096969576,
                    0.4051103149464176,
                    -0.5080873101045786,
                    0.1164196143111867,
                    0.12802707585440296,
                    0.9159435323730765
                ],
                [
                    -1.004352932167585,
                    -0.9456538433215362,
                    -0.5222345160586136,
                    -0.43870363835463516,
                    -0.020599454102960307,
                    -0.22460590000985475,
                    -0.816568266053201,
                    -0.21334341089553144,
                    1.2643176426994214,
                    -1.3892732658045468
                ],
                [
                    1.119173852834632,
                    -0.4927947758894023,
                    -0.15847994385636946,
                    1.2716293179285052,
                    -0.44785516977805884,
                    -0.8437000396619753,
                    0.4816393936225015,
                    -1.2955312907532404,
                    0.12541796422501258,
                    -1.4373483691421565
                ],
                [
                    -0.30726213839224026,
                    -1.0480791408398586,
                    -0.30244655904408907,
                    -0.9474602826429052,
                    -1.320212474178859,
                    1.8699538475414994,
                    -0.5651806984399833,
                    1.7184715284659782,
                    -0.9616742062189744,
                    0.6990741729646626
                ],
                [
                    0.026209994654865513,
                    -0.5272817635356413,
                    -0.3092454561692496,
                    -1.3880053703372692,
                    0.6650248685832291,
                    0.9640950253839573,
                    -0.68790188066319,
                    -0.19064821561335935,
                    -0.07619763646513356,
                    0.6739258285135575
                ],
                [
                    -0.09798952726520972,
                    2.3411832396460497,
                    -0.057240808392992844,
                    1.2455773375652959,
                    1.0415901232996536,
                    0.10909588420983397,
                    0.6260664968691249,
                    -1.3452593944827942,
                    -0.6020667286656128,
                    -0.3963647280801353
                ],
                [
                    -0.19963211536381142,
                    -0.3704741266661281,
                    -0.5884421007627015,
                    -0.4198146363994013,
                    -0.24540866956380908,
                    -0.6113398544660107,
                    -0.38424501894043606,
                    0.36890437560292955,
                    -0.07786373208144073,
                    0.656594225137609
                ],
                [
                    -0.7763929841817029,
                    -0.35416936880900457,
                    -0.678975669208939,
                    -0.447699240178666,
                    -0.6349301472214042,
                    -1.183644108958818,
                    0.5150552151097242,
                    0.257727264293851,
                    -0.35252664965936925,
                    -0.6898689306769848
                ],
                [
                    0.7269038004263699,
                    -0.633618259935476,
                    1.609788247598774,
                    -0.43847226672073003,
                    1.1427237355274829,
                    -0.617707399460099,
                    0.7080247299831983,
                    -3.020371859348962,
                    -0.19745176107427626,
                    -1.912521961016044
                ],
                [
                    -0.9966327052179031,
                    -1.156724883813959,
                    -0.07270832811492388,
                    -0.7466487172928148,
                    -1.232781876452893,
                    0.976319572138574,
                    -0.9830361919386352,
                    0.033578370188212955,
                    0.18971326775893274,
                    1.4957174370913455
                ]
            ],
            "biases": [
                [
                    0.9406512797310256,
                    0.030944914017369,
                    -0.5009916925425437,
                    -0.20700925753657043,
                    -0.6606696127709549,
                    0.01730485692632678,
                    0.5281520542762307,
                    0.6036231365309705,
                    -0.5037446214577567,
                    -0.24826105717409536
                ]
            ],
            "n_inputs": 10,
            "n_neurons": 10
        },
        "ActivationSoftmaxLossCategoricalCrossentropy-8": {}
    },
    "optimizer": {
        "OptimizerSGD": {
            "learning_rate": 0.01,
            "current_learning_rate": 0.01,
            "decay": 0.0,
            "iterations": 150000,
            "momentum": 0.0
        }
    }
}