{
    "network": {
        "LayerDense-0": {
            "weights": [
                [
                    -0.013666172696343319,
                    0.09942479038941861,
                    -0.013055278559874327,
                    0.08204575324969368,
                    -0.04232155738979909,
                    -0.020995336327876136,
                    -0.008363369204833033,
                    0.014962707435086082,
                    -0.051324799444625015,
                    -0.17137113130295345
                ],
                [
                    -0.12060031895293842,
                    0.020092818305517318,
                    -0.08011378324973654,
                    -0.10925782266270598,
                    0.050290001203710216,
                    0.08039190622933313,
                    0.045322433170044925,
                    0.11832035992636152,
                    -0.048430634809303194,
                    0.053846632742370414
                ],
                [
                    0.023533993444667847,
                    0.14913233049578278,
                    0.08144055085966843,
                    -0.12297270966581662,
                    0.11469120884709968,
                    -0.05613609625778865,
                    -0.062317407261979374,
                    -0.12158832889546177,
                    0.10331027914559382,
                    0.010536419903258492
                ],
                [
                    0.010518164390339702,
                    -0.02080802540399802,
                    -0.09440275918472008,
                    -0.01864583168085283,
                    -0.05031351942978184,
                    -0.05764323412796797,
                    0.07683649948715589,
                    0.009674999433954464,
                    0.039729773995286176,
                    -0.04062282191450257
                ],
                [
                    -0.174592676684767,
                    -0.02018528565361565,
                    0.13424056484387067,
                    -0.002821734413511766,
                    -0.06136530269431692,
                    -0.17564006554518113,
                    0.08689147135130537,
                    0.04610617548375342,
                    0.07988222497879992,
                    -0.06360982162476143
                ],
                [
                    0.07141017324492163,
                    0.18238572379166174,
                    0.08761517316921105,
                    -0.06352362098919587,
                    -0.04765664132216988,
                    -0.02640316950668305,
                    -0.0676618572473217,
                    -0.033387716548818266,
                    -0.02947123320631046,
                    0.04138017552490941
                ],
                [
                    -0.010065832083172044,
                    0.013142574424703126,
                    -0.0031710599066877526,
                    0.16205148594390115,
                    -0.04016115888490836,
                    -0.14749384308356941,
                    -0.0020465067108903167,
                    -0.037188138482495414,
                    -0.055361519310467386,
                    0.06119463147329642
                ],
                [
                    -0.058556124616664394,
                    0.013988121660273113,
                    -0.11103504153819659,
                    -0.02291906516334788,
                    0.03378909578383404,
                    0.052912382239294294,
                    -0.03164397006829212,
                    -0.03430084123702528,
                    -0.08940886809427176,
                    -0.08622649111539203
                ],
                [
                    0.07250455040351102,
                    0.23698414225455702,
                    -0.02977343193061868,
                    0.05687628052602309,
                    -0.03582045986079707,
                    -0.04042339785052589,
                    0.044629604313496184,
                    -0.007844787952656996,
                    0.05092254555819969,
                    0.1855332567221223
                ],
                [
                    -0.006628007794468816,
                    0.05602663175281622,
                    -0.1334433064745779,
                    -0.05506511768797523,
                    -0.05005033820597548,
                    0.06651487081897875,
                    -0.1252970167143809,
                    -0.13477701567536307,
                    0.029747508364855343,
                    0.021503954490133884
                ],
                [
                    -0.08831204905342864,
                    0.02609859122282831,
                    -0.09305270934721066,
                    -0.07032272267045019,
                    0.12170669751100273,
                    -0.08644287188447079,
                    0.08364058674023427,
                    -0.09672324000428936,
                    -0.06146188071931332,
                    0.036270978993553055
                ],
                [
                    0.04585072775414324,
                    -0.01059631380908855,
                    0.11340008933404,
                    -0.06111229801168561,
                    0.009326385439079177,
                    -0.01801779036384633,
                    0.013776632886641242,
                    -0.12809206187223623,
                    -0.04223213469145127,
                    -0.027629182518986006
                ],
                [
                    -0.00650991192691034,
                    0.13209022541825383,
                    0.14434579169684644,
                    -0.03170495998233244,
                    -0.05475246001153316,
                    -0.046124123178530936,
                    0.0014512385050641668,
                    0.00919268286469279,
                    -0.0373935776441013,
                    -0.03703763164783895
                ],
                [
                    0.04059959782636799,
                    -0.08942503167281768,
                    -0.18967688649678674,
                    0.10963340432851049,
                    0.023676289483469903,
                    -0.048662722583131146,
                    -0.039473641044013213,
                    0.04352001410331327,
                    0.08239749225252539,
                    0.018599874656798337
                ],
                [
                    0.10459496248385047,
                    0.07405329833497103,
                    0.1290516465434818,
                    0.09030641507081283,
                    -0.003130794598470475,
                    -0.08552177798518026,
                    -0.16671138810770025,
                    0.06128815925749826,
                    -0.047654984389962164,
                    -0.10515558130031515
                ],
                [
                    0.017102063280129202,
                    0.1263237860489166,
                    0.04384844317724408,
                    0.021310140806485765,
                    -0.18982850776338642,
                    -0.009410138697129245,
                    -0.08946148219728906,
                    -0.019497779094075615,
                    -0.016647351365354484,
                    0.24395545492137785
                ],
                [
                    -0.03207446656506664,
                    -0.09508352269971823,
                    0.013526507759230115,
                    -0.07324101512968875,
                    0.11225063243652458,
                    0.06199725997277391,
                    -0.14969987220734057,
                    -0.0010963939566302188,
                    0.1149472820665695,
                    0.08355606644542204
                ],
                [
                    0.138124894569578,
                    0.15321027695824507,
                    0.14645120226803748,
                    0.06555839966560682,
                    -0.038540933541959886,
                    0.004944747879531789,
                    -0.09498042810889556,
                    -0.04115923874124689,
                    0.08024235909334006,
                    0.058430657069535506
                ],
                [
                    -0.09728631276897406,
                    0.12336898983729605,
                    0.0816156168924641,
                    0.011688590393457998,
                    -0.00460676954556027,
                    -0.028965395325565392,
                    0.012955211058683927,
                    0.02568281180573093,
                    -0.03163209091837463,
                    0.0747770246864522
                ],
                [
                    0.003155400574773968,
                    -0.07938006396884496,
                    0.015419484750836454,
                    0.04258559224096618,
                    0.019979758430532298,
                    -0.036420055064335495,
                    0.06452268273822707,
                    -0.15902310466789607,
                    -0.11940533452711295,
                    0.11527658687039342
                ],
                [
                    0.039186524986613326,
                    0.11003917496500042,
                    0.08241794748702455,
                    -0.025325849384117045,
                    -0.0369674429988202,
                    -0.00857454205242685,
                    -0.0077712197980399555,
                    0.05802987289855085,
                    0.02798498126869053,
                    -0.08930453373132313
                ],
                [
                    0.12727644453490577,
                    -0.0015886100475876353,
                    0.016808762005009695,
                    -0.051870868736504254,
                    0.03147925165048523,
                    -0.0014853270477981977,
                    -0.0052693692763001185,
                    -0.04066782683265966,
                    -0.02517999487660728,
                    -0.04587522359184361
                ],
                [
                    -0.04196763974161589,
                    -0.00011666993271954333,
                    -0.07452656322144868,
                    0.011302659563664387,
                    -0.06556410993161314,
                    -0.10876829754910906,
                    0.1034285227794381,
                    -0.07848619178422284,
                    -0.0477908825062722,
                    0.08063217126933597
                ],
                [
                    -0.13034754781911767,
                    -0.012979708918575797,
                    -0.16638363644548526,
                    0.11759615929394114,
                    -0.04937233800197544,
                    -0.049079071899882046,
                    0.078012872670205,
                    0.02209876906326963,
                    0.07312063099824619,
                    0.039403279748597315
                ],
                [
                    0.044337145031861,
                    -0.03669833997002728,
                    -0.05566482706532159,
                    0.06051690501513139,
                    0.03424880346957902,
                    -0.1487076725714344,
                    0.05761336225086544,
                    -0.048569519224236746,
                    -0.039606658319604096,
                    0.03672635623327022
                ],
                [
                    0.045590499662112025,
                    -0.017373055026746916,
                    -0.05120291768500191,
                    0.10540457892101453,
                    0.01768594926967985,
                    -0.09123583739200283,
                    -0.03827917886946021,
                    0.020650319652290475,
                    -0.01683716569495014,
                    0.12088845840811356
                ],
                [
                    0.06445796447772396,
                    -0.07206450623667214,
                    -0.06889561777910819,
                    -0.004792650983488943,
                    -0.07203030484190251,
                    0.07926822231250744,
                    -0.026033539766238307,
                    0.024698786456521092,
                    0.07596733636854554,
                    -0.047371551227081955
                ],
                [
                    -0.1944813560360594,
                    -0.05995662340815057,
                    -0.04116008731646997,
                    -0.047426215224699864,
                    0.02528905166794899,
                    -0.11848895529867334,
                    -0.10005772003819907,
                    -0.017948442233058432,
                    -0.05347769421891799,
                    0.11671283973092479
                ],
                [
                    -0.13706160631518144,
                    -0.08471210241672653,
                    0.1389444711694356,
                    0.056790412371139735,
                    -0.014831608175529688,
                    0.07320606770148501,
                    -0.023221414026184807,
                    0.2719861240906046,
                    0.049131770156856824,
                    -0.10520847710690663
                ],
                [
                    0.0739983466506361,
                    0.06097490353170389,
                    0.039306340008543064,
                    -0.019511966361186187,
                    0.11447539230627536,
                    -0.04766413828474589,
                    -0.07649410552621955,
                    0.12397308062692057,
                    -0.007047321902858436,
                    -0.06893012311700547
                ],
                [
                    -0.06273681048112444,
                    0.07548692925812742,
                    -0.07222691180338207,
                    0.0004410734045124868,
                    -0.09719027030426346,
                    -0.037565285121276784,
                    0.03443921221771877,
                    -0.09062065161572123,
                    0.007111948037499813,
                    -0.18338445430846287
                ],
                [
                    0.07324851967374017,
                    0.06632965177538055,
                    -0.07240762042587487,
                    -0.16013246469851575,
                    0.03258644610816368,
                    0.16495693373122222,
                    0.1024155810060787,
                    0.11585797248322574,
                    -0.053546852209970734,
                    0.15390665582730467
                ],
                [
                    0.21368947281773273,
                    -0.04837493571388103,
                    0.009279016652608031,
                    -0.22148061761314258,
                    0.18047614014907523,
                    0.02441276615384132,
                    0.1182431688109661,
                    0.019931737591653453,
                    0.1957981130582982,
                    0.12888513047774586
                ],
                [
                    0.09261114717693036,
                    -0.01953202897274178,
                    -0.06925970719797812,
                    0.023490344403668505,
                    0.06898099056357002,
                    0.12089781885709278,
                    0.08872266459301326,
                    0.13127886203268854,
                    -0.11264623921434752,
                    -0.022778305322394745
                ],
                [
                    0.1459598600883833,
                    0.04154967794688145,
                    -0.11436139618202378,
                    -0.07179365511484066,
                    0.047794208476542234,
                    -0.004796780496820054,
                    0.013416905599450739,
                    -0.050860893763480394,
                    -0.029245048056217558,
                    -0.029279298534914327
                ],
                [
                    0.03070255426318126,
                    -0.028979470265705663,
                    -0.12541614209865695,
                    -0.16071305164308838,
                    -0.011630530516535684,
                    -0.003141606762590511,
                    -0.012226224711092065,
                    0.07355375691766806,
                    -0.16160581997587192,
                    0.02378674818402255
                ],
                [
                    -0.03895109141879745,
                    0.030492877914089816,
                    0.005950382191293976,
                    0.08253779830175945,
                    0.016331707512320996,
                    0.01805837112211444,
                    0.10958290685835924,
                    -0.0792984971710068,
                    -0.25262634842646653,
                    0.028559098864291838
                ],
                [
                    -0.03821257412655298,
                    -0.03637781697032642,
                    0.0910451956352593,
                    0.034960322902305066,
                    0.011821207559798045,
                    0.03970740759537037,
                    0.07633152671206238,
                    -0.07728357772633813,
                    -0.22037429732741454,
                    0.04026719330084404
                ],
                [
                    -0.001715456813683055,
                    -0.17535376766568617,
                    0.03662917526608762,
                    0.28644487760044085,
                    0.13077527577107595,
                    0.033560387365691134,
                    -0.17454134817139583,
                    -0.2690647856694822,
                    -0.10752069976519334,
                    0.23175741845747666
                ],
                [
                    -0.08085678109114243,
                    -0.04820191503646096,
                    -0.0171431312870009,
                    0.06142977706696913,
                    0.04834495063292333,
                    -0.001465050322561091,
                    0.05449242115287644,
                    -0.013008899540684701,
                    -0.0669569584310454,
                    0.21238147327989376
                ],
                [
                    -0.040624845635099216,
                    -0.021831458193918376,
                    -0.0006720118014671786,
                    -0.08914850578390182,
                    -0.060130959226781786,
                    0.11804549644278735,
                    -0.09122659426221656,
                    0.18470013295711776,
                    -0.029555725292435636,
                    0.12257112871529983
                ],
                [
                    0.1703625953358687,
                    0.052444419099455006,
                    -0.04635558118253953,
                    -0.0016605939340044275,
                    0.12365480666172064,
                    0.0005332797497109657,
                    0.10921036223031325,
                    -0.02505511059410109,
                    0.03296279563088562,
                    0.002478043256298292
                ],
                [
                    0.0053522481314452084,
                    -0.10618843656093624,
                    -0.03127392921084178,
                    -0.042660986929709856,
                    -0.043293444053457246,
                    0.1152345672716358,
                    -0.21784295484239735,
                    0.0005555049490651982,
                    0.008169958841132677,
                    0.18477057351469764
                ],
                [
                    0.055036339373590266,
                    0.1325588647311936,
                    0.10402120280629487,
                    -0.06374346074195587,
                    0.015270817030830908,
                    -0.052552617353732005,
                    0.08880356394176166,
                    -0.013189680468241744,
                    0.04560789111707989,
                    -0.09392025766515105
                ],
                [
                    -0.07429819581762172,
                    -0.09333308913809102,
                    0.13160819649347502,
                    0.12339616066220425,
                    0.03694015347662272,
                    -0.11259808803264507,
                    0.029792743501174723,
                    -0.19991400247814342,
                    0.08185153050652902,
                    0.13398549704687093
                ],
                [
                    -0.029912096002085973,
                    -0.043032272413225485,
                    -0.03133404324653189,
                    -0.010625750539543233,
                    0.0990611307019165,
                    0.11366374570144616,
                    0.12052429364573419,
                    -0.15521912767472046,
                    0.003764866962201908,
                    0.04300986137028358
                ],
                [
                    -0.04260576666125781,
                    0.10993454877111866,
                    0.14892083828438102,
                    0.04220263820818548,
                    0.03521125664770421,
                    -0.012625514429741413,
                    -0.017475625546260254,
                    -0.048348486228595354,
                    -0.10492039368610778,
                    0.031189164298928297
                ],
                [
                    -0.0024027569389467175,
                    0.03478344465355701,
                    -0.13136135968065624,
                    0.08622863094437039,
                    -0.04315450364190941,
                    0.06637804560158704,
                    0.06278759303433902,
                    -0.26763565495866765,
                    -0.009294490570787172,
                    -0.004347286065002915
                ],
                [
                    0.1938327932046987,
                    0.03708507963187288,
                    -0.0062550849502496265,
                    0.15317222112057907,
                    0.09910615111314285,
                    0.18468425023250024,
                    0.1115856870312151,
                    -0.0018151894363862197,
                    -0.123346881150534,
                    0.0016553676937742141
                ],
                [
                    -0.09492937472580258,
                    -0.1589762467753798,
                    -0.07080209289750679,
                    0.006728397061007808,
                    -0.0032173078633427644,
                    -0.0815842083659922,
                    0.06479222849179322,
                    0.06298559893775442,
                    0.0878513874962714,
                    0.16521071631782963
                ],
                [
                    -0.19670935603487527,
                    -0.141152504496132,
                    -0.17014562163105787,
                    -0.035023429016611776,
                    0.0060779183248250036,
                    -0.016091651462500512,
                    0.11536709804884858,
                    -0.014621722876238556,
                    -0.10463615033089413,
                    0.2125602845282045
                ],
                [
                    -0.061695827596148264,
                    0.04492208580662636,
                    0.007004209547275336,
                    -0.02570123240667292,
                    0.02774930150873729,
                    0.11023122492125223,
                    -0.04266303520952669,
                    0.015551805530454437,
                    -0.056476078422405894,
                    0.03697240482156848
                ],
                [
                    -0.09271785168750908,
                    0.060282934283432794,
                    0.06511333989470659,
                    0.0503399649054372,
                    0.04269656637877052,
                    -0.016973688976831113,
                    0.1547577375453695,
                    0.12696867036280984,
                    0.10072456326481098,
                    -0.015601584438994903
                ],
                [
                    -0.0020010347206710945,
                    0.1178533177385122,
                    -0.09042377516822758,
                    -0.08408085319828783,
                    0.07259088321387908,
                    -0.09619399233662336,
                    0.08948981052198939,
                    0.16894662120874,
                    0.09817364852082085,
                    -0.017488197970302516
                ],
                [
                    -0.014065900278509388,
                    -0.00848758879925844,
                    -0.02710650532524788,
                    -0.007365678476916403,
                    -0.0462940237037722,
                    -0.015541247361180817,
                    0.053415591500113636,
                    0.0401924251586445,
                    0.09261088149542016,
                    0.021204303652640404
                ],
                [
                    0.00887118909163304,
                    0.06740434812999804,
                    0.16486527245132748,
                    0.05205211841660511,
                    -0.06977509395019492,
                    0.0983656908848451,
                    -0.07449693935852088,
                    0.08771292881908849,
                    0.08118759221072153,
                    -0.027853261100781703
                ],
                [
                    0.03372067465408297,
                    -0.019627708274593068,
                    -0.08042274228372844,
                    0.03931610973105011,
                    -0.09159477489281567,
                    -0.06644443294539246,
                    0.06501214317510703,
                    0.01682314094865769,
                    -0.033271371267525544,
                    0.013393227997750844
                ],
                [
                    -0.15836809280536135,
                    -0.051076266744918664,
                    0.04486038350042285,
                    0.13522791621503258,
                    -0.018942184208449127,
                    0.0527778292299852,
                    -0.10432358021359663,
                    -0.014774054897082323,
                    0.08124856036342472,
                    -0.05528166995682337
                ],
                [
                    0.03453771473354322,
                    -0.02573642581485346,
                    0.03141519918526072,
                    -0.09554472330252813,
                    0.07252834678477194,
                    -0.1398791715669231,
                    -0.05191858799810689,
                    -0.03225629843770341,
                    -0.09516598402637447,
                    0.03240259754258118
                ],
                [
                    -0.06907550335793487,
                    0.13331459527259668,
                    -0.026512144672158695,
                    0.09638484021518387,
                    -0.10495611554778209,
                    -0.02147956881696126,
                    0.07058199617598993,
                    0.035672291701262265,
                    0.028568194305798933,
                    0.0047633226889172995
                ],
                [
                    0.1291847646910369,
                    -0.005022743733825465,
                    0.05697196845343515,
                    0.0013998467014433484,
                    0.09200405134053194,
                    0.09210541345996358,
                    0.0038052579476321948,
                    -0.062203396221619175,
                    0.027867625158766052,
                    0.07921009194575306
                ],
                [
                    0.026419557834673157,
                    0.042418851717921986,
                    0.09770778087748606,
                    0.025101078991356156,
                    0.20354869306999812,
                    0.043820402653784424,
                    0.14190080830756108,
                    0.06937891225717921,
                    0.06339316517126371,
                    0.049316477448313946
                ],
                [
                    0.020144774419785932,
                    -0.06177730863046474,
                    0.0157530260222696,
                    0.06850491079264709,
                    -0.028627232259810852,
                    -0.13193345090212033,
                    0.043638087063814286,
                    -0.0822550432581397,
                    -0.12604133487678357,
                    0.06621836140993331
                ],
                [
                    -0.07910689731167735,
                    -0.1383666980437082,
                    -0.06735472564748424,
                    -0.005309592093042991,
                    0.09026016934444403,
                    0.10595712919345113,
                    0.08033963327075033,
                    -0.057287810105556926,
                    8.58477548503109e-05,
                    0.01579341650012531
                ],
                [
                    0.06332082917784118,
                    0.08094892534893099,
                    0.03377844136196117,
                    -0.0023118592711501096,
                    -0.05086378390812548,
                    0.17512030333174217,
                    0.14353816297723024,
                    -0.04625572599770493,
                    0.13595130585138576,
                    0.10902474309355403
                ],
                [
                    -0.0887772102568178,
                    0.007538579019243992,
                    0.093187424101743,
                    0.004942363251647523,
                    0.044758751103902476,
                    0.07017090384792353,
                    0.09422234950569303,
                    -0.07315253339524676,
                    -0.08859610230238539,
                    -0.06820699501864208
                ],
                [
                    -0.026637747433343715,
                    -0.09227666334074164,
                    -0.09011823298471779,
                    0.0035174684794597884,
                    -0.0004625297842561117,
                    -0.06602370728988485,
                    -0.0663333750792959,
                    -0.049139295224852185,
                    -0.049983630728649156,
                    -0.012571261330381675
                ],
                [
                    -0.0044658029134104285,
                    -0.0057358774469076805,
                    -0.00532049748467173,
                    0.05269501938758479,
                    -0.08384652867796538,
                    0.01627896661404803,
                    0.08675414685827151,
                    0.08050706415057966,
                    -0.08858158334402463,
                    0.19131709660537172
                ],
                [
                    0.15843228923621852,
                    -0.13355733911003445,
                    0.03152411081004217,
                    0.031120312013708105,
                    0.07115270960072924,
                    0.0758490237191995,
                    0.031754729601315305,
                    0.0930459361381063,
                    -0.11799931064945576,
                    0.03364982672523291
                ],
                [
                    0.06220236302725076,
                    0.06011008087546308,
                    -0.03647761341964736,
                    -0.06817006460862382,
                    -0.12262136128884815,
                    -0.09220629583796389,
                    -0.06623211380304954,
                    0.009230730747778481,
                    -0.11031006544932903,
                    0.018722145958812716
                ],
                [
                    0.03716377238802563,
                    0.04198841830780827,
                    0.0798477137423329,
                    0.07761435424196315,
                    -0.07063266519303607,
                    0.013129236091182538,
                    -0.026594814697267266,
                    -0.03223217995621346,
                    0.08321141207335712,
                    -0.01681198324861847
                ],
                [
                    -0.22754479603056296,
                    -0.09863732181247398,
                    0.049817290114010274,
                    0.13761929059160663,
                    -0.010193041212793042,
                    -0.03767597613615961,
                    -0.046652625952331786,
                    0.22452593532975024,
                    0.13561468416796732,
                    0.11513257771070098
                ],
                [
                    -0.16799993194909077,
                    -0.026597719488993494,
                    0.17169493182666323,
                    -0.1625511861390258,
                    -0.1310907286826989,
                    -0.039675077026237605,
                    -0.01016982350220717,
                    -0.0518895935967888,
                    -0.0571957640588545,
                    -0.07393672629507797
                ],
                [
                    0.019879505389213223,
                    0.02860804223975927,
                    -0.057623676837733555,
                    -0.03266914444900641,
                    0.10795764364119712,
                    -0.14340331113598653,
                    0.09528090403050103,
                    -0.003477886952604919,
                    0.1339109445882983,
                    0.04830239469538662
                ],
                [
                    -0.029286645863172686,
                    -0.058314700649473736,
                    -0.1589488917496798,
                    -0.023840042954589684,
                    0.02683067715171941,
                    0.023424004840069575,
                    -0.1411170686729733,
                    0.09175895260164812,
                    0.14357182744540523,
                    0.00017112278905165196
                ],
                [
                    0.004768089641878143,
                    0.12218921798018653,
                    0.1977424303648756,
                    0.1138168582137143,
                    0.10928452343115651,
                    0.08961878315644288,
                    0.02142093185766829,
                    -0.13969605389886133,
                    -0.14404252181178545,
                    -0.030594589895934214
                ],
                [
                    0.05939521292523963,
                    -0.03940235638229424,
                    -0.0037797238343793677,
                    0.10336858514506596,
                    0.015048758737053882,
                    -0.03186368747562774,
                    0.11775912730783042,
                    -0.05148962100146612,
                    -0.043286151230852825,
                    0.012602432852173799
                ],
                [
                    0.07811390039388562,
                    -0.00833428819057818,
                    0.04980445673598571,
                    -0.050403496813573985,
                    -0.03624896915106606,
                    0.05240004132627114,
                    0.24176060784506467,
                    -0.048864979422302626,
                    0.07529893664908001,
                    -0.09835100137258274
                ],
                [
                    -0.05994314273256638,
                    -0.015991941596263572,
                    -0.2324617487968157,
                    -0.018013885457341103,
                    0.0710021670763518,
                    -0.07061846988320193,
                    0.024072366123238164,
                    0.06586395323538254,
                    -0.09477908093536344,
                    -0.1404363886635353
                ],
                [
                    0.030773758187274573,
                    0.0535030201423617,
                    0.023331045478203704,
                    -0.23767006014561015,
                    -0.10021770952560909,
                    0.07786417131911551,
                    0.14700875910013944,
                    -0.06761917327576715,
                    -0.16399563015559473,
                    -0.1866760213757667
                ],
                [
                    0.016109792365003744,
                    0.07899886368615754,
                    -0.13452035022404474,
                    -0.00866319989200736,
                    0.09833752863168425,
                    -0.07463926839197298,
                    0.07111269800860143,
                    -0.010823021371083938,
                    0.03849999580356613,
                    -0.14633665441994892
                ],
                [
                    -0.030972217001920557,
                    -0.0073923213652441165,
                    -0.08242220533767278,
                    0.09736260560008334,
                    0.15675996379968118,
                    -0.035881391919093925,
                    0.08683847199080491,
                    0.15729150309876147,
                    -0.050432712481884356,
                    0.06499504536159276
                ],
                [
                    0.04041903395506748,
                    0.028811365092813727,
                    -0.10720241657270194,
                    0.033953605265098,
                    -0.04640036698877563,
                    -0.1519804173265173,
                    0.029660977935849816,
                    -0.014954853753820805,
                    0.03272040682484204,
                    0.07897814811760867
                ],
                [
                    -0.007720662817845538,
                    -0.20687407636780408,
                    -0.0872888861242084,
                    0.031204934518834895,
                    -0.09189655345872257,
                    -0.012838746309072278,
                    0.07542379286919591,
                    0.015246950760934741,
                    -0.05820299577479508,
                    -0.11517233209525493
                ],
                [
                    0.10356731937109609,
                    0.0482946032030337,
                    0.08460123978916076,
                    -0.041883192889140705,
                    -0.03303439841743741,
                    -0.11112424483983216,
                    -0.0007282795564224043,
                    -0.04456871966940911,
                    0.06950762838857484,
                    -0.0658958418667718
                ],
                [
                    0.03193702408486727,
                    0.18054440756931153,
                    0.001408802443512054,
                    0.11687806391832707,
                    0.030512800867596352,
                    -0.1311612400932391,
                    -0.014878758021847304,
                    0.14135498054161033,
                    -0.27238868062693267,
                    0.02213483937788406
                ],
                [
                    0.0029152565659302126,
                    0.11517422297269449,
                    -0.028389407352857138,
                    -0.03699127204553977,
                    -0.0742221172703837,
                    0.1449095842297535,
                    0.13679557518626234,
                    -0.0216494459291477,
                    -0.0060262113599310885,
                    -0.07455275542412625
                ],
                [
                    0.11209512457988705,
                    0.008566951423383404,
                    0.04768670606502317,
                    -0.056489788591239105,
                    0.14462459764098015,
                    -0.11910481240957324,
                    -0.06622222562389489,
                    0.04614269522237984,
                    -0.12430187904211148,
                    -0.04559598981888037
                ],
                [
                    0.08077168580975473,
                    -0.16467534333959052,
                    0.005579709228948114,
                    -0.10470815117521723,
                    -0.007656467933386489,
                    -0.05687572935359219,
                    0.10606428066115128,
                    0.0301900786816771,
                    -0.05825029276225018,
                    0.10509784045045925
                ],
                [
                    -0.0026921653753733663,
                    -0.07652779398104921,
                    -0.024692491936389113,
                    0.09831316753346679,
                    0.12019625822507096,
                    -0.026687926401176478,
                    -0.01336687189811358,
                    0.06682810933183476,
                    0.00648618127849311,
                    -0.008522906809436143
                ],
                [
                    -0.050854737505321504,
                    -0.1796815085516932,
                    0.056182455072140335,
                    0.07923078649707854,
                    -0.118471729122047,
                    -0.16196414237789328,
                    0.13199119462832742,
                    0.006365198800417177,
                    -0.03336093208025465,
                    0.0450993753026711
                ],
                [
                    -0.0770060668138169,
                    -0.030317840296244968,
                    -0.11556681876006208,
                    -0.0922707225073828,
                    -0.06529535957695308,
                    0.007763522198969541,
                    0.12553288753774144,
                    -0.02434856451360202,
                    -0.13017519004933858,
                    0.055671597631830036
                ],
                [
                    -0.09764159523309753,
                    0.1365757600427152,
                    0.05634001437473759,
                    -0.05084563656915416,
                    -0.04683379152328886,
                    0.07423854041260931,
                    0.08875589911969882,
                    -0.05708965821226926,
                    -0.06464719852006073,
                    0.03569769686744777
                ],
                [
                    -0.12185644108840081,
                    0.027580602725293304,
                    -0.0030453811401948863,
                    -0.18502352754237883,
                    -0.06278544028960269,
                    0.03942687240922977,
                    -0.003377074138237424,
                    -0.021495484542431376,
                    -0.06300524097474516,
                    0.17778673922937752
                ],
                [
                    -0.0017421866857074116,
                    0.010315917858422022,
                    -0.036013494094259225,
                    -0.16876005654485657,
                    -0.036672534739474294,
                    0.04227508507375604,
                    -0.04222333553805505,
                    0.01697564882605313,
                    0.019373129735649988,
                    0.05254447185973559
                ],
                [
                    0.06465298801112113,
                    0.06449610747283525,
                    -0.019023174469226387,
                    0.042161060077890736,
                    0.03618698609365297,
                    0.05809696027932415,
                    -0.0805768401642007,
                    0.005647097129216605,
                    -0.01240993411174275,
                    -0.0987544411466145
                ],
                [
                    0.20756983681552446,
                    -0.07121056331010227,
                    -0.05254500895354211,
                    -0.04637824676134952,
                    -0.011824820687152623,
                    -0.09069751954869576,
                    -0.07038302150473873,
                    0.02060746305703636,
                    0.0260138382274905,
                    0.10907873150220206
                ],
                [
                    -0.01608964061712825,
                    0.05040254890427496,
                    -0.10340210388314394,
                    0.06465143803524713,
                    -0.05675911829801345,
                    0.10339671412816882,
                    -0.021356291977470927,
                    0.08469045459108497,
                    -0.23481870675297306,
                    0.006962877824849359
                ],
                [
                    0.1341843034755281,
                    0.022672394326727355,
                    0.07655116509013765,
                    -0.057052180168355476,
                    0.02049687110527914,
                    0.023347865027787993,
                    -0.027064201251499602,
                    -0.021401283335133775,
                    0.08677058083200472,
                    0.12284149512985466
                ],
                [
                    -0.13736339418753937,
                    -0.14652358092621567,
                    0.03513174552767845,
                    0.10921784054970625,
                    0.07529646495011671,
                    0.0036174647347601255,
                    -0.05912397800969203,
                    -0.000562973576465904,
                    0.05669722310699849,
                    0.04617397043153138
                ],
                [
                    0.06918404133432719,
                    0.07834031561981464,
                    0.09102946137685762,
                    0.0883402866873479,
                    -0.18797970986268872,
                    -0.038632948123978,
                    -0.04173536011541834,
                    0.07309145243163068,
                    -0.1350991960801677,
                    0.05449746635775306
                ],
                [
                    0.09032596520744536,
                    -0.05965567323790693,
                    0.03146661331368544,
                    0.011119037671111484,
                    -0.019365082542266137,
                    0.0781010422353065,
                    -0.03575016089660904,
                    0.04273395508751927,
                    0.010778377942319511,
                    0.07889135751570692
                ],
                [
                    0.05048846125208851,
                    0.01712200226088538,
                    0.033355337117977175,
                    0.039065258611236144,
                    -0.04228650072951688,
                    0.04519047150109903,
                    0.08206349440990941,
                    0.07704827414066066,
                    -0.12235558750628818,
                    0.03533267977994132
                ],
                [
                    0.010905106641760963,
                    0.032063874274977366,
                    0.035155150977965996,
                    -0.181750796326066,
                    -0.07498828233999885,
                    -0.04454022445113647,
                    0.030969932577924596,
                    -0.019314292899136602,
                    -0.13730362613223016,
                    0.0016462877916739258
                ],
                [
                    0.012070931128837068,
                    0.09484443453129024,
                    0.028243425111653918,
                    -0.04967600645541253,
                    -0.15975245915685843,
                    0.046195853267610255,
                    0.10748263094946724,
                    0.10106663745338589,
                    0.0014617033361240895,
                    -0.03888351312491375
                ],
                [
                    -0.09474548226175392,
                    0.02742835925847021,
                    -0.03782629961814644,
                    0.03332375970895904,
                    -0.10158282521582244,
                    -0.047143977191664355,
                    0.20923204321036454,
                    -0.0432190202760337,
                    0.009443913952203177,
                    0.005332279538469673
                ],
                [
                    0.01727337212377919,
                    -0.10933835853036639,
                    0.12471647953014087,
                    0.09151147510754974,
                    0.05480686519450696,
                    0.03313700333983603,
                    0.13164839506379178,
                    -0.2364205438934299,
                    0.017526966193505283,
                    -0.09883248325277544
                ],
                [
                    -0.003482441609593102,
                    0.03565702978982277,
                    0.025180632334420583,
                    -0.08471424156818605,
                    -0.046309878496678454,
                    -0.010229466133130747,
                    0.06358545574179926,
                    -0.04802417918304647,
                    -0.1111931999549386,
                    -0.11248914552840995
                ],
                [
                    -0.018314074772632527,
                    0.006787439851421463,
                    0.061351290427908656,
                    0.018733658822573343,
                    -0.005804247489638793,
                    0.05061139999288214,
                    0.07656270783860024,
                    0.060621516509522425,
                    0.12034004977670325,
                    -0.07379471194683056
                ],
                [
                    -0.13058231890291838,
                    0.052575343303723904,
                    -0.11529078069067827,
                    0.05772771112576656,
                    -0.022954864371431873,
                    0.040830331651318975,
                    -0.01939032662867548,
                    -0.07268805308784432,
                    0.07600983103941265,
                    -0.08782622913744105
                ],
                [
                    0.08258129273949959,
                    -0.023222528472492444,
                    -0.13365619355582217,
                    -0.004809561959514165,
                    0.03394773700181984,
                    0.023962878528845752,
                    0.05567821327299469,
                    0.10324656635769341,
                    0.04892280063565532,
                    0.02608118635661619
                ],
                [
                    0.02496462165545277,
                    -0.06544988396627065,
                    -0.21791522165098967,
                    0.004492742118022404,
                    -0.017901719282631297,
                    -0.13531398572995915,
                    0.01714093362388676,
                    0.11843293274818634,
                    -0.020972628791499616,
                    -0.14963082585193913
                ],
                [
                    -0.12850059791364596,
                    -0.01213396063146471,
                    -0.0842518713989426,
                    -0.1286383468407321,
                    -0.015433875805070423,
                    -0.03369758379690593,
                    -0.01500515901576343,
                    0.09490926118138106,
                    0.0825452326922176,
                    0.2258159839894334
                ],
                [
                    -0.04003984472626969,
                    0.03651521585307446,
                    0.015905355957469985,
                    -0.06502437637588146,
                    -0.15397571907203791,
                    -0.06020391819575503,
                    0.0320752256413693,
                    -0.09907015771434753,
                    0.09766413104305716,
                    -0.020433103260488993
                ],
                [
                    -0.001633995424263947,
                    -0.0010790281308400431,
                    -0.023944819265785126,
                    0.1286516010280131,
                    -0.032151756992929936,
                    -0.1757738782132846,
                    -0.05355763370905035,
                    -0.04631047737310166,
                    -0.11721197109735387,
                    0.1238300653095184
                ],
                [
                    -0.06184157796689882,
                    -0.09343644854323191,
                    0.004901609291415084,
                    -0.09149816518026001,
                    0.08534313907666809,
                    0.12049377630296343,
                    0.03973693638753972,
                    0.05433261862577314,
                    -0.0038355311155281904,
                    -0.0725158577153039
                ],
                [
                    -0.05552457411088206,
                    -0.053181099290266216,
                    0.16374377286010175,
                    -0.01354355652293644,
                    0.10646658442266561,
                    0.048276423152110795,
                    0.019902529519979492,
                    -0.03770707554754791,
                    -0.13391118433630383,
                    -0.09800248407717402
                ],
                [
                    0.008129656540225967,
                    -0.14502087747328996,
                    0.08313852902183126,
                    -0.07163116556300682,
                    0.15374665529627135,
                    -0.05232693223693366,
                    0.12568468030611812,
                    0.030471857742861187,
                    0.036907961569133986,
                    0.07709495096482728
                ],
                [
                    0.016097236387738988,
                    0.022720328194822493,
                    0.03800629249499888,
                    -0.09391210629201495,
                    -0.15269076170953363,
                    0.09643029522215114,
                    0.023177765774121145,
                    0.024242209148306413,
                    -0.11865990943401762,
                    0.01323243378706576
                ],
                [
                    0.06352209443289367,
                    -0.04431818368872945,
                    0.10619636746834836,
                    0.025165388909540988,
                    -0.12920599103934466,
                    -0.019473627200172282,
                    0.1454529129258557,
                    -0.04301158409183342,
                    -0.030133647179492327,
                    0.011836195238541621
                ],
                [
                    0.08675223140919988,
                    -0.005742844768439406,
                    -0.04087345817537427,
                    -0.1293272615873266,
                    0.02204774436274157,
                    -0.028085939753783037,
                    -0.1304066094575049,
                    -0.06496658023104228,
                    0.1081965662882097,
                    0.05702424725684923
                ],
                [
                    0.22081256345479913,
                    -0.11295403023366048,
                    -0.02375322038109826,
                    -0.06384243283520927,
                    -0.037937468172144564,
                    -0.08396173539123471,
                    -0.09770384430995366,
                    0.0340444016951027,
                    -0.01658640369957193,
                    0.09279596982039302
                ],
                [
                    -0.07362176249856749,
                    0.025861285392347902,
                    0.09276380049623041,
                    -0.07316548494267633,
                    -0.021611660282887656,
                    -0.008002117030612085,
                    -0.07642845499080718,
                    0.018389931487474885,
                    0.017430095757829226,
                    0.09418300295448405
                ],
                [
                    0.0802262898126796,
                    -0.08329041728109036,
                    0.10023315685588773,
                    -0.0367521649371516,
                    -0.08342842142679187,
                    0.006726271446490084,
                    -0.0229166357086757,
                    0.08497121003697611,
                    -0.06901740930783587,
                    0.024625758022693785
                ],
                [
                    -0.08515905198786002,
                    0.09742580108596115,
                    -0.048429470654873435,
                    -0.016508665517690285,
                    -0.09767838457827674,
                    -0.04353339872099484,
                    -0.1491733141305656,
                    0.010474527558771849,
                    -0.020389019875997748,
                    0.2649555237056782
                ],
                [
                    -0.060923344730449545,
                    -0.012736075176803351,
                    0.04443732044346214,
                    -0.204665381621043,
                    0.04039265689840549,
                    -0.043973895088091956,
                    -0.03586552230091739,
                    -0.02088661281450692,
                    -0.030361020513477298,
                    0.05746794505975148
                ],
                [
                    0.1914904322664698,
                    -0.07523188333269343,
                    0.05232762672348737,
                    -0.08523456000617075,
                    0.10772515210924827,
                    -0.03871758551222946,
                    -0.08240832891282591,
                    0.04836215557615999,
                    -0.027737261067921636,
                    0.06012580952392545
                ],
                [
                    -0.07598414293912506,
                    -0.09114871752619354,
                    0.016692699461942268,
                    -0.10086476617756913,
                    0.11129587355145153,
                    -0.019914513441300134,
                    -0.04409915615566861,
                    -0.02220366240239908,
                    -0.027448824572619476,
                    -0.002847074165709188
                ],
                [
                    0.09663794343506013,
                    0.1121802363719435,
                    0.028977008139978683,
                    0.08472088173299493,
                    0.0896588247444632,
                    -0.05436829596068371,
                    -0.04340485245070504,
                    0.14195602067213126,
                    -0.08963584286473053,
                    0.09865109844002484
                ],
                [
                    0.09444470000021879,
                    -0.0650958919391692,
                    0.012917510070222666,
                    0.11824649814227572,
                    0.13582549323675006,
                    -0.03483474387980432,
                    -0.12867912054640027,
                    0.09594176753949203,
                    0.009355342873707295,
                    0.053766530820953506
                ],
                [
                    -0.09580615341281608,
                    0.0531376615675748,
                    -0.13902222326884792,
                    0.0031501212748344305,
                    0.07457692686827506,
                    0.03079929354877603,
                    0.14967296688689846,
                    0.005038289974601417,
                    0.09009510017584642,
                    -0.0039552552211890475
                ],
                [
                    -0.17431478627780012,
                    0.023089890057999756,
                    0.16257689639253892,
                    -0.06939978948234415,
                    0.026439925112055566,
                    0.04948975040161587,
                    0.1375621174839803,
                    -0.05647859566108825,
                    -0.025754851713558655,
                    -0.08981376707947467
                ],
                [
                    0.05299596173223989,
                    -0.16448735313715235,
                    -0.013354140254228342,
                    0.15911615778747723,
                    -0.18715906817458305,
                    -0.0021096728517155136,
                    0.017004082878855176,
                    0.023915212953023603,
                    0.09813491863821695,
                    -0.006604127292885246
                ],
                [
                    -0.04313823731535607,
                    -0.04937841780925348,
                    0.09082710596005454,
                    -0.0573870293611637,
                    0.01581825827794295,
                    0.04692179174235592,
                    0.03379758271072704,
                    0.23040472928651104,
                    -0.0607841566883895,
                    -0.04873171349666475
                ],
                [
                    -0.08786691037607063,
                    -0.14562549501005997,
                    0.21530542816422904,
                    0.04110527426549027,
                    -0.09719032728980762,
                    -0.1529698174269412,
                    0.0022753852719910013,
                    0.13122625619579636,
                    -0.05552613935910957,
                    0.04839940356405462
                ],
                [
                    0.04926763567641336,
                    0.13110627872011157,
                    0.040950368499741555,
                    -0.0725377056654955,
                    0.10981763116105339,
                    0.0022673626326340872,
                    0.11480689890505055,
                    -0.1900081187969405,
                    -0.06770420005829456,
                    0.022444003506062668
                ],
                [
                    0.07820851268782167,
                    -0.08391764616374757,
                    -0.06440909706640842,
                    0.1354869548902829,
                    -0.11760107963158623,
                    -0.07883477164821154,
                    0.008902940107284629,
                    -0.07255974316614702,
                    -0.061543831871848295,
                    -0.08906882676524565
                ],
                [
                    0.009175324583478184,
                    -0.08040350169524846,
                    0.08186331937724285,
                    -0.18292225281586097,
                    -0.04304258158354233,
                    0.09837518013433147,
                    0.11141484133582295,
                    0.11019209797988563,
                    0.10270198875877766,
                    0.02906775510249744
                ],
                [
                    -0.11375943198419822,
                    0.09340718865451937,
                    -0.06112735364203746,
                    -0.03572811932661798,
                    0.1046811346355502,
                    0.0245782153827921,
                    -0.24085668408428093,
                    0.064044158072064,
                    -0.037241090314259095,
                    -0.014331064755765286
                ],
                [
                    -0.0016667679843387834,
                    -0.022938224897468072,
                    -0.06978686441555366,
                    -0.10719980477946775,
                    0.02729603869774529,
                    -0.007017152962840893,
                    -0.07100882393989817,
                    0.06430310463848642,
                    0.011809895637865,
                    0.006153302381947819
                ],
                [
                    0.033876733814203815,
                    -0.014452641461753972,
                    -0.04054964254795925,
                    -0.16441484424434802,
                    -0.03717553190248412,
                    -0.07960806184128952,
                    0.044407260130761086,
                    0.1439813719451678,
                    0.06298796863644662,
                    0.04541192604319339
                ],
                [
                    0.031756269969862035,
                    0.061613813078750634,
                    0.004703720208213936,
                    -0.02354965908884381,
                    -0.04716839794542534,
                    0.16760365332475446,
                    0.08950480185241756,
                    0.012159219740303501,
                    -0.042749959316473844,
                    -0.018836259082581495
                ],
                [
                    -0.02296100069112101,
                    0.05926582914563382,
                    0.027750075295464208,
                    0.12412929936666653,
                    -0.0072333086608607515,
                    0.18168084590188371,
                    -0.039593982913464,
                    -0.1119261616936262,
                    0.10447942661733182,
                    -0.021598438210236787
                ],
                [
                    0.09337248415969612,
                    0.0017717128327888294,
                    0.008905255016634552,
                    -0.025380037674118006,
                    -0.11862805378678841,
                    -0.10150087438194251,
                    -0.06631417185249971,
                    0.011838560035103581,
                    0.0017187795084788583,
                    0.1352073482848807
                ],
                [
                    0.018423841416203592,
                    0.03766718304617323,
                    0.06064719981182689,
                    0.008574324680918588,
                    0.16275118550768353,
                    -0.04485810427649354,
                    0.07547856373040625,
                    -0.024018153066264803,
                    -0.029140483855918737,
                    0.06298068032610184
                ],
                [
                    0.005904875739115292,
                    -0.0717507519859048,
                    0.054514983901184595,
                    -0.024499259821676975,
                    0.12120278437747574,
                    0.1477278390826108,
                    0.15368213919178247,
                    -0.08112848424171427,
                    0.019903486945148187,
                    -0.07328795381315077
                ],
                [
                    -0.06805852424289834,
                    -0.025059738951314248,
                    0.017839294442517743,
                    0.04569578723455274,
                    0.05742371549062445,
                    0.15625605488529185,
                    0.07432071270830988,
                    -0.004467913897223278,
                    0.031819941895212984,
                    0.11915892924632453
                ],
                [
                    -0.026949797278262366,
                    -0.08700855620908496,
                    -0.16666232190382574,
                    0.06511751012337223,
                    0.055106281976230014,
                    -0.008758063918701564,
                    -0.07212651211727962,
                    0.19338407811774255,
                    -0.093035894984121,
                    -0.02662597425486264
                ],
                [
                    0.02260874614773859,
                    -0.12353519024990275,
                    -0.04713532705851076,
                    -0.0866366949824492,
                    0.022100323769034806,
                    0.07119667019369784,
                    -0.005644554968873503,
                    -0.062266765457295495,
                    0.03802870055353112,
                    -0.10058540826354771
                ],
                [
                    0.05307028210009482,
                    -0.1521404901268028,
                    0.09444282351468727,
                    -0.00024018840445809154,
                    -0.08695895529871404,
                    0.06780247353890774,
                    -0.08702728861856714,
                    0.00384270891972185,
                    0.06606841940641461,
                    0.14804668122810757
                ],
                [
                    -0.03374173212696136,
                    0.019298170172154957,
                    -0.07401437381779871,
                    0.014890937152227338,
                    0.10067698275741768,
                    0.1291073260141772,
                    -0.10447939091375341,
                    -0.16961282759004145,
                    -0.10503961489565986,
                    0.008670414477806683
                ],
                [
                    -0.0005343911829294513,
                    -0.024412233514858085,
                    -0.07554590664194005,
                    0.1184668806102054,
                    0.12180789022175315,
                    0.014905810236252919,
                    0.03412182275454419,
                    -0.14701522025638353,
                    0.08211857159539625,
                    -0.04247089525494308
                ],
                [
                    0.1595960598200248,
                    -0.0483624710599694,
                    -0.07500246496667692,
                    0.0017371020284797478,
                    -0.031735489276370564,
                    -0.015577273878062911,
                    -0.05638189704199366,
                    -0.011772350381015099,
                    0.1308389925931467,
                    0.017974612072205947
                ],
                [
                    -0.08102847294642618,
                    0.08971276096066545,
                    0.08532237689779745,
                    0.06678797642832585,
                    0.09332822844516936,
                    0.14370735642318824,
                    0.03190929482691478,
                    -0.15348463777905472,
                    -0.0972828665698356,
                    0.08700265072901023
                ],
                [
                    -0.003911144310559145,
                    0.12740066545423617,
                    0.06023537033813829,
                    0.032091818189065646,
                    -0.030465354716513494,
                    -0.04923124208960856,
                    -0.06252148192488408,
                    0.13172890595438638,
                    0.10389697281334226,
                    0.048864051523707284
                ],
                [
                    -0.030613179712211995,
                    0.010183743378804257,
                    -0.10882062424450845,
                    -0.030271965953967223,
                    0.10057718563361928,
                    -0.06451254530088901,
                    0.029520661852754506,
                    -0.028535881040430814,
                    0.10679679759173591,
                    -0.044263466974766304
                ],
                [
                    -0.09305328041670224,
                    -0.010342635998596581,
                    0.06692349451916313,
                    0.041616797803268206,
                    -0.024539626409994873,
                    0.18080041949903225,
                    -0.07632675473407158,
                    0.010745487542684314,
                    -0.21613425219932794,
                    0.05920807795921649
                ],
                [
                    -0.07410798949442292,
                    0.1318024348647556,
                    0.02101689098804129,
                    -0.13952498628306959,
                    0.0003283245908298523,
                    -0.03048431667044167,
                    -0.0183625214498317,
                    -0.16707874572381443,
                    -0.04706925603952412,
                    -0.004954968447117008
                ],
                [
                    0.0013361658171732237,
                    0.03185031787052642,
                    -0.06119616148784988,
                    0.10007468994839247,
                    -0.019893077243074424,
                    0.06298055251298626,
                    0.0021149384033453044,
                    0.020365258869588863,
                    -0.028571915601143517,
                    0.017435486036675284
                ],
                [
                    0.1393623099735067,
                    -0.009473149950884696,
                    0.058034428325607304,
                    0.10131024452717287,
                    -0.0005600488690068621,
                    -0.06856314838552745,
                    -0.06055450849549881,
                    0.03259251812418551,
                    0.00991986083528108,
                    -0.01673673561252024
                ],
                [
                    -0.017912165743106934,
                    0.08452937797456479,
                    -0.06644892841119043,
                    -0.10767304440094744,
                    0.12087028823041442,
                    -0.015553938197756197,
                    -0.14424454673646547,
                    -0.10516056633130333,
                    -0.06815659632597373,
                    0.055475980068362726
                ],
                [
                    -0.15163125434696897,
                    -0.15631303574814853,
                    -0.11923245728497824,
                    0.0818727501247932,
                    -0.21502771172193919,
                    -0.0613918593393857,
                    0.06140359197297888,
                    -0.058409910843131845,
                    0.049079269949711096,
                    -0.11190666675772926
                ],
                [
                    0.09803256984411866,
                    -0.0142118701179611,
                    -0.10156778020835786,
                    -0.011212089266585758,
                    0.02198967498031141,
                    0.04760009372915391,
                    0.11357300083564742,
                    -0.054226798052861326,
                    -0.05729231378797642,
                    0.09991549167438607
                ],
                [
                    -0.19702729679225087,
                    -0.01362070508500979,
                    0.00954040042001886,
                    -0.0510956430108844,
                    0.0928372548348192,
                    -0.1211953764774484,
                    0.11243874601503022,
                    -0.052796317593837135,
                    -0.1426651735957963,
                    -0.07902254957730548
                ],
                [
                    0.18613344071527885,
                    -0.2076641042414652,
                    -0.09051278341369391,
                    -0.004916504115220444,
                    -0.06349374340100294,
                    0.018371770141615514,
                    0.17474979789200756,
                    0.03591394579114169,
                    0.08997727874957186,
                    0.09178010673444177
                ],
                [
                    -0.12506375841641107,
                    -0.043405491158711486,
                    0.03902614224047193,
                    0.03939159325915468,
                    0.11754594334038357,
                    -0.05314669629062923,
                    0.053132771411113645,
                    0.006294141926849646,
                    0.1629625752004844,
                    0.056630382340996155
                ],
                [
                    0.08529223037632916,
                    -0.008962018578588202,
                    0.08370572693241074,
                    -0.021585382824149343,
                    0.11771790399448027,
                    0.006649018074210012,
                    0.05874465343924615,
                    0.09049898508768682,
                    -0.06759248876353026,
                    -0.08782588856580113
                ],
                [
                    0.0681087091508774,
                    -0.06595335261029978,
                    -0.10579412912669625,
                    -0.07341920856213632,
                    0.08237334586989369,
                    -0.0678989737409303,
                    -0.04274507616976228,
                    0.14464399538355577,
                    -0.009375845352621048,
                    -0.08616570165667324
                ],
                [
                    -0.08007549496012423,
                    0.16634848125764812,
                    -0.028703271753866135,
                    0.15581383344458025,
                    -0.0445337787892007,
                    -0.09693018103762742,
                    0.0064448650677593165,
                    -0.05899828065702926,
                    -0.05839710617774768,
                    0.13661736434804872
                ],
                [
                    -0.0498669526915875,
                    -0.011609623312242613,
                    0.009347691048752941,
                    -0.10657831491423786,
                    -0.04334652593397877,
                    -0.0008835001163278639,
                    -0.0625862500154172,
                    0.07467340552181384,
                    0.06566687948469378,
                    0.07771581710754405
                ],
                [
                    -0.03138210079376092,
                    -0.05682732211270517,
                    -0.06106012910546465,
                    -0.020656861944533013,
                    -0.09462975080124061,
                    0.03943115313571796,
                    0.07578587230079033,
                    0.04400776683005385,
                    0.02112280530871631,
                    0.0743649944512531
                ],
                [
                    0.012458540288705936,
                    0.02217967391550519,
                    0.0977115767424051,
                    0.1358260176782561,
                    0.10011277500371406,
                    -0.14603477374444668,
                    0.0026862567584148888,
                    5.0540499714218295e-05,
                    0.006230043492297409,
                    -0.09538004642891962
                ],
                [
                    0.03759647446019443,
                    0.14740418217327306,
                    -0.0005334924265562106,
                    0.026369478331140502,
                    -0.05181515012306169,
                    0.0349327938819376,
                    0.17269582789798005,
                    0.10019141895072999,
                    0.10605520639610139,
                    -0.016335999172981338
                ],
                [
                    0.09854198537768301,
                    -0.061163355342883925,
                    -0.013752401724813451,
                    -0.05898963158599702,
                    -0.11539059947093902,
                    0.012673822632046847,
                    0.029580117149560617,
                    -0.016479370213582638,
                    -0.019410246004840828,
                    -0.14703973018278757
                ],
                [
                    0.07329155525414392,
                    -0.06139081861661761,
                    0.03371962412028345,
                    0.04624444536547329,
                    -0.05799649169223759,
                    0.013286828456376245,
                    0.0490182434057107,
                    0.14542050524558517,
                    -0.011420044630359472,
                    0.06363985059079422
                ],
                [
                    0.021362629131924597,
                    0.013596683928229951,
                    -0.17569271972785322,
                    -0.07867193341808455,
                    -0.006972555944824704,
                    0.09139582078110044,
                    -0.06878717112528412,
                    0.09658057225220133,
                    0.05172114775779439,
                    0.2458332186839242
                ],
                [
                    0.10756777924920387,
                    0.05444593995699098,
                    -0.06364826341492455,
                    -0.08399480713703336,
                    0.13352820750116565,
                    0.12039327237484763,
                    0.09993273160040943,
                    -0.08028241395457086,
                    -0.0076222839925433284,
                    -0.03174982475991658
                ],
                [
                    -0.08202618323503096,
                    0.02098153269729356,
                    -0.07981130075490045,
                    -0.00832439960601997,
                    -0.004566699866027524,
                    -0.09355063349477673,
                    -0.03337860579407642,
                    0.12341665408072006,
                    0.028367428106516306,
                    -0.09251920538333969
                ],
                [
                    0.03539565694513269,
                    0.03266334882832932,
                    -0.09573560647980428,
                    -0.058236653349657067,
                    -0.019461044854678353,
                    0.03832383562079724,
                    0.12093289131630675,
                    0.003060649436826282,
                    -0.009495509816957924,
                    0.17313063435970374
                ],
                [
                    0.07935162846154047,
                    -0.16487390430275292,
                    0.1889953668275109,
                    0.02801206809732189,
                    0.014315202486465124,
                    0.010189010305655563,
                    -0.10637283442085482,
                    0.04703550900281459,
                    -0.06767873596174279,
                    0.0005999331699408886
                ],
                [
                    -0.05645893714907088,
                    0.10355644753586798,
                    -0.13356011422144992,
                    -0.11776779170383256,
                    -0.05694595051907993,
                    -0.07028235958704854,
                    0.05711163960501995,
                    0.015495006117314603,
                    0.14038492693247806,
                    0.1262608508893859
                ],
                [
                    -0.04755218910434051,
                    0.11583147127931996,
                    0.07775727224369296,
                    -0.0035794124945325184,
                    0.021104980116364525,
                    -0.04435018776541911,
                    -0.06874351173552279,
                    -0.05777921383271585,
                    0.035638389054655335,
                    0.07315609566586251
                ],
                [
                    -0.026312548189891642,
                    -0.029872752102423586,
                    -0.03939953898414956,
                    0.05213756613153467,
                    0.03593816168749454,
                    0.012030429182495936,
                    0.09182944215098725,
                    -0.075499943736208,
                    -0.061017623252242574,
                    -0.009838172276107664
                ],
                [
                    -0.05785598362191742,
                    0.07373320269891348,
                    0.051579440622502075,
                    -0.014552146734544934,
                    -0.11637419224711776,
                    0.1007543456105083,
                    0.04493227157639222,
                    -0.07743705737521826,
                    -0.14888376107667714,
                    -0.0440820015666754
                ],
                [
                    0.022138891862575182,
                    0.02255531687181891,
                    0.12108737943154023,
                    0.012033435291628338,
                    -0.08411498908435311,
                    0.01769263333635188,
                    0.08603072283943025,
                    -0.03044190048185971,
                    0.0663110845800537,
                    0.11205584082183623
                ],
                [
                    -0.05144690124912756,
                    0.15429109851775002,
                    -0.10251544505847839,
                    -0.03380808757853957,
                    -0.02995875126367858,
                    -0.03883089769158716,
                    -0.04674132066596695,
                    0.06610572310435295,
                    0.041536287841302234,
                    0.002461787638508484
                ],
                [
                    0.12291328084836049,
                    -0.059552159736890084,
                    -0.05887256669504127,
                    -0.2135084889315431,
                    0.033958556324470195,
                    -0.10055930580708575,
                    -0.09252420916889292,
                    -0.04745756975595595,
                    0.11386982183934677,
                    0.06095170275375129
                ],
                [
                    0.026389022654353365,
                    -0.007920369566412833,
                    0.07962053249973564,
                    -0.027493292570235906,
                    0.05937684376805835,
                    0.13417211154962452,
                    0.04299598505918191,
                    0.12237746413832408,
                    0.04949048339299002,
                    0.031170291706579596
                ],
                [
                    -0.04482307967278908,
                    -0.07138791024424268,
                    -0.22718081558872075,
                    0.013982636185911735,
                    -0.04151276621327447,
                    -0.029559439268057666,
                    -0.028340938478736075,
                    -0.05206051585587328,
                    0.10857197083842403,
                    0.08087091915839738
                ],
                [
                    -0.00019751972780704134,
                    -0.07149366969911519,
                    0.09109663506644895,
                    0.08961743446930164,
                    -0.08037786464697766,
                    0.10209568549562492,
                    0.0017847483646392449,
                    -0.020940189859469188,
                    -0.1008855272976047,
                    0.01913913354370388
                ],
                [
                    0.02415728203208875,
                    -0.06290500623492842,
                    0.17982147596321146,
                    -0.21998651740563108,
                    -0.13654512083385795,
                    -0.04650166433177895,
                    0.14109398562423656,
                    0.16395138220670782,
                    0.11186457436178124,
                    -0.1353752398053644
                ],
                [
                    0.08121943074426954,
                    0.09025839660098747,
                    0.15327835867479866,
                    -0.1246999604451607,
                    0.041910582126472216,
                    -0.09935289588544227,
                    0.0373312081991652,
                    -0.17013505218224592,
                    0.022032945980961335,
                    0.13591657376752328
                ],
                [
                    -0.04277017347208206,
                    -0.16764886152796685,
                    -0.0486818109217514,
                    0.023323282416482304,
                    -0.118960599114157,
                    -0.07124953439015427,
                    0.06990959213126502,
                    -0.017050448718023335,
                    0.010540688732479004,
                    0.030360714316425307
                ],
                [
                    -0.12365216762009881,
                    0.04030211322083562,
                    -0.12979749740357802,
                    -0.0712293902691602,
                    -0.03695987918716496,
                    -0.07426257747146352,
                    0.13230805752056432,
                    -0.017371635876424183,
                    -0.044517434862070646,
                    0.06532920917908541
                ],
                [
                    0.06280362279406837,
                    0.024288072679258463,
                    -0.01196486719534361,
                    -0.08518679990075312,
                    0.08747071001798931,
                    -0.0035590673494574824,
                    0.13019932354159383,
                    0.007181547861295781,
                    -0.19439689909137603,
                    -0.0660082419746544
                ],
                [
                    -0.04677150854141654,
                    0.13608196714048282,
                    0.023758987184211364,
                    0.0384703433341284,
                    -0.01188845350338577,
                    -0.1737074131747751,
                    0.04722872177147065,
                    0.09560802330141449,
                    0.07214397958432842,
                    -0.04248413609843188
                ],
                [
                    -0.0029339261581047835,
                    -0.07850760166587428,
                    -0.058039622233809984,
                    -0.02153325512045693,
                    -0.008713977922546086,
                    -0.11059239585935582,
                    0.0003473064756040796,
                    -0.027725384923265258,
                    -0.04835108215447283,
                    -0.11365997635380568
                ],
                [
                    0.03811347395514573,
                    0.017772152625575938,
                    -0.009139166516695286,
                    -0.09839341095106971,
                    0.06191357763208239,
                    -0.031100909486078777,
                    -0.0030582236836227466,
                    0.09046634697577838,
                    -0.012662907013553921,
                    0.1302724167761958
                ],
                [
                    0.0042134621542838716,
                    -0.07509480567968527,
                    -0.03675259403752002,
                    0.02186815018782944,
                    0.045924298857402776,
                    -0.02693713842893301,
                    -0.1558578541109247,
                    0.026951848136625815,
                    -0.00998265445810054,
                    0.19411599044537448
                ],
                [
                    -0.07001993401581263,
                    0.01891873009403987,
                    -0.12874022463786233,
                    0.05310468923579676,
                    0.03542162156072844,
                    -0.04574096506244293,
                    -0.05851857761352375,
                    0.014927198751016368,
                    0.0808414828793488,
                    0.011727683476034496
                ],
                [
                    0.05792961907492464,
                    -0.11396341152172992,
                    -0.007404435972660749,
                    0.0003985671954957807,
                    0.0777704284403406,
                    -0.06061841172489484,
                    -0.04876712349820953,
                    -0.021613065140901278,
                    -0.01150820382909437,
                    -0.03177653612681493
                ],
                [
                    0.08449863330250391,
                    0.03966991420848642,
                    0.11848731970317038,
                    0.1131149880421541,
                    -0.0856750781156652,
                    -0.03538289143642886,
                    0.00905807588892868,
                    0.014148082263771851,
                    -0.0859634130799984,
                    0.14492922214030965
                ],
                [
                    0.04102660354569114,
                    -0.16451728814294703,
                    0.08769544734683997,
                    -0.040522110061201454,
                    0.1840687412382281,
                    0.01056493423970193,
                    -0.06620132251795517,
                    0.007700207068217952,
                    -0.07997389301915706,
                    0.16550508312087273
                ],
                [
                    -0.0494585246988263,
                    0.02392137003776021,
                    0.11380379561668064,
                    0.0794193822762371,
                    -0.08374524552148757,
                    0.12438388431856362,
                    0.0751118103257404,
                    0.006504196578051575,
                    -0.06193591099965869,
                    -0.02468129304032584
                ],
                [
                    0.07228934114284757,
                    -0.0052917376040407605,
                    0.03822298372575932,
                    -0.08237270222750434,
                    -0.09903117657898101,
                    0.004462739455346003,
                    0.02676180073456509,
                    0.03579015073922494,
                    0.1609315614186389,
                    0.134664326274024
                ],
                [
                    -0.15824182372640272,
                    -0.02099963622768155,
                    -0.006601710077275854,
                    0.056106618332851486,
                    -0.043662956453666336,
                    0.04303973451359729,
                    0.12042377509313448,
                    -0.07526454541587528,
                    -0.05804896931569268,
                    0.03154606651419939
                ],
                [
                    -0.01144675338139626,
                    0.16898887543143415,
                    -0.07806991142353269,
                    -0.11039889413592552,
                    0.038113505304780707,
                    0.1291527789438724,
                    0.00769589821075263,
                    0.0292527264367683,
                    0.07485898786107319,
                    0.21625761807253888
                ],
                [
                    0.009863072278671389,
                    0.1528632195597226,
                    0.10215798902387649,
                    0.07241034193699716,
                    -0.08176080754624228,
                    -0.10241185091455712,
                    -0.15099463135837066,
                    0.01818108754246629,
                    -0.017295219755024828,
                    0.09011219793591617
                ],
                [
                    0.0035271351706224765,
                    0.08688175072188824,
                    -0.05833016227214747,
                    -0.16518974592754732,
                    0.08862542663059435,
                    0.11155808365507303,
                    -0.15401461240678732,
                    -0.1035001705342528,
                    0.04860909992783712,
                    -0.10453211670682026
                ],
                [
                    -0.010557515036722136,
                    0.054981444057351725,
                    -0.1009754530528524,
                    0.09277724915664633,
                    -0.13287686344292587,
                    0.024758156988825063,
                    -0.11116331663983815,
                    0.030901184677536983,
                    0.10012543063725216,
                    -0.08044005392789338
                ],
                [
                    -0.016667474115324665,
                    0.09423909715478324,
                    -0.13706432388982148,
                    -0.03639323644943306,
                    0.049530671686294506,
                    -0.026624954524394753,
                    0.08731173621077806,
                    0.17649383092288848,
                    -0.12288931160942183,
                    0.2457712793082975
                ],
                [
                    -0.21944548346636852,
                    -0.026732460472401198,
                    0.011906198127041377,
                    0.021220307521047525,
                    0.06213478386058133,
                    0.010636955570517885,
                    0.08164402632408314,
                    -0.07979806767766554,
                    0.054069488051778095,
                    -0.1311451890211759
                ],
                [
                    -0.031107354394033292,
                    -0.17944501325192044,
                    -0.09530723462154074,
                    -0.06485965166985323,
                    -0.07227911890134034,
                    0.05838464259712985,
                    -0.010375584722236124,
                    -0.0342807199590718,
                    0.040662246165777335,
                    0.015645653341178796
                ],
                [
                    -0.12087598703419668,
                    -0.18514105586686358,
                    -0.04648121977442133,
                    -0.015088129215174554,
                    0.03505540581601676,
                    -0.10694768729353499,
                    -0.11006558203807693,
                    -0.029817471339040544,
                    -0.068025304029293,
                    -0.03461953839080974
                ],
                [
                    0.055241431893155384,
                    0.04316567478378502,
                    -0.21875305400326794,
                    0.06794769520049769,
                    -0.046593579725665975,
                    -0.0784494027542604,
                    -0.04990056515486449,
                    0.018003207456557202,
                    -0.07850747072469245,
                    -0.001023168579278626
                ],
                [
                    0.12954952162827602,
                    -0.08974066086408046,
                    -0.08990640103287302,
                    0.022574741453885314,
                    0.0729410626708467,
                    -0.04839547161855826,
                    0.010007785926648858,
                    -0.148107210692493,
                    0.08323626786796921,
                    -0.05004229605509976
                ],
                [
                    -0.020472711340445666,
                    -0.0036337909586747126,
                    -0.1255956865210216,
                    0.025157214441656195,
                    0.11088563021079022,
                    -0.07131903310434119,
                    0.03262461732580847,
                    -0.01324302312896561,
                    0.07203102389768579,
                    -0.030426960537915035
                ],
                [
                    -0.09579172228073381,
                    -0.15659814506098185,
                    -0.016164750930813886,
                    -0.09610209582689024,
                    -0.20421832808674303,
                    0.006776261557055909,
                    0.09349095550469795,
                    0.18035027215502397,
                    -0.12056401603488613,
                    -0.1523706351208768
                ],
                [
                    -0.15549255857237404,
                    -0.02366403954657576,
                    -0.02885469464701463,
                    0.11328743387611796,
                    0.07916351225791231,
                    -0.0232724889002961,
                    0.136748576434508,
                    0.046986464862355026,
                    -0.014887881403171026,
                    0.03367005986761265
                ],
                [
                    -0.10739383469112376,
                    0.08489179374994532,
                    0.016358298080505797,
                    0.054354231974317144,
                    0.014560894093056338,
                    0.026603411026395817,
                    0.08437640013431993,
                    0.047007267758559866,
                    -0.12433714982018212,
                    0.11550922603715756
                ],
                [
                    0.1376393793823614,
                    0.07964503349856769,
                    0.038884063693259543,
                    -0.10384362228861317,
                    0.09460843375539885,
