{
    "network": {
        "LayerConvolutional-0": {
            "weights": [
                [
                    [
                        [
                            -0.5727268705652458,
                            0.4794799413783918,
                            0.9807680943903251
                        ],
                        [
                            -0.17494623631521294,
                            0.05362808056551454,
                            0.2839120139585157
                        ],
                        [
                            -0.0465958140011755,
                            -0.803529538443684,
                            -0.8659752264140783
                        ]
                    ]
                ],
                [
                    [
                        [
                            -1.3330937162886174,
                            0.15768053171711682,
                            0.43939524276982833
                        ],
                        [
                            0.7602456938964641,
                            1.4148220149505097,
                            0.7024405445675851
                        ],
                        [
                            0.08660637553168285,
                            0.3588762037959854,
                            0.7895482223710382
                        ]
                    ]
                ]
            ],
            "biases": [
                -0.0010115616840455839,
                -0.0023297448084278797
            ],
            "kernel_size": 3,
            "num_kernels": 2,
            "num_channels": 1
        },
        "LayerMaxPooling-1": {
            "kernel_size": 2,
            "stride": 2
        },
        "ActivationReLU-2": {},
        "LayerConvolutional-3": {
            "weights": [
                [
                    [
                        [
                            1.0106188439296604,
                            -0.07137480803533869,
                            0.18090623205933842
                        ],
                        [
                            -0.3911715955967526,
                            0.14733393901366296,
                            -0.05969236590193969
                        ],
                        [
                            -0.5076840089040866,
                            0.37033841458016964,
                            -0.16803841038189402
                        ]
                    ],
                    [
                        [
                            -0.03481219679799231,
                            0.08763281603242123,
                            0.611546237310789
                        ],
                        [
                            -1.0253320653942468,
                            0.28314821273896357,
                            -0.20907570028560377
                        ],
                        [
                            -0.5373393750326858,
                            -0.01592258575771056,
                            -0.005028633898302142
                        ]
                    ]
                ],
                [
                    [
                        [
                            0.0699919856240104,
                            0.0924422757985776,
                            -0.8762034022999372
                        ],
                        [
                            -0.4418265893218178,
                            0.16041214625455866,
                            0.10349756286119259
                        ],
                        [
                            0.2376473127062776,
                            -0.6630519381275877,
                            -0.09246231879205845
                        ]
                    ],
                    [
                        [
                            -0.04477010004834792,
                            0.3033869984922656,
                            0.2334993821183892
                        ],
                        [
                            -0.36940082021176596,
                            -0.163962264517643,
                            0.26287382078602217
                        ],
                        [
                            -0.44704249794956347,
                            0.1867246776175578,
                            -0.5405023491954507
                        ]
                    ]
                ],
                [
                    [
                        [
                            0.09566487687817658,
                            0.5434579794527363,
                            -0.5418265693219829
                        ],
                        [
                            -0.6148917060178889,
                            0.05426775868778436,
                            -0.4685098027861076
                        ],
                        [
                            -0.5607085597739734,
                            0.2645980654694499,
                            -0.04615432046866885
                        ]
                    ],
                    [
                        [
                            -0.3142418366256049,
                            -0.7389554809752523,
                            0.8098290085043095
                        ],
                        [
                            -0.28092916345652486,
                            -0.6297804824469803,
                            0.07118174303046265
                        ],
                        [
                            0.11899874496435837,
                            0.5795123924916176,
                            0.26158632195462694
                        ]
                    ]
                ]
            ],
            "biases": [
                7.587068759654665e-09,
                0.0036617898094801634,
                0.10391268461008858
            ],
            "kernel_size": 3,
            "num_kernels": 3,
            "num_channels": 2
        },
        "LayerMaxPooling-4": {
            "kernel_size": 2,
            "stride": 2
        },
        "ActivationReLU-5": {},
        "LayerFlatten-6": {},
        "LayerDense-7": {
            "weights": [
                [
                    -0.5512320831431134,
                    -0.1865464155963978,
                    -0.1296054270008171,
                    0.5545429749483994,
                    -0.3042142459045876,
                    -0.3466531591562049,
                    -0.43970034038894723,
                    -0.1854204032159511,
                    0.02001716072204925,
                    -0.1496815761145863
                ],
                [
                    -0.3679904087058765,
                    0.05564887524617065,
                    0.23145399983781934,
                    -0.2922904682307058,
                    0.18308772006269974,
                    0.02672862380566431,
                    -0.062069695793582666,
                    0.044123600049444836,
                    0.11078861517372854,
                    -0.288147739522878
                ],
                [
                    -0.2690140924342534,
                    0.12653056238142174,
                    0.10215907195255651,
                    0.257910436069494,
                    0.1643144094036124,
                    -0.21559424846085443,
                    -0.01524244430537726,
                    -0.12275753975986424,
                    0.12443003103706891,
                    0.028842240534265602
                ],
                [
                    -0.09191961777919731,
                    0.019511324251193344,
                    -0.13267545386959187,
                    0.008260552379216793,
                    0.41229033028409595,
                    -0.3798217008947854,
                    -0.13104625944358886,
                    -0.15993483635811023,
                    0.01741605412273266,
                    0.29388060955314504
                ],
                [
                    0.19912575578603997,
                    0.01055017165385409,
                    0.1427140857306202,
                    -0.18466881680760933,
                    0.05404672806503127,
                    -0.35823138409043237,
                    -0.4988480700255544,
                    0.02885741980188539,
                    0.02458054605352011,
                    0.34695154593795874
                ],
                [
                    0.16034560394392833,
                    -0.20772687820730237,
                    0.3319821004392321,
                    0.15080315477607573,
                    0.01928781109843597,
                    -0.3056050224233193,
                    -0.5146051536387566,
                    0.19694590088831695,
                    -0.13651035803386474,
                    -0.08314314669822796
                ],
                [
                    0.4810855862413533,
                    0.31479583686636564,
                    -0.17016090482823304,
                    0.38997599526370647,
                    0.06460315834379395,
                    0.08103769846320756,
                    -0.28128181708025846,
                    -0.25848263591238557,
                    -0.1703413356842992,
                    -0.17180381523143148
                ],
                [
                    -0.27215929972223907,
                    0.3637429093447195,
                    0.02593655681968517,
                    0.5232243821912789,
                    0.15498028915503612,
                    -0.07715875422541071,
                    0.12302173746784915,
                    -0.295326003440379,
                    0.3196634306638102,
                    -0.0023937949380510885
                ],
                [
                    -0.6866464472657534,
                    0.30580394531087784,
                    0.10437647599611201,
                    0.3972461862897658,
                    0.03656721700331462,
                    0.025666512519558718,
                    -0.08795553635572156,
                    -0.7103488593440249,
                    0.23104896958659635,
                    -0.04131693917450796
                ],
                [
                    -0.40593063226778436,
                    -0.4255131767918943,
                    -0.016837042909398952,
                    0.07405283475120888,
                    -0.1288150525598771,
                    0.26940185009757056,
                    0.47812426570355293,
                    0.1867690082630045,
                    -0.18235566571616152,
                    -0.279299201923829
                ],
                [
                    0.017764014323020914,
                    -0.021893965689071093,
                    -0.11204916608301196,
                    -0.14645850596839066,
                    0.09221193151577417,
                    -0.0003038945729622803,
                    -0.2472097605164536,
                    0.317662507493543,
                    -0.4201546878097703,
                    -0.24696595390249543
                ],
                [
                    0.008922148755845185,
                    0.0400212096073369,
                    -0.08612094521686227,
                    0.3705669895965743,
                    -0.0020207086790347416,
                    0.3082691297200087,
                    -0.24635491398688428,
                    -0.04670576578582455,
                    -0.23937399430894366,
                    0.029399298900339037
                ],
                [
                    0.18509101497501398,
                    0.05710530903748232,
                    -0.010336533292646471,
                    0.040706127627256124,
                    0.34907082131362555,
                    0.35048123882324106,
                    -0.13416256991331246,
                    -0.14823819487934084,
                    -0.000685589159623015,
                    0.007593203355960671
                ],
                [
                    0.5144691875489699,
                    0.29899407269193434,
                    0.1809926214011121,
                    0.04268395155747879,
                    -0.24367077554013886,
                    -0.13057263867099245,
                    -0.005050653125317255,
                    -0.0007140412568983259,
                    -0.03431605333517072,
                    -0.07196260584209598
                ],
                [
                    -0.036145867916596276,
                    0.029606987597582096,
                    -0.48935051040583,
                    0.2562496859352788,
                    0.18322519616932342,
                    -0.1752004569910245,
                    0.34086913642008004,
                    -0.11434407197625374,
                    0.119892364879693,
                    -0.32244335995546575
                ],
                [
                    -0.39720315494286507,
                    0.003250916175855341,
                    -0.0846075319234085,
                    -0.23810221235181284,
                    -0.3008065823964784,
                    -0.2990995943938397,
                    -0.004253410192564489,
                    -0.2819197417146992,
                    0.1820528317401613,
                    -0.21215892534765687
                ],
                [
                    -0.03556876505375865,
                    0.006035976221072824,
                    0.16436888481811476,
                    0.1324945962783575,
                    0.3094028384887436,
                    -0.0927232008372084,
                    0.3341349898241353,
                    0.2680091495053036,
                    -0.23851805367479378,
                    -0.39066152992257897
                ],
                [
                    0.07465507956205195,
                    0.10096572372816973,
                    -0.1473336508783551,
                    -0.21467362120508365,
                    0.23752155110530812,
                    -0.34967494303992513,
                    0.4748323256213544,
                    0.4523215694393736,
                    -0.16476315773253306,
                    0.029116528507682645
                ],
                [
                    0.2642723547287548,
                    0.08321549583492033,
                    0.01874519338479991,
                    0.07339883603110924,
                    -0.05475333177667514,
                    0.20221463751306515,
                    -0.08068639636230114,
                    -0.11535803956000193,
                    -0.12229875756269046,
                    -0.20810832875167937
                ],
                [
                    0.06028986564426877,
                    -0.04520770303997256,
                    0.21710379234377097,
                    -0.11121131248059292,
                    -0.2621406682165017,
                    0.2040946423700132,
                    -0.16365166159059447,
                    -0.017454789335401965,
                    -0.0980111928203941,
                    0.09883993971054163
                ],
                [
                    0.1292693373681828,
                    0.2850757778437627,
                    -0.16961841760271032,
                    0.4090959111058786,
                    -0.24690288813441016,
                    -0.2295964597767246,
                    -0.1391552615980902,
                    0.33032395879558907,
                    0.20702609608302702,
                    0.12323239022689747
                ],
                [
                    0.3403729861525007,
                    0.1249372756294675,
                    0.14362571995486872,
                    0.2673930920607267,
                    -0.027374778193935256,
                    -0.26160666207264766,
                    0.09681073134189346,
                    0.15648799141475261,
                    0.07231967662261668,
                    -0.10867088881010621
                ],
                [
                    0.14274708650378556,
                    0.15388682337488974,
                    0.15780981677129222,
                    -0.2340303693795568,
                    -0.024475718692078055,
                    -0.37136041872935427,
                    -0.1532373050057169,
                    -0.3569859759400184,
                    -0.2513234554555086,
                    -0.18883407842926134
                ],
                [
                    -0.2097625366334135,
                    -0.09234915367954631,
                    -0.11911885910542508,
                    -0.16874535496644744,
                    0.24628759542027936,
                    -0.20055705611202357,
                    0.4999507095711786,
                    0.1842677008268764,
                    -0.19944529160033042,
                    -0.36662710631582957
                ],
                [
                    0.2715521873451073,
                    0.26133701063879444,
                    0.18866175299599072,
                    0.27615898042629705,
                    0.1138384648306433,
                    -0.2426168294901815,
                    -0.07689591240281693,
                    0.10992231266132199,
                    -0.32367397054302577,
                    0.24719387918630548
                ],
                [
                    0.3209538463182762,
                    0.027191456814698988,
                    0.28736163069638077,
                    -0.07769319217266378,
                    -0.04582120188295378,
                    -0.34862368010677863,
                    -0.07667664912907528,
                    0.15647603777709795,
                    0.1176239465801932,
                    0.21584570304279704
                ],
                [
                    -0.0745902457821965,
                    -0.009747087274006375,
                    -0.12435791057773375,
                    -0.30848053006653414,
                    -0.29025262519602646,
                    0.023048300655386326,
                    -0.10691917679009529,
                    0.13178212945019302,
                    -0.038325784002349324,
                    -0.23455569204716492
                ],
                [
                    0.3241462082489181,
                    -0.2513457981190348,
                    -0.1578255340277654,
                    -0.4439471104910829,
                    -0.26934300042997766,
                    0.15514046407374055,
                    -0.048646100095345965,
                    -0.20366604206302374,
                    0.08371287296142008,
                    -0.053890951300383655
                ],
                [
                    0.3554827060883895,
                    0.16565632462147356,
                    0.004723356968994012,
                    0.0450016367346699,
                    0.11387648709906814,
                    -0.03557011711011382,
                    0.24553157604955095,
                    0.12031554523118268,
                    0.13964415185925252,
                    0.13637157634165045
                ],
                [
                    0.17488859028133064,
                    0.2460442031730248,
                    0.5886753745946673,
                    -0.1270883513226165,
                    -0.0219363118741114,
                    -0.09085883172627893,
                    0.04680900484834564,
                    -0.17888326426810972,
                    -0.16665471079069497,
                    -0.0718133859472567
                ],
                [
                    0.13346869638429823,
                    0.16352528534498809,
                    -0.1973332406853555,
                    0.2863654953737397,
                    0.3173458618348753,
                    -0.25180800351757815,
                    0.1545256334320347,
                    0.0914726483119533,
                    -0.09500809723190484,
                    0.006552677885085047
                ],
                [
                    0.3380990102080061,
                    0.03166957399536588,
                    0.006024981422346172,
                    -0.06800539875451364,
                    0.13940392198488952,
                    -0.41217076677849274,
                    -0.02956664589109172,
                    -0.1679838192349263,
                    0.0006245440423915214,
                    0.07342469284962475
                ],
                [
                    -0.011254342728908425,
                    0.15882087680705256,
                    -0.3313697574507449,
                    -0.20370105568948163,
                    0.04795320492671392,
                    -0.25742382533509284,
                    0.4324257275896289,
                    0.29279524428502635,
                    -0.20556095565108107,
                    0.13573935333111142
                ],
                [
                    -0.03807202500533998,
                    0.043052820454159396,
                    -0.1422436213564234,
                    0.03416293237265564,
                    0.03669048514900769,
                    -0.017067176853896925,
                    -0.1187079936490726,
                    -0.18636141696255848,
                    0.21667696385988935,
                    0.005065085394194138
                ],
                [
                    0.18739847251207079,
                    0.3458213386629935,
                    -0.21686238567437194,
                    0.12158186213609463,
                    -0.29921875495967193,
                    0.142866971447244,
                    -0.4306022113287431,
                    0.17439988731904205,
                    -0.3182494515423652,
                    0.28924808945578656
                ],
                [
                    0.33663986300997095,
                    0.25530753759079633,
                    -0.0727681165658269,
                    -0.21534885952964344,
                    0.005986356123381874,
                    0.009702131096911967,
                    0.21713292060202974,
                    -0.008754614222195051,
                    -0.31666012554346096,
                    0.21950541911040522
                ],
                [
                    -0.07502846303445161,
                    0.07511217278667232,
                    -0.10035564448194399,
                    0.07780561835374741,
                    -0.4013421174176839,
                    -0.16125192994403895,
                    -0.2799717494566182,
                    -0.23602956112786147,
                    0.013525257380893448,
                    -0.22281794736903424
                ],
                [
                    0.33161969197829533,
                    0.11752245492137427,
                    0.1565698669513665,
                    0.0940327599628451,
                    0.1079951585745081,
                    0.26877135371266286,
                    0.014434534479709498,
                    -0.2853302214942751,
                    -0.3244775613796505,
                    -0.026333740687194886
                ],
                [
                    0.17533987357163208,
                    0.15644556013665348,
                    -0.028803529350125593,
                    -0.21667056371652696,
                    0.08440889346392737,
                    -0.18055398941083028,
                    0.2208003907426783,
                    -0.048117647929787476,
                    0.31031272657898373,
                    -0.14030443654643798
                ],
                [
                    -0.22501741140596215,
                    0.005067134061827407,
                    0.15722164622379298,
                    0.03588095228260942,
                    0.31827909378604413,
                    0.19826986277595104,
                    0.22474728408184205,
                    0.3264068254199721,
                    -0.1636057917287947,
                    -0.13292393271153397
                ],
                [
                    -0.031278350668676014,
                    0.2534852797972919,
                    -0.12965644754527877,
                    0.31513137121066764,
                    -0.17810073774798763,
                    -0.18781053718481236,
                    -0.25252889165409964,
                    -0.2692002986192831,
                    -0.2328951721390869,
                    -0.24701592924035073
                ],
                [
                    0.13239113140865835,
                    0.1193920200443091,
                    -0.05086217297883742,
                    -0.10296694667796959,
                    0.2617646115929824,
                    -0.028398236182926563,
                    0.11935138327367244,
                    -0.35447361990866316,
                    0.4509083373780668,
                    -0.06539059585781523
                ],
                [
                    -0.1080259010461105,
                    0.03117526363146785,
                    0.025126593099040497,
                    -0.21929132424236167,
                    0.0528790351973818,
                    0.08063141484594212,
                    0.025912004162840646,
                    -0.0038378875129655462,
                    -0.057250825735983876,
                    0.2216352358813972
                ],
                [
                    -0.3273887950420714,
                    0.024041340272844536,
                    0.1251261814719557,
                    0.0386718621162817,
                    -0.15323237746334192,
                    -0.23473402164272286,
                    0.12979571936790044,
                    -0.32003709597931856,
                    0.16375837481203254,
                    0.16859121959963955
                ],
                [
                    0.3107961462367869,
                    -0.17672621391393267,
                    -0.19521076838149715,
                    0.1544952072878965,
                    0.033830935446583436,
                    0.029638148757624806,
                    0.20584899994372066,
                    -0.41270738548161756,
                    -0.4770917521243464,
                    -0.06356821506570552
                ],
                [
                    -0.042015204542881185,
                    0.1422291063710919,
                    -0.1254407506134614,
                    0.07878185763105648,
                    0.547957745573692,
                    -0.13731940924590255,
                    0.034574615814615954,
                    -0.021040622740921548,
                    -0.3101328158067506,
                    -0.18151207224200913
                ],
                [
                    -0.3893497896162785,
                    -0.15704152663792117,
                    0.03331697492499629,
                    0.09229917754106447,
                    0.002505628843406904,
                    0.08026944098717714,
                    0.23791688652272674,
                    0.18395476665267413,
                    -0.12647134663136797,
                    -0.06746240223343244
                ],
                [
                    -0.024279035176510436,
                    0.005444735459178937,
                    0.11900620552324696,
                    0.13059793783155327,
                    0.07039815630805474,
                    -0.05913973225490766,
                    0.04674961774499006,
                    0.09025202330351975,
                    -0.13434546235436226,
                    -0.09333809189996173
                ],
                [
                    -0.11701907588506218,
                    0.05288835141397987,
                    0.12110601425162096,
                    -0.5483165016579716,
                    -0.1534464094024108,
                    -0.02795635469585028,
                    0.02360711744620797,
                    -0.5114087435297158,
                    -0.04433481100454112,
                    -0.010244362767589924
                ],
                [
                    -0.19224487307131138,
                    -0.03793944693598728,
                    -0.11087997545711771,
                    -0.06949963229508534,
                    0.12691816202459397,
                    0.39207128388353035,
                    0.009864700786137225,
                    -0.025552146383626358,
                    0.039751490642920245,
                    -0.015741866985012613
                ],
                [
                    0.07515594428758898,
                    0.20793414106918956,
                    -0.30007999237754246,
                    0.12450509215803118,
                    0.23906103611276444,
                    0.05688137101734345,
                    -0.015950765997257164,
                    -0.35466182771495247,
                    0.0037700538245282592,
                    0.14107626390074593
                ],
                [
                    0.007679280163206266,
                    0.03828283663465293,
                    -0.13578704916492187,
                    0.10954041783959041,
                    0.21631872110665262,
                    0.28975696935850337,
                    0.07783159331728566,
                    0.2955757793404286,
                    -0.2602329155662,
                    -0.5394936082109407
                ],
                [
                    -0.19353504612332717,
                    -0.07634281843774729,
                    0.10147073896166792,
                    0.20677118933881003,
                    0.07721303077515378,
                    0.342987609763954,
                    0.0771345795724329,
                    -0.033523055512830593,
                    -0.11944088698077214,
                    0.23218882110570374
                ],
                [
                    0.3729883396080742,
                    0.18660373734576133,
                    -0.23780061972797595,
                    0.21963553054613652,
                    0.10198558012194284,
                    -0.08675625422455348,
                    0.1573785958343417,
                    0.1357672651556574,
                    0.11757699783169517,
                    -0.08184559605836474
                ],
                [
                    0.06021311857190785,
                    0.035895287584137424,
                    -0.3906357218499342,
                    0.16936411387612382,
                    -0.014483101900190554,
                    0.11099664164212038,
                    -0.14379844772388511,
                    0.11060071603923635,
                    0.31287048451136307,
                    0.1420596266501104
                ],
                [
                    0.5364417906645832,
                    -0.1491967384508888,
                    -0.0743268329086942,
                    0.07977594178153195,
                    -0.19197243450684218,
                    -0.05407543214921853,
                    0.038308645379625916,
                    -0.4696164170686251,
                    -0.08206415173971429,
                    -0.043483425102624734
                ],
                [
                    -0.0922197019761352,
                    0.20443395583371454,
                    -0.11243145645152776,
                    0.159515232711511,
                    -0.2900863993229426,
                    0.24024710232601823,
                    0.06238620950817806,
                    0.04804740424810997,
                    0.020089478435523087,
                    0.10780521781227728
                ],
                [
                    -0.0048010560676539395,
                    -0.21344178627544114,
                    -0.3378995381051447,
                    0.3170356215193767,
                    0.3655960932858687,
                    0.07331185949404875,
                    0.08545198399474248,
                    0.15022391592610654,
                    0.2632610916578302,
                    0.33413538033516105
                ],
                [
                    0.23900220405563127,
                    0.2455117371057774,
                    -0.23479855283145445,
                    0.32104144114026806,
                    -0.018653658164613934,
                    0.06907950810460925,
                    0.08455433841704862,
                    0.08466713731456872,
                    -0.3663194376808849,
                    0.12784251670473404
                ],
                [
                    0.01837258612427616,
                    0.016347973212148103,
                    0.21498587573544076,
                    -0.049719314228915304,
                    -0.25427924345818914,
                    0.13981854281905115,
                    -0.13785355819368986,
                    -0.03884633360324093,
                    -0.03052043659564894,
                    -0.05796221591400644
                ],
                [
                    0.05715277663598393,
                    0.1297804230184425,
                    0.08677659806543801,
                    0.002134069174398847,
                    0.15386022480597897,
                    -0.1038046485064353,
                    0.09502716143951626,
                    0.25050868521662456,
                    0.21597257366326722,
                    -0.1302043984683997
                ],
                [
                    0.3422218007607375,
                    -0.5780046000238197,
                    0.1834332708755755,
                    0.07371312640467834,
                    -0.016401995471202052,
                    -0.2887322646273269,
                    0.013589924434655861,
                    0.14712159321489016,
                    0.13032865829005316,
                    0.13150179230359205
                ],
                [
                    -0.2722728382872956,
                    0.016496760126360574,
                    0.13935913603134623,
                    -0.2808614378724489,
                    -0.433657285245775,
                    0.053647359895854854,
                    -0.12262075397562314,
                    0.1681720137633427,
                    -0.4499833288884365,
                    0.03859006926755802
                ],
                [
                    0.1932149907111574,
                    -0.11202416083514657,
                    -0.12791810860126007,
                    -0.03282070685555053,
                    0.05566017597498132,
                    -0.14535907022075548,
                    -0.036461496357956785,
                    0.032940728325191584,
                    -0.062430779942832144,
                    0.09392187355504995
                ],
                [
                    0.20272286739156015,
                    0.037595169081271064,
                    0.18877239964772477,
                    -0.040854631145705186,
                    0.16692697744116744,
                    -0.32722317311862187,
                    -0.3884592678334883,
                    -0.06781821069707702,
                    -0.37414852164559326,
                    -0.2120311081475127
                ],
                [
                    0.10868466071661605,
                    0.012788675795623794,
                    -0.1779199933260569,
                    -0.40032478658719206,
                    -0.24999592856859623,
                    -0.40906979181787734,
                    -0.23920250963218903,
                    0.112069618851606,
                    0.15299764489605974,
                    -0.14602438430534204
                ],
                [
                    -0.28794226889711483,
                    0.0940873704251841,
                    0.23869047132529347,
                    0.08596916198983072,
                    0.15819785048780058,
                    0.21589263527497046,
                    0.04134170091896865,
                    0.2853894141473394,
                    0.16390639475755164,
                    -0.20385886035802847
                ],
                [
                    0.4407695047759303,
                    0.11232812266266794,
                    -0.12022200489060243,
                    0.2988886632776513,
                    0.33919670198485613,
                    0.07114118406922096,
                    0.10376703601541484,
                    -0.22138217323531698,
                    -0.0646380190830542,
                    0.31774781772753335
                ],
                [
                    -0.06981161520079995,
                    0.2898961679305094,
                    0.03650140896872598,
                    0.2420562573879951,
                    -0.18266828425621445,
                    0.01366335325737686,
                    -0.20255910082923637,
                    -0.06149504810083322,
                    -0.05364105807420649,
                    -0.22106936987583034
                ],
                [
                    0.16479041961226507,
                    0.02229397197287415,
                    -0.46294819585656594,
                    0.07579257261229133,
                    0.13922205254305137,
                    0.15042434191511814,
                    0.22672003894476786,
                    0.15495691284566587,
                    0.04990481681137478,
                    0.3590351821330258
                ],
                [
                    0.3058191763359788,
                    0.018979681340831348,
                    -0.006420094304625238,
                    0.3328361907165397,
                    0.053914433776159044,
                    0.5085915656570724,
                    0.1648967862432218,
                    -0.0798375093970224,
                    0.11264036053264807,
                    -0.12403638542761056
                ],
                [
                    0.001977601874680263,
                    -0.12285917460267907,
                    -0.0737414839254632,
                    0.30882145343285106,
                    0.12166988537711772,
                    -0.4651395189092659,
                    0.047800873527729104,
                    -0.1884943066391753,
                    0.12859397093632555,
                    0.11925524515872822
                ],
                [
                    0.20473458590778998,
                    0.13742484132572713,
                    0.21010337099145324,
                    0.32543644946806993,
                    -0.13017865731596345,
                    0.2035285313115998,
                    -0.49918566193676756,
                    0.0249920834197875,
                    0.07836810450205235,
                    0.1324796214440075
                ],
                [
                    0.006633939228845095,
                    -0.10096049853765492,
                    -0.253364949867063,
                    0.15356866341338113,
                    -0.4024612123127679,
                    0.10758502260834699,
                    0.493613959144224,
                    0.002253346068693773,
                    -0.08753937914078673,
                    -0.0872226076627436
                ],
                [
                    -0.09787527119080856,
                    0.34761185937585876,
                    -0.23818949314879254,
                    0.05325514870983325,
                    0.22289211189956215,
                    -0.3155908062055716,
                    -0.14982746620802828,
                    0.1779757578576005,
                    -0.01861226363740223,
                    -0.09004540863390571
                ],
                [
                    0.32107806508967834,
                    0.06208590354234881,
                    0.08317441982344596,
                    -0.11251357410442507,
                    -0.023610898395905827,
                    -0.03421437628841069,
                    0.263411479709808,
                    0.0584748599987627,
                    0.2395873947543515,
                    0.13507679680669898
                ],
                [
                    -0.014216399895107729,
                    0.13971059501056368,
                    0.0339302351697936,
                    -0.16628301193277012,
                    0.061582318460521944,
                    -0.0024952282250352864,
                    0.02051577663227992,
                    0.08000433450768045,
                    -0.0437708425932074,
                    -0.0622864596990822
                ],
                [
                    0.07824570481869798,
                    -0.4265420320678707,
                    -0.14195453616505788,
                    -0.4349609116686193,
                    0.13492156031001296,
                    -0.22067526620560063,
                    0.051872331527490774,
                    -0.1504633931123393,
                    0.2143687247811197,
                    0.23920541432313622
                ],
                [
                    0.013327148111964624,
                    -0.013946719804496912,
                    -0.336167930523416,
                    -0.28913523464755136,
                    0.0741493057526221,
                    -0.0069383384954808894,
                    -0.14620838283275883,
                    -0.2336626504673151,
                    0.14365937631302766,
                    0.15015196989269075
                ],
                [
                    -0.030270342526282877,
                    0.050207501135711465,
                    -0.048941535820128175,
                    0.07415035905166037,
                    -0.0017668662091740667,
                    0.11972125215497685,
                    0.11345437642959423,
                    0.18775730394074308,
                    0.30886137667068153,
                    0.019810899114194116
                ],
                [
                    -0.3046888786592006,
                    -0.034451607590281756,
                    -0.09023431900823545,
                    0.10505860472790848,
                    0.1633061009327484,
                    0.030878597640172766,
                    -0.056165574518682676,
                    0.2542225179360922,
                    -0.3215229984429892,
                    -0.34534199441325236
                ],
                [
                    -0.028328491585016453,
                    -0.24379257035479546,
                    0.11654739997571852,
                    -0.09668007184865851,
                    -0.3835403415196402,
                    0.19074759068801245,
                    0.1413929786903907,
                    -0.03743984051781606,
                    -0.49373743593614816,
                    0.04692579157925298
                ],
                [
                    -0.21906769542971208,
                    0.0410136978992011,
                    0.0012831638195601662,
                    -0.10329825499290349,
                    -0.06513954750778161,
                    0.037273547198641045,
                    0.16684588682478693,
                    -0.013312101182875848,
                    0.09805358784070209,
                    -0.14572164548998112
                ],
                [
                    -0.052454236608500654,
                    -0.20374155935032062,
                    0.026341805276472126,
                    0.028956396711200018,
                    -0.11450278552705871,
                    -0.051688525071927074,
                    0.22022796487175328,
                    -0.2790503758012747,
                    -0.23278493855636898,
                    0.11581336656152982
                ],
                [
                    0.1998792575821981,
                    0.05682602504111798,
                    -0.27167899187770433,
                    -0.4255692515431934,
                    0.05595967028377475,
                    0.04224649214905566,
                    0.01003142495064154,
                    -0.3233381673208757,
                    0.19633837504031676,
                    0.2968477692299255
                ],
                [
                    0.04552503599561076,
                    0.046471095728986674,
                    0.044909843339510404,
                    -0.18019889069068004,
                    -0.2826124144238401,
                    0.23490951617788672,
                    -0.00033447812340364676,
                    -0.07747381799684372,
                    0.051459609812663024,
                    0.2508943364397985
                ],
                [
                    0.08886892862281513,
                    0.2059606822815645,
                    0.04895175238629227,
                    -0.16333830413933295,
                    0.261925022600513,
                    0.2004685711729023,
                    0.18923681950284754,
                    0.06709289340792052,
                    0.4602649581650299,
                    0.06720253269181287
                ],
                [
                    0.12455899106813173,
                    0.24130910355947022,
                    0.0977866144685817,
                    -0.04639900097718418,
                    -0.09908940201042886,
                    0.0681839045082452,
                    -0.11131156231509559,
                    0.017687568664245108,
                    0.06024421162295409,
                    0.006384828178698037
                ],
                [
                    0.05716172626301675,
                    -0.6021416335347597,
                    -0.14296431201394427,
                    0.11786696349097112,
                    0.31264120629608394,
                    -0.009944007351142313,
                    0.26536731632927774,
                    -0.06540166297691694,
                    0.19253191718802454,
                    -0.03525490859995321
                ],
                [
                    0.2600127798021115,
                    0.518151657205017,
                    -0.01753448417836817,
                    0.17968957179203088,
                    0.2608351009107937,
                    -0.3378350547383217,
                    -0.41132482860371594,
                    -0.2633251532558275,
                    0.03510590057679966,
                    0.19723429533984047
                ],
                [
                    -0.2324216063707288,
                    -0.005649884090817935,
                    -0.33238483072511926,
                    -0.014671318614580384,
                    0.022848856889139638,
                    0.2387515315617507,
                    -0.2976725846860311,
                    0.09107902776325155,
                    -0.03607745980414982,
                    0.1703387804383979
                ],
                [
                    -0.3197542517841278,
                    0.23001956012045405,
                    -0.15597254202919567,
                    0.12887306690092087,
                    0.30755958126643834,
                    0.31979039657267455,
                    0.012493487599667561,
                    -0.1966268345241329,
                    -0.14720846394109724,
                    0.09430605433697976
                ],
                [
                    0.06994133010368973,
                    0.29792497800468465,
                    0.07208151531270106,
                    -0.07076734299108589,
                    -0.08381911226315422,
                    0.047728719586453736,
                    -0.20437551091527353,
                    -0.23995769628269173,
                    -0.17667387896174083,
                    -0.18737366643364287
                ],
                [
                    0.3513917494802911,
                    0.024728067609143246,
                    -0.015420592039740421,
                    -0.26772503869041936,
                    -0.03987322309962629,
                    0.3180983204385122,
                    -0.06014795818318207,
                    -0.03657268574051302,
                    -0.22120147071731516,
                    0.06320398075612323
                ],
                [
                    0.08851050586560111,
                    -0.06249629059679323,
                    0.5026452013274816,
                    -0.2656316401694638,
                    -0.6276416432344764,
                    -0.13318291322175393,
                    -0.4762839910333301,
                    0.3981690939368605,
                    0.13841633378439394,
                    0.04823267465906509
                ],
                [
                    0.22896698766878693,
                    -0.5775245303303287,
                    -0.16645936707589584,
                    -0.37097737329614444,
                    0.2992107395523954,
                    -0.12015210287083447,
                    -0.34071018939186126,
                    0.10186024324464718,
                    -0.006606344442613932,
                    -0.20924762335045285
                ],
                [
                    -0.124755559224686,
                    0.04737277079023612,
                    -0.09724247218731431,
                    0.08631194518997248,
                    -0.26219563857083633,
                    0.4223389442981796,
                    0.08673969031285933,
                    0.04492811851243192,
                    0.1748445912105869,
                    0.11163106145728466
                ],
                [
                    0.2929117385504467,
                    0.02124794247549344,
                    -0.25373780871593804,
                    0.12271707993927737,
                    0.23942743440811334,
                    -0.143984250681264,
                    -0.057008172572916876,
                    0.09904205223436274,
                    -0.15867110035454185,
                    -0.055951876653742225
                ],
                [
                    0.049921870366616675,
                    0.01909788027303537,
                    0.0592714118530479,
                    0.034847995742958215,
                    -0.3330099631076215,
                    0.26369378305541197,
                    0.034945780356143936,
                    -0.3295950879727032,
                    -0.07788332068705525,
                    0.13982687616475056
                ],
                [
                    0.16023351533679353,
                    -0.09596294548323972,
                    -0.37749176924952654,
                    0.21417291594012602,
                    -0.06352237633604244,
                    0.4041113116839262,
                    0.36434223653099307,
                    -0.11430931132010445,
                    0.43852048669091154,
                    0.2972457552544069
                ],
                [
                    -0.3668337482748856,
                    0.04307562321931818,
                    0.26097597253410776,
                    0.3132022380101436,
                    0.06745189231057865,
                    0.3152663776158618,
                    0.06059831847163114,
                    -0.14309698256500558,
                    0.003951662047574721,
                    -0.3465275257623536
                ],
                [
                    -0.21522136776440146,
                    -0.008736445501438702,
                    -0.021267256567322843,
                    -0.07446684733426635,
                    -0.09562575290571172,
                    -0.29050616457898204,
                    -0.011692222553195497,
                    0.23943909303508987,
                    0.3535564691024789,
                    0.19426155776054216
                ],
                [
                    0.013725884758202937,
                    0.16976967925746592,
                    0.04285705220088685,
                    0.22155122863276897,
                    0.08355043034364397,
                    -0.3097357957469205,
                    0.025112377533544394,
                    -0.1304182624602706,
                    0.21466714124463646,
                    -0.20825238656726047
                ],
                [
                    -0.22859023018622673,
                    0.29200757339312966,
                    0.10571567174066684,
                    -0.47704391834806925,
                    -0.06973118457090643,
                    0.24555121629922574,
                    0.1756012029555379,
                    0.3301078316033067,
                    -0.030824434528574453,
                    0.4336434983369478
                ],
                [
                    0.11931292656936064,
                    0.11615886638670131,
                    -0.1639517552947704,
                    -0.25831718955197885,
                    0.5899655042928462,
                    0.15206638616723242,
                    0.010358051490291445,
                    0.2326047412340339,
                    -0.09313551163251414,
                    0.2093825199440413
                ],
                [
                    0.011133723030233432,
                    0.01613430882180532,
                    -0.07023479153919596,
                    -0.0399486961386551,
                    -0.03920878023438314,
                    -0.34308629728668477,
                    -0.06302150841673354,
                    0.08769365433375524,
                    -0.0832622352237676,
                    0.1368170747032186
                ],
                [
                    -0.18630110080750056,
                    0.15397189026299402,
                    -0.04108264636768245,
                    0.04336882769751874,
                    0.07636067111501885,
                    0.43304983352427145,
                    -0.13919824575729683,
                    -0.10082957712988837,
                    0.13040932828925605,
                    0.38143811196288024
                ],
                [
                    -0.17522020678345182,
                    -0.27245259495306506,
                    -0.23205412467398304,
                    -0.15281568707442167,
                    0.22445429215238616,
                    0.006003039538290649,
                    0.1498323103785882,
                    -0.04728020787088445,
                    0.015892413601573018,
                    0.10504289023003036
                ],
                [
                    -0.0833900812792568,
                    0.15773464281798802,
                    0.15121886727903192,
                    -0.24348522799609557,
                    -0.09500609289396773,
                    0.1003807348330696,
                    0.16852159922180993,
                    -0.543966314007754,
                    0.03015438585661373,
                    -0.09616383359332482
                ],
                [
                    0.09203209810124938,
                    0.04552861835720103,
                    -0.13855213589662507,
                    -0.116289796694732,
                    -0.5095798724911651,
                    0.1408085905793799,
                    0.649818588173213,
                    -0.0987815160157864,
                    -0.0517776589374024,
                    -0.1751342400166755
                ],
                [
                    0.16449255807588836,
                    0.14021617999390124,
                    0.34279666329901204,
                    -0.017714883329994643,
                    -0.2191626239137219,
                    0.10178377422385748,
                    -0.14383507200427786,
                    0.11435942898044398,
                    -0.35195282090202584,
                    0.14336181588272318
                ],
                [
                    0.0007885143120151235,
                    0.0613615079895577,
                    -0.2830697156649196,
                    -0.1251161361453575,
                    -0.06415724149139873,
                    -0.08834903455814568,
                    -0.1433305939773746,
                    0.14854290993452815,
                    0.15976178082037265,
                    0.18863076785285382
                ],
                [
                    -0.08759288030537465,
                    -0.13347190614764304,
                    -0.0002253259330182476,
                    0.08936690718017756,
                    -0.02244468348152553,
                    0.10075314902578487,
                    0.12007103966719238,
                    0.24735783882691256,
                    -0.23486635658310612,
                    -0.13854881027105936
                ],
                [
                    -0.2714354905423703,
                    0.0753111332810457,
                    -0.2834915931552848,
                    0.2739493316684653,
                    0.11945946860471474,
                    0.08594460546463849,
                    0.22467230804250296,
                    -0.13578558509165525,
                    -0.14963768338408848,
                    0.1534364426643278
                ],
                [
                    0.287935844068379,
                    -0.10340069386370668,
                    0.30628393379315977,
                    -0.31821997574884303,
                    0.32314788235358866,
                    0.11650181624201841,
                    -0.18548730007603273,
                    -0.02462900061948831,
                    0.04137642895345196,
                    0.05139003197331642
                ],
                [
                    0.158704978371995,
                    -0.10676780739194228,
                    0.04926672034633481,
                    0.0705610004403229,
                    -0.3275376517442515,
                    -0.05230520512237426,
                    0.07859195407157805,
                    0.1450419397699159,
                    0.05277848064600159,
                    -0.05191374652878801
                ],
                [
                    0.1167258283695669,
                    -0.039553555023225766,
                    0.2861882366573646,
                    -0.003074221976849534,
                    -0.10961429553086018,
                    0.13932914905589647,
                    0.17915930529037433,
                    -0.1892905787138921,
                    0.299359426082209,
                    0.19450908154973942
                ],
                [
                    0.07397132829506607,
                    -0.20231157061502664,
                    -0.05352804924820044,
                    -0.16200333268456202,
                    0.048955922558952474,
                    -0.3179178626579677,
                    0.02506659968841513,
                    -0.09138437637333958,
                    -0.2262317713381517,
                    0.18634399468902862
                ],
                [
                    0.0019276847429319352,
                    -0.027931892551273502,
                    0.1309841687241115,
                    0.18556336257611059,
                    -0.2023592616632051,
                    -0.15488282791040603,
                    -0.1132457840386439,
                    -0.13156126485549666,
                    -0.011763553600993727,
                    0.01737347142476514
                ],
                [
                    0.049383787919993365,
                    -0.07330709290247855,
                    0.2034803416057719,
                    -0.300396578134925,
                    0.07329749616030257,
                    0.20129670515011983,
                    -0.0026338104208926266,
                    -0.09516042714820284,
                    0.1368328756962103,
                    -0.34256950097321276
                ],
                [
                    0.2279288804193211,
                    -0.18927622085629142,
                    0.11621554564873543,
                    -0.20908444493589337,
                    0.25071781005230254,
                    -0.11931602725875837,
                    -0.15201426639151158,
                    0.2413817819006337,
                    -0.2847416612157936,
                    0.04731157273790642
                ],
                [
                    0.027483532548530403,
                    -0.022446206663008842,
                    -0.2982724272904068,
                    -0.09574358170607462,
                    0.15725662037166357,
                    -0.119487204633433,
                    0.11535762683415446,
                    0.07376068906232391,
                    0.02990422236000264,
                    -0.06927364966528304
                ],
                [
                    0.06248992973194827,
                    0.04803654219323653,
                    0.17510533656904118,
                    0.16353164614924792,
                    -0.07197010838349206,
                    -0.5369388605024644,
                    -0.4685760909596682,
                    -0.1924770264815766,
                    0.34159924477744114,
                    -0.21771518733072157
                ],
                [
                    -0.046638968289498525,
                    0.020105165239256543,
                    0.23431566915551916,
                    0.37948111342755253,
                    -0.22318740891078784,
                    0.02604087114611287,
                    -0.0029715403593501646,
                    -0.4396752149367652,
                    -0.021997071135604583,
                    -0.08356142839507458
                ],
                [
                    0.1978093862425465,
                    0.17238866037779627,
                    0.3224333671598836,
                    -0.024835467630544585,
                    0.14757287468808275,
                    0.2261612213316213,
                    0.18861938716748225,
                    -0.6427076405752588,
                    0.20360936587326678,
                    0.33473696320063817
                ],
                [
                    0.06567882075682427,
                    -0.15288103617384952,
                    0.046077225818005996,
                    0.025376809899302535,
                    -0.17656132509247643,
                    0.16023037786396666,
                    -0.1021311152067097,
                    -0.23118894934300327,
                    -0.32429019914446633,
                    -0.10661765283043746
                ],
                [
                    0.45962952418723196,
                    -0.08960443803921866,
                    0.22594313929303367,
                    0.048779532842869525,
                    -0.0012327170342838788,
                    0.03598945367778732,
                    0.22940179973126726,
                    -0.2499631723116728,
                    -0.043107888645216176,
                    -0.15567967076950048
                ],
                [
                    -0.13838406105010212,
                    -0.21734974065091395,
                    0.16410021233038705,
                    0.17096050770605517,
                    -0.060806596500097836,
                    0.01380250431906827,
                    0.2566822897828471,
                    -0.24432138991714233,
                    -0.029222270677769155,
                    -0.255982764874371
                ],
                [
                    0.110669443963412,
                    -0.13075243635315845,
                    -0.0386788992236801,
                    -0.0510124910336743,
                    -0.13503533918544064,
                    -0.2901230797762098,
                    -0.1745105166342614,
                    -0.03972104993235682,
                    -0.10898176558450287,
                    0.2090825680699018
                ],
                [
                    0.1033554695760593,
                    0.0858462853824969,
                    0.2126935569697976,
                    -0.11421971272125386,
                    -0.19671565821111683,
                    -0.05482054853556334,
                    0.01563775923196612,
                    -0.08936824148548345,
                    -0.425887812664516,
                    0.05406137121088075
                ],
                [
                    -0.38394870146799687,
                    -0.28700279052740557,
                    -0.2109769046654904,
                    0.4283569794453689,
                    -0.03244968510848265,
                    0.15658545280813024,
                    -0.15950556289106288,
                    -0.11297074507836774,
                    0.22894102773852762,
                    0.26162556128030023
                ],
                [
                    0.02505052234398108,
                    -0.05334297086544982,
                    0.06510963806806884,
                    0.3024523812699814,
                    0.14878991327747612,
                    0.18439482614197428,
                    -0.013176804754834936,
                    0.05354729879092782,
                    -0.46709093743183316,
                    -0.27455267407879486
                ],
                [
                    -0.09408201231672053,
                    -0.22784022900638026,
                    0.04070351585575151,
                    0.1884366332436115,
                    -0.19873143905456944,
                    0.02033665257008447,
                    0.04992730628469671,
                    0.01908211308029326,
                    -0.20437308260499787,
                    -0.3598404547686387
                ],
                [
                    0.11048083898358439,
                    -0.2728502771568414,
                    -0.023673012586780263,
                    0.2744476739994965,
                    -0.34256407562682334,
                    0.016732653626162657,
                    0.0213927972556058,
                    0.22873507118649827,
                    -0.02806448718044186,
                    0.3690688812332488
                ],
                [
                    -0.08123732090905761,
                    0.08468853853456612,
                    0.08812656543599617,
                    0.1636716058326238,
                    -0.06819420728628228,
                    -0.09101795295568932,
                    0.08662514367617356,
                    0.19744280597115196,
                    0.026868472474877638,
                    -0.268456558370082
                ],
                [
                    -0.298244590641912,
                    -0.10907516753243524,
                    0.10054571943983147,
                    -0.11997153362927465,
                    0.2833694189721578,
                    -0.021832302744659682,
                    0.08209013564286959,
                    0.19214655543027834,
                    0.1345409020762996,
                    -0.23076714705555154
                ],
                [
                    -0.31176582818265186,
                    -0.11106176043902004,
                    -0.2955058718662946,
                    -0.06739408693185828,
                    0.1848044961330346,
                    0.13602021019959462,
                    0.2280761772462433,
                    0.014265302007400482,
                    0.10644457870649127,
                    0.07686292113999509
                ],
                [
                    -0.09030284702773755,
                    -0.2934949528486109,
                    0.4167172967169298,
                    -0.4270780946879478,
                    -0.12073087976166214,
                    0.14542758028860497,
                    0.013546912002104628,
                    -0.010564506633919328,
                    -0.0982231745519495,
                    -0.5804414639771152
                ],
                [
                    0.23473151385227845,
                    0.004321342298278719,
                    0.06588016135471601,
                    0.11897097884269972,
                    0.20006229569976514,
                    0.0182025500895128,
                    -0.15330396267627053,
                    0.24731249949813897,
                    0.3210550993301881,
                    -0.10134516383741071
                ],
                [
                    0.29613973724276565,
                    -0.1344050094201316,
                    -0.2753539794501723,
                    0.1764529077185997,
                    -0.14121315125825137,
                    0.05411623519743112,
                    0.2061513870646044,
                    -0.03960512108302195,
                    -0.0366767389790551,
                    -0.002338043915338854
                ],
                [
                    0.2506546418404107,
                    -0.15107838438409366,
                    0.01979034310971345,
                    -0.07157515564028456,
                    0.1610468930090116,
                    -0.2894397241741795,
                    0.2153795642425856,
                    0.06292494751589252,
                    0.09790679098653442,
                    0.3110817810618148
                ],
                [
                    -0.2189206724139484,
                    -0.13178776469216294,
                    -0.042753938485039826,
                    0.21577587888555846,
                    0.3190233980119047,
                    -0.07635303292556472,
                    0.5560786093164795,
                    0.00755494055434301,
                    -0.003865526850900718,
                    0.013432999091786151
                ],
                [
                    -0.2121398392152744,
                    -0.16814819607411088,
                    0.029182717779319516,
                    -0.006206901183488431,
                    0.1312696073188843,
                    -0.2529417202284043,
                    -0.06710091811465474,
                    -0.18886892030237837,
                    -0.2929742119978049,
                    0.23197063767774187
                ],
                [
                    -0.2963102952015284,
                    -0.01747622501490409,
                    -0.16452582158366988,
                    0.05934589031036855,
                    0.22822001513242499,
                    -0.10811976666115312,
                    0.014873534010162913,
                    0.034711418039361244,
                    -0.1586718472782243,
                    -0.07961314511406303
                ],
                [
                    -0.06474616630482946,
                    -0.04955837533588152,
                    -0.1774550394077917,
                    0.05255949567898426,
                    -0.19249192704071644,
                    0.10825204814064467,
                    -0.010201841098976138,
                    0.12042372663318547,
                    0.1423104255433666,
                    0.1540909661458277
                ],
                [
                    -0.2250095344558355,
                    0.029263478392090033,
                    0.15007752906979205,
                    -0.23377021734168207,
                    -0.023994484808091285,
                    -0.2007107626384354,
                    -0.25147542905531733,
                    -0.09838557430700472,
                    0.10037912764364933,
                    -0.14051492303951282
                ],
                [
                    -0.02489744587769984,
                    0.33544443887995457,
                    -0.20346137944048553,
                    0.13598584083104762,
                    -0.09770601384287032,
                    -0.01654670309674473,
                    -0.23191014667469345,
                    -0.054817916985614334,
                    0.05981394993487665,
                    -0.040003947899399143
                ]
            ],
            "biases": [
                [
                    0.0746999507643789,
                    -0.13389951989317533,
                    -0.007245428173965393,
                    0.12373861692962715,
                    0.21763224011277305,
                    0.004135059358756811,
                    -0.08629154570787219,
                    0.3294319646642885,
                    -0.004870613023338937,
                    0.0023806904984075036
                ]
            ],
            "n_inputs": 147,
            "n_neurons": 10
        },
        "ActivationReLU-8": {},
        "LayerDense-9": {
            "weights": [
                [
                    -0.6807466328824832,
                    -2.3024416597032613,
                    -1.8592375532026608,
                    0.3272459731106137,
                    -2.027265045554677,
                    2.505141362032034,
                    -1.2583391486141766,
                    1.1937145460183631,
                    0.3728378610649539,
                    2.267249155251358
                ],
                [
                    -0.8144162878819651,
                    -1.464813425088056,
                    0.9729283370691136,
                    -1.275428530510437,
                    1.2196616008933878,
                    -1.9899483029194636,
                    0.3633286380284479,
                    0.27671935249652296,
                    0.8447686820829862,
                    -0.5491667900614238
                ],
                [
                    -0.38578834189342476,
                    0.35050580904510575,
                    0.5798172080122422,
                    0.12159039439521797,
                    -0.4114385852038528,
                    -0.12407876170794004,
                    -0.8526429825468077,
                    -0.32459937508384357,
                    -0.07690594604932853,
                    -1.4158598386211427
                ],
                [
                    1.9590207027205206,
                    0.7567248545833479,
                    -0.08922003483930997,
                    0.31799311658708634,
                    -1.6432854621530533,
                    1.0080343985854296,
                    0.06306157277329126,
                    -1.9035220132985575,
                    1.3686822575433433,
                    -1.2102298096559032
                ],
                [
                    0.40972456036057975,
                    0.5396256795737426,
                    -0.4600351775667177,
                    1.29935857716431,
                    0.7950582701371944,
                    -2.126248954073788,
                    0.6701818558701437,
                    -1.857061032963464,
                    -1.1650004495485937,
                    -0.3083397103534929
                ],
                [
                    0.3730655040949604,
                    -0.7993964676684072,
                    0.023786161212988675,
                    -0.2985015720685079,
                    -0.6009964799417981,
                    0.3587047372350363,
                    -0.6181258861248435,
                    0.5588400729224463,
                    -0.22323717693527612,
                    0.5665622335801187
                ],
                [
                    -0.14887416365915696,
                    0.8604084640833527,
                    -0.42856438608153424,
                    0.566137541814714,
                    -0.36544644644373137,
                    0.9074788882760502,
                    -1.2340575852144762,
                    -0.8693043466329207,
                    2.131529910642294,
                    -0.8464476499676862
                ],
                [
                    -0.3617215985625725,
                    2.1904722990774608,
                    0.06810864824981935,
                    -0.9938722433399735,
                    -0.060082202574416696,
                    -0.07966680858522923,
                    -0.943822354741408,
                    2.457504191829119,
                    -0.7187572317354445,
                    0.07449817068383743
                ],
                [
                    -0.33273524976081964,
                    -0.09725248904670995,
                    -0.08052403589320721,
                    0.8369055251835928,
                    -0.2587615952561531,
                    -0.6616822073206537,
                    -0.8701277123094049,
                    0.7922860864345793,
                    0.17534204803389328,
                    0.01415822471118038
                ],
                [
                    0.3409334571520593,
                    0.1782196753729773,
                    0.17531724459855832,
                    0.10537991874930788,
                    -1.014397496493014,
                    0.8069226699036437,
                    -0.2328859433472452,
                    -0.3197594254567586,
                    0.7497134317196888,
                    -0.196393368808695
                ]
            ],
            "biases": [
                [
                    0.4688075060942567,
                    -0.1784872112833469,
                    1.9670127298295152,
                    -0.5707412819868818,
                    0.018406457191524558,
                    1.5390220963550536,
                    1.4509327542436437,
                    -0.6673986275144684,
                    -1.7289748030164982,
                    -2.2985796199127813
                ]
            ],
            "n_inputs": 10,
            "n_neurons": 10
        },
        "ActivationSoftmaxLossCategoricalCrossentropy-10": {}
    },
    "optimizer": {
        "OptimizerSGD": {
            "learning_rate": 0.01,
            "current_learning_rate": 0.01,
            "decay": 0.0,
            "iterations": 90000,
            "momentum": 0.0
        }
    }
}