{
    "network": {
        "LayerDense-0": {
            "weights": [
                [
                    0.024130581907529838,
                    0.11832150093004312,
                    -0.009479518545121461,
                    0.06720326368446734,
                    0.1225237027768143,
                    0.035600260385762916,
                    -0.019223521064491496,
                    -0.09719416204539978,
                    0.03145169407964326,
                    -0.10534980266074524
                ],
                [
                    0.10736498853026137,
                    -0.011983513983754836,
                    0.03493813024629893,
                    0.09240156213152871,
                    0.10715987023073811,
                    0.081311956883722,
                    0.06439378973668525,
                    0.12803799387824755,
                    0.03978347924120306,
                    0.1862732570637051
                ],
                [
                    -0.010426664700373543,
                    -0.055745356605680106,
                    -0.03796143828171292,
                    0.0825205591158479,
                    -0.07604661562903707,
                    0.03666484234030626,
                    0.046376787078323566,
                    -0.15515988789034507,
                    -0.12423902455326802,
                    0.00931911850866992
                ],
                [
                    -0.07476424448932155,
                    0.06905088122957673,
                    -0.027843381985383223,
                    -0.11260303732882682,
                    -0.020384425490697956,
                    0.1393997758641218,
                    0.07831735776095536,
                    0.23983185657366085,
                    -0.09349849921507734,
                    0.06006952575917644
                ],
                [
                    -0.03725439731037669,
                    0.06913033790459447,
                    -0.07626881910299957,
                    -0.042900292298861276,
                    -0.06896321269957952,
                    -0.05273025484106282,
                    0.007425254138453751,
                    0.07064533787137386,
                    0.11046333033274593,
                    0.042224267622330426
                ],
                [
                    -0.038440459385177025,
                    -0.07024971005038164,
                    -0.08076638961145892,
                    0.08217167706481877,
                    0.13966108635053862,
                    -0.050812008607939704,
                    0.055106266214972444,
                    0.007073525277219791,
                    0.02234530622912767,
                    0.04404772811649577
                ],
                [
                    -0.08805782168521976,
                    0.08310951073733445,
                    -0.017007110140790226,
                    -0.08849866995471951,
                    0.007024510553990936,
                    0.14620598887558306,
                    -0.0827229002331868,
                    0.16487103910312007,
                    0.11153428481591443,
                    -0.021318934082594644
                ],
                [
                    0.021505277629724002,
                    0.05517292000968659,
                    -0.04923171668558612,
                    -0.06656086410615464,
                    -0.05820300996395255,
                    0.014725616611043562,
                    0.05592299686988012,
                    -0.09263451859395062,
                    -0.07386191628267795,
                    0.05993399329872987
                ],
                [
                    -0.08492612639506071,
                    -0.006229832803054589,
                    -0.08839073581092105,
                    0.08170339111972504,
                    -0.059134143383076,
                    0.07064241787759294,
                    -0.048902450905344,
                    -0.13154963614135498,
                    0.14522285783572966,
                    0.027592627366195905
                ],
                [
                    0.2014544526435378,
                    0.12369438880582007,
                    -0.02931273074569988,
                    0.18357454250101016,
                    0.10204167822472052,
                    -0.10665624285060053,
                    -0.11626553411813025,
                    -0.0275157177513155,
                    0.0021448045636568262,
                    -0.19754399435387182
                ],
                [
                    0.1338595172359007,
                    -0.21334038866018476,
                    -0.18587291252336308,
                    -0.08116513509254449,
                    0.034781004478872224,
                    -0.07817761883838166,
                    -0.012605657164141101,
                    0.09853835988821093,
                    0.040662199561031925,
                    -0.04970945870440492
                ],
                [
                    -0.04362093823592049,
                    -0.12531984805984506,
                    0.04445342633932878,
                    -0.08469389166689474,
                    0.24072135312059956,
                    -0.06208737043403713,
                    -0.00245438696009508,
                    0.16320230264822122,
                    -0.042859828272390994,
                    0.06873547154789622
                ],
                [
                    0.16828631411405237,
                    0.024720771510434808,
                    -0.03868031166841097,
                    0.07305383228921004,
                    -0.024549894456728647,
                    -0.055531909525299926,
                    -0.07749149324191142,
                    -0.17779251032093865,
                    0.012097332035922491,
                    -0.030194382263062716
                ],
                [
                    0.06603900914130356,
                    0.12474259165030334,
                    -0.0003712078657987558,
                    -0.03375767641609501,
                    -0.019407461040462735,
                    -0.03614320869928898,
                    -0.0013388516293232047,
                    -0.19374089310323953,
                    -0.018644199802424082,
                    0.19871159268168861
                ],
                [
                    0.019640748794774676,
                    0.03456047630242569,
                    -0.09358339697386753,
                    0.07252052881742739,
                    -0.009367478708578191,
                    0.027869620716289917,
                    0.0499038824935052,
                    -0.016655974656845648,
                    -0.014158045231428268,
                    -0.014377892485981305
                ],
                [
                    -0.005104618755051251,
                    0.05390778246135162,
                    0.017826198499078925,
                    0.11112461407356171,
                    -0.07962107897142347,
                    0.006763652552624011,
                    0.08306194252829187,
                    0.06498507784392205,
                    -0.008284041398940532,
                    -0.08643748481599103
                ],
                [
                    0.1576926686924237,
                    -0.0002498094871393112,
                    -0.015249809293678512,
                    -0.020247528429258324,
                    0.05885664838087091,
                    -0.07361207498584109,
                    -0.10463980298070615,
                    -0.06787745789696167,
                    -0.053190458214457455,
                    -0.2663113572175278
                ],
                [
                    0.14139075608810203,
                    0.06342247898246185,
                    0.11049350315983995,
                    0.1058126414062654,
                    -0.09972318405421537,
                    -0.022572487854351262,
                    -0.14691907962916154,
                    -0.008787981959078334,
                    -0.04229215531119032,
                    -0.10495895088076797
                ],
                [
                    0.026576107938080015,
                    0.11665698064482724,
                    -0.07860909513370239,
                    0.10529846633936352,
                    -0.038087891616430676,
                    0.031672802313092704,
                    -0.032829420738407375,
                    -0.06872374761393367,
                    0.1104294823242619,
                    -0.09803472043756796
                ],
                [
                    -0.061105559426324,
                    -0.025082107079567276,
                    0.10175483947989562,
                    0.06006356901981688,
                    0.15873350981420206,
                    -0.026837802732811555,
                    0.05704746139746511,
                    0.07735290709124264,
                    -0.1346171124985531,
                    -0.0941507197737936
                ],
                [
                    0.07234987129946599,
                    -0.12452402063497243,
                    0.0918118535995878,
                    0.06189579357388806,
                    -0.016006871195803594,
                    0.04206097674235882,
                    -0.008594606401215402,
                    -0.004214985820292448,
                    -0.11143288489187991,
                    0.03644319907518992
                ],
                [
                    -0.07920604151790465,
                    -0.12621245009878976,
                    0.008843027150373458,
                    -0.06143665927429481,
                    -0.057347265496824736,
                    0.12960153753528686,
                    -0.016130003895182266,
                    -0.04803552036410909,
                    0.01028367692423318,
                    0.07476831376141972
                ],
                [
                    -0.07517341095022731,
                    -0.026810580207762415,
                    0.07431415239446852,
                    0.0225671481657474,
                    -0.0970241048813055,
                    -0.0416175943321014,
                    0.03517654648439258,
                    0.04999175167498633,
                    0.046410560910344456,
                    -0.06039671494504122
                ],
                [
                    -0.03373125873083721,
                    0.16697033660810787,
                    -0.03431623317013633,
                    -0.17091580768109582,
                    -0.11851747050079219,
                    -0.005151343803862388,
                    0.013365872953269691,
                    -0.004773658565657534,
                    -0.17510385308055895,
                    0.09090118427081345
                ],
                [
                    0.1636682490693229,
                    -0.06496943454678057,
                    0.09498754012483027,
                    0.018017703862232216,
                    -0.12396182532835442,
                    0.07700688103942382,
                    0.0031034799115366458,
                    -0.0018002634474977915,
                    -0.11612918186793175,
                    0.19010261788724853
                ],
                [
                    -0.06159806551067146,
                    0.1161197297560148,
                    -0.07505090718966512,
                    -0.006389973582631947,
                    0.1655174753786493,
                    0.0012110126722297131,
                    0.011658848644992574,
                    0.0770456442889791,
                    0.013929159378778134,
                    0.2103154870642312
                ],
                [
                    0.17388773544338731,
                    0.07801321975997498,
                    0.018802216882970072,
                    -0.12432109255793704,
                    0.051506046443161674,
                    -0.02954948690475795,
                    0.22852363977156095,
                    -0.056106418561123285,
                    -0.0626075894555827,
                    0.0932955527627929
                ],
                [
                    0.06591081191072695,
                    0.03647768587042428,
                    -0.18852876427718246,
                    0.054575099697015385,
                    0.11425179724034122,
                    -0.06495057791171792,
                    -0.13158501836828382,
                    0.08101399019887442,
                    -0.03375615227616641,
                    0.023098115407726726
                ],
                [
                    0.08404861352057509,
                    -0.01040315843326076,
                    0.05115194460191567,
                    0.01653550103843775,
                    0.0229555133978989,
                    0.0010121491401278333,
                    -0.12457960270148634,
                    -0.09840457484505308,
                    0.04080982921072245,
                    -0.00826141323565
                ],
                [
                    0.08737422121788233,
                    -0.01555002798534359,
                    0.06483904852779579,
                    0.08358240288891132,
                    -0.07139721109927934,
                    -0.020083852276070846,
                    -0.16572980966415563,
                    0.02206407357793544,
                    0.03457868314885178,
                    -0.12305131100040566
                ],
                [
                    0.11730514580717427,
                    -0.053982479192958684,
                    -0.016974385652123027,
                    -0.02658347150037094,
                    0.11731715245875503,
                    0.05834977937767447,
                    0.059433365644202416,
                    -0.04608432063320615,
                    -0.011427441864823586,
                    -0.05614332832216265
                ],
                [
                    0.0017289403301156176,
                    -0.11063246059878155,
                    0.12260419312488788,
                    -0.13003966694856542,
                    0.06831399416577916,
                    0.02650433877050953,
                    -0.024989899835431352,
                    -0.03459674484429778,
                    -0.013001799712277893,
                    0.04065085419989796
                ],
                [
                    -0.07728063389490746,
                    0.0509556504082267,
                    0.12064781173211053,
                    -0.010633324052657022,
                    0.17617421655102894,
                    0.09598312609842458,
                    0.010557984637953348,
                    -0.026319719205139515,
                    0.0700928449863252,
                    0.07583871747184338
                ],
                [
                    0.03071236305973857,
                    -0.029271452285641975,
                    -0.04357638648358573,
                    0.19595509820382445,
                    0.16870367314868198,
                    0.05368712770427758,
                    0.005163284852467974,
                    -0.18494798596184886,
                    -0.004575152054523797,
                    0.013259176600197448
                ],
                [
                    0.019719802165564567,
                    0.08407823191231761,
                    -0.11167028905604097,
                    0.11436419364672187,
                    -0.16845824429005493,
                    0.04766091209245542,
                    0.14640893978242833,
                    -0.1868015923032162,
                    -0.2370313820798606,
                    0.21263903530994158
                ],
                [
                    0.08545407339754477,
                    0.03421348356406986,
                    0.024694123987055897,
                    -0.07042767551820754,
                    -0.009934162032254881,
                    0.06830025213306358,
                    -0.03983888871728328,
                    0.07583727135047962,
                    -0.008030472480919055,
                    0.0706536334636962
                ],
                [
                    -0.04491544448688524,
                    0.023313746562927232,
                    -0.021416692678898584,
                    -0.0734993629730125,
                    -0.13482587045364783,
                    -0.035372766444613554,
                    -0.12777351620867486,
                    -0.06809220011967408,
                    0.16081905041458136,
                    0.12855008978797117
                ],
                [
                    0.06041311365738316,
                    0.07263120268360934,
                    -0.07024105356794241,
                    0.046276687878755565,
                    -0.19456754969655388,
                    -0.05104995838399681,
                    -0.08081692090621656,
                    -0.017702675992625063,
                    0.023127221976948716,
                    -0.07906718030683456
                ],
                [
                    -0.1261187197581874,
                    -0.07775021403622819,
                    -0.03626152370054924,
                    -0.016204738889919298,
                    0.07958978434577425,
                    -0.08457846503383801,
                    -0.060434152582481776,
                    -0.07701008582322476,
                    -0.07902076173297834,
                    0.07207307816217084
                ],
                [
                    -0.06863599113864213,
                    -0.04007696781155313,
                    0.09036652546393485,
                    -0.04886360582940649,
                    -0.10395024404540827,
                    0.10245011551466456,
                    0.03291621196781905,
                    -0.20718628179699805,
                    0.08652190933922602,
                    0.07402468313789982
                ],
                [
                    -0.04375945416658799,
                    0.028534514062230242,
                    -0.023689811604346134,
                    0.09979511399397048,
                    -0.006627522854166764,
                    -0.0713996371367117,
                    0.028364637019780266,
                    0.09805887464792394,
                    0.04402595752082743,
                    -0.0021368809318221306
                ],
                [
                    -0.09016481524258807,
                    0.21519177287886646,
                    -0.07858838506633639,
                    -0.04053006083781794,
                    -0.02169956175802256,
                    -0.10849875677521714,
                    0.1569093493794875,
                    -0.12934935396994346,
                    0.031349887649518134,
                    -0.06200014750919965
                ],
                [
                    -0.06826584087276574,
                    -0.03984950253612908,
                    -0.09785607537970939,
                    -0.004477927357973411,
                    -0.1222181886719048,
                    -0.02071202796803882,
                    0.03136364551908628,
                    0.020030517140580503,
                    0.03876955882957821,
                    0.047048814540173504
                ],
                [
                    -0.05384674280277005,
                    0.03939518485749871,
                    0.008950742774897855,
                    -0.02122808495729735,
                    -0.03589281435706898,
                    0.04593627182852753,
                    0.07025432428905246,
                    -0.028230625774247984,
                    0.032789940819911254,
                    -0.012026269272108791
                ],
                [
                    -0.023175434478727178,
                    0.1000503344001298,
                    -0.062287579826371835,
                    -0.14956094998019234,
                    0.010397121786661747,
                    -0.03995616165063755,
                    0.08584628931463006,
                    -0.03948464646049904,
                    -0.08546243123435275,
                    0.07126313816570305
                ],
                [
                    -0.07927724541811258,
                    0.051918108076113155,
                    0.08085330386452724,
                    -0.06850147260173853,
                    -0.002886864792610244,
                    -0.020540217994035822,
                    -0.1325270681037979,
                    0.24832760465103845,
                    0.08678105205529095,
                    0.06569747445944082
                ],
                [
                    0.061152370236863575,
                    0.054280684302958127,
                    0.1622101990164084,
                    0.06065874255771185,
                    -0.1521291143144912,
                    -0.030500184261611316,
                    -0.10503701325277415,
                    -0.09523923106762067,
                    -0.0029159986286130465,
                    -0.04197148670633411
                ],
                [
                    -0.0036462329443147003,
                    0.04850149712083318,
                    -0.0404059328158078,
                    0.20558005888915415,
                    0.03838326228088994,
                    -0.08921850582643054,
                    -0.014195443356005097,
                    -0.06513867245773688,
                    0.02429834995171858,
                    -0.1480355727881707
                ],
                [
                    0.011707363726350301,
                    -0.025522766250636732,
                    -0.027835720585113317,
                    0.021626531769481712,
                    0.20719145651690005,
                    -0.01656206816590062,
                    0.07304072755575709,
                    -0.009099251759071022,
                    0.02708950114764242,
                    0.10385652741537361
                ],
                [
                    0.17757059397689198,
                    0.07060491364064198,
                    -0.17928203824882996,
                    0.176941436726377,
                    -0.03039184906044404,
                    0.10203400345984781,
                    -0.11487629769581563,
                    -0.05073858804608971,
                    -0.06686042859890302,
                    -0.03219716844361822
                ],
                [
                    0.0712890904696132,
                    -0.11816220486832457,
                    0.01502178918801476,
                    0.001200771049254186,
                    -0.074180616483155,
                    0.1798700674207136,
                    -0.018669599457032834,
                    -0.020843968629174803,
                    0.0934658580232427,
                    0.11147220252154744
                ],
                [
                    -0.058925079242353066,
                    0.09933277763452028,
                    -0.16329267041483664,
                    -0.02575232397896161,
                    0.002973697761866061,
                    -0.12234448247402459,
                    0.12485741875174138,
                    -0.012275153607651908,
                    0.11230541051326651,
                    -0.011710224869926622
                ],
                [
                    -0.011501702201319037,
                    -0.09911021739911213,
                    -0.08913353196346455,
                    0.05806389051034462,
                    0.018137529943800922,
                    -0.16529773500838707,
                    -0.003150782380765439,
                    0.13643043174236072,
                    0.07065550247525276,
                    -0.05686841185982949
                ],
                [
                    -0.06227272159970026,
                    -0.03586247694572835,
                    -0.09066967069099945,
                    0.22404669300463945,
                    0.01920460710753853,
                    -0.050991601383982586,
                    0.009820428020542223,
                    0.05281828444767245,
                    -0.02699920317880016,
                    0.16090601760425094
                ],
                [
                    -0.08095275690247015,
                    -0.03965313995948744,
                    0.059766187214541966,
                    -0.2071693837237654,
                    -0.007090108732827266,
                    -0.05409120894859107,
                    0.016440078152369027,
                    -0.01443933016024753,
                    0.007691100276741362,
                    -0.0481977480749889
                ],
                [
                    0.14617792879812858,
                    0.021399535717639608,
                    -0.1046215324185019,
                    0.11180654325938658,
                    -0.02291444444569521,
                    0.005733613159654866,
                    -0.10426586707602138,
                    0.04872983558210628,
                    -0.03208290984868671,
                    0.05273186472058889
                ],
                [
                    0.023343202533582325,
                    -0.013285130951070511,
                    -0.06561543734075446,
                    0.033091755066813056,
                    -0.012864104689247988,
                    0.00340677116349377,
                    -0.03698645699526187,
                    -0.013873848607816755,
                    0.11145469217626978,
                    0.013916426893711429
                ],
                [
                    0.04100905984872506,
                    0.08248822674195275,
                    0.012786895480997628,
                    0.06731868168958229,
                    -0.10276534158532707,
                    0.009428347493602593,
                    -0.026154557424954674,
                    -0.06938848473563948,
                    -0.15318710691662302,
                    0.004790527545374735
                ],
                [
                    -0.037046881796836385,
                    0.03611408017720989,
                    0.07017692637345486,
                    -0.02084853211692823,
                    -0.036926406071721804,
                    0.03377060583316989,
                    -0.07562122561086111,
                    -0.11199893075248313,
                    0.06476327852028549,
                    0.1493865896066797
                ],
                [
                    0.047915306017561964,
                    -0.10507366020768448,
                    0.03646563965343368,
                    -0.006850858408841677,
                    -0.07481863018294484,
                    0.15035596841441484,
                    0.0004381726655850758,
                    -0.0926275450407475,
                    -0.046837641304775704,
                    -0.15990728901857337
                ],
                [
                    -0.01637136633912529,
                    0.027139343391467244,
                    0.061832118617218754,
                    -0.09531616987276748,
                    -0.12563327429409019,
                    -0.04032840262253302,
                    0.03056682439375135,
                    -0.049292030748067754,
                    -0.08640182492952307,
                    -0.00832985069342253
                ],
                [
                    -0.12431506612242448,
                    -0.0724514612114534,
                    0.16868339127686285,
                    0.07827285773413616,
                    0.04069332282737014,
                    -0.0019361647661963637,
                    -0.15239108457969466,
                    0.024018570571602865,
                    0.08236735507037157,
                    0.026449616371883755
                ],
                [
                    -0.11900260791282287,
                    -0.011147595374391892,
                    -0.10364783662008233,
                    -0.011963598157917218,
                    -0.08616253022082034,
                    -0.1037883723664928,
                    0.06580193351319133,
                    -0.059641237174393236,
                    0.11791555164469505,
                    0.05585677990046834
                ],
                [
                    -0.0023781136739573047,
                    -0.0793666995851595,
                    0.11590975242700924,
                    -0.08316034594685391,
                    -0.11596984615570148,
                    -0.06440572223047596,
                    0.019653459229742428,
                    0.07834563919073752,
                    -0.01937206553805388,
                    0.037162533688816175
                ],
                [
                    -0.16258438528936345,
                    0.14206224053776292,
                    -0.007004758856465359,
                    0.017970504026388886,
                    -0.19214386196151031,
                    0.03976475786972813,
                    0.01733521335434576,
                    -0.10642615492374974,
                    0.06719117103033498,
                    0.14035349624671392
                ],
                [
                    0.07154204512371169,
                    0.16915831773416154,
                    0.0033345490770308947,
                    -0.06450061889341988,
                    -0.14198614323550587,
                    -0.020009169691328224,
                    0.03516752164902206,
                    -0.048099862573805864,
                    0.08969281145564824,
                    -0.02192216450066319
                ],
                [
                    -0.05434353328066735,
                    0.011104530840852417,
                    -0.061912806713420164,
                    -0.036325440055748684,
                    -0.1787935857965848,
                    0.010988781509515889,
                    -0.017578320304166825,
                    -0.0985182758211651,
                    -0.018463207799951344,
                    0.08600424805502109
                ],
                [
                    -0.12261291946989536,
                    0.03780261052871752,
                    -0.1623441425030579,
                    0.07856737347577582,
                    0.04721217911989527,
                    -0.047766399217258004,
                    0.05052621095816303,
                    0.027205537270882204,
                    0.14509889373112028,
                    0.16133170303845795
                ],
                [
                    0.13809498156387653,
                    0.06470475856397458,
                    -0.039991842974927055,
                    0.14110606369157172,
                    0.04750726124122259,
                    0.13244029065677596,
                    0.005533826904380628,
                    -0.018538579805032214,
                    0.034171206399248144,
                    0.1332943901958441
                ],
                [
                    0.1173423984084132,
                    -0.07338515262891077,
                    -0.19536188774108518,
                    -0.043037215086142215,
                    -0.08231178623912962,
                    -0.0025915222339979206,
                    -0.03982984646127299,
                    0.032718621800786364,
                    0.06754312613341602,
                    0.07758854040638317
                ],
                [
                    0.008666064674091914,
                    -0.09446788567905796,
                    -0.10456175404413898,
                    -0.03074153817145791,
                    0.02417324689042937,
                    0.05736387715295033,
                    -0.014048601656024258,
                    -0.0844022243605345,
                    0.01740902738395276,
                    0.15721088755137036
                ],
                [
                    0.09773933170925134,
                    0.028137119095939325,
                    0.04060747033863673,
                    -0.08756025240948176,
                    0.11168969940887595,
                    0.007725608948945996,
                    -0.018613973075470795,
                    -0.10619759037084396,
                    0.04360752902447404,
                    -0.009371744987676477
                ],
                [
                    0.0015914142522366343,
                    0.05714995671596396,
                    -0.19459570657646846,
                    0.00920822261724023,
                    -0.14110216316913063,
                    -0.02511728526633133,
                    -0.10009654776110212,
                    0.10387012658265267,
                    0.02664053867612174,
                    0.10522051613182855
                ],
                [
                    -0.15729552526102203,
                    -0.023456956548497273,
                    -0.12240271983575575,
                    0.10907910031590899,
                    -0.018233612922335773,
                    0.05811225224269311,
                    -0.08364847542858796,
                    -0.06375447963206057,
                    -0.023339919939429382,
                    0.009421127092824626
                ],
                [
                    0.05474432933399343,
                    -0.03915272080773341,
                    -0.05900032593432498,
                    -0.08077788268168767,
                    -0.02272171013584951,
                    -0.09724474897121481,
                    0.07524177136169909,
                    -0.13734124969565767,
                    0.06979648250635838,
                    0.0869171388571318
                ],
                [
                    0.020444878033542592,
                    0.005749057647238464,
                    0.09563402732057352,
                    -0.14226697124723303,
                    -0.02684180706080616,
                    0.043254885427927325,
                    0.037805387160650496,
                    0.030847317036218198,
                    0.11233623657033512,
                    0.030761086716122807
                ],
                [
                    0.027946402269845343,
                    -0.03905983401740417,
                    -0.11038980741512952,
                    0.07310998763292158,
                    -0.03914619128644934,
                    0.00545352888934872,
                    -0.06513980849765186,
                    -0.08476182074900046,
                    0.147005960161028,
                    0.13363655196765162
                ],
                [
                    -0.1306547374242723,
                    -0.08596563747215133,
                    -0.014276371118711152,
                    0.011433755382179061,
                    0.008246478865529802,
                    -0.030282376153718864,
                    -0.03894068645435616,
                    0.002216673283303584,
                    -0.04527932843445407,
                    -0.06476583504424957
                ],
                [
                    -0.05787138035882857,
                    0.01283266895800714,
                    -0.07928849484915314,
                    0.09004761627853594,
                    -0.20954235818148723,
                    0.017411289587936016,
                    -0.033827260443177735,
                    -0.01998168953397796,
                    0.07746424597062385,
                    0.0193782457231583
                ],
                [
                    -0.1150272915665723,
                    0.0256622590457118,
                    0.12046921568620464,
                    -0.07391187331806773,
                    -0.03920348498705783,
                    0.05087246646775304,
                    -0.0033321184618344355,
                    0.04749283684899384,
                    -0.0020887873473350747,
                    -0.06762744610314646
                ],
                [
                    -0.08543746786872927,
                    -0.0025742932860648086,
                    0.02018835733862698,
                    0.10487486308258111,
                    -0.023582678161313354,
                    -0.06458464303922165,
                    -0.13758562059744578,
                    0.04731066428194308,
                    0.07064390981687114,
                    0.019195619880009476
                ],
                [
                    -0.03439459255576595,
                    -0.10456888706991672,
                    0.11106736704624574,
                    -0.07313888986359142,
                    -0.04414694628765524,
                    0.038637955820292814,
                    0.10065397493364686,
                    0.0625177619053106,
                    -0.039682703011768,
                    0.012212781789493154
                ],
                [
                    -0.0653991390875583,
                    -0.03566856050276984,
                    -0.042221821327884566,
                    -0.10768507007076057,
                    0.04623328820834339,
                    -0.06598189459502381,
                    -0.07154163325777466,
                    -0.016761893867046025,
                    0.06455675604792749,
                    0.09016620546554076
                ],
                [
                    -0.05836474238412252,
                    -0.03349756097499481,
                    -0.17275531768061955,
                    -0.019031151625454077,
                    -0.08558694627210368,
                    0.02183310195544779,
                    -0.06430926614559772,
                    -0.038976714387959376,
                    -0.01623102306511181,
                    -0.10565155030017667
                ],
                [
                    0.2031475536795424,
                    0.06095837882033037,
                    -0.15332560282125499,
                    -0.10330506601311287,
                    0.027392785762684245,
                    -0.08857452759136271,
                    -0.05275591170050912,
                    -0.016786264029052485,
                    -0.07597976092160419,
                    0.09619932873809843
                ],
                [
                    -0.03952004071200279,
                    0.08032556444708339,
                    0.013841481803394817,
                    0.10698743995776569,
                    -0.1463502264866415,
                    -0.11140218255830639,
                    0.0629191299417311,
                    -0.05340276285415838,
                    0.03908844122840312,
                    0.06211516450105211
                ],
                [
                    0.10274168106496732,
                    0.09800091865376036,
                    -0.025396305499071164,
                    -0.023069468971266962,
                    0.1371181554143705,
                    -0.020457876716945794,
                    0.07016288975599651,
                    -0.0002941998817856276,
                    0.07522573588507438,
                    -0.03863393010745026
                ],
                [
                    -0.02994369499666167,
                    -0.08954446985700458,
                    0.06901074481575796,
                    -0.026612390584187393,
                    0.021993989693853067,
                    -0.11062233878523015,
                    0.0798247906014508,
                    -0.10965547602031404,
                    0.0810290050697991,
                    -0.14560937967512572
                ],
                [
                    -0.1205908901162766,
                    -0.07353081645927781,
                    -0.13723674659353632,
                    -0.00537872424245037,
                    -0.05295495155572811,
                    0.1117321059360998,
                    0.05744122568838577,
                    0.055583822645554504,
                    -0.028473136245926345,
                    0.10977940677098111
                ],
                [
                    0.08045214626620599,
                    -0.16887689644808948,
                    0.15942586998937333,
                    0.039416841995498705,
                    -0.19067046176132732,
                    -0.006570592164460798,
                    0.014257494366635703,
                    0.12269625311130233,
                    0.09137465597326426,
                    0.020768781246733047
                ],
                [
                    -0.05214192965336334,
                    0.09059738662218524,
                    -0.13988693442544906,
                    -0.06850213817989112,
                    0.005066773270144081,
                    0.13037477327444774,
                    0.18515659009851546,
                    -0.10084348349571616,
                    0.11721009869988129,
                    0.0870933040198183
                ],
                [
                    -0.009332243578034069,
                    -0.031169853094295038,
                    0.05833387250836561,
                    -0.0394690754791181,
                    -0.12205120089213488,
                    0.0382852585437941,
                    -0.06299239114002982,
                    -0.007915496392034243,
                    -0.05187838061289189,
                    0.05380785820184309
                ],
                [
                    0.09619498354445302,
                    -0.015985405543049468,
                    -0.06756340900899646,
                    -0.13106018134398387,
                    -0.01406376103397489,
                    0.03408145879827101,
                    -0.22833046758389905,
                    -0.07270662704078762,
                    0.00393953085725546,
                    0.03881422877540535
                ],
                [
                    -0.12418198275597717,
                    -0.17455993856901555,
                    -0.07804641239680889,
                    -0.15612600102716828,
                    -0.0038503418425478897,
                    0.037860848268736265,
                    -0.09042373040520851,
                    0.038227500556353114,
                    0.017940333249025293,
                    0.26746256123229434
                ],
                [
                    -0.07393918338963107,
                    0.018747586767783576,
                    -0.04874140166303486,
                    0.06187235953654903,
                    0.04387669340714792,
                    -0.16108263154889388,
                    0.05055692530201959,
                    0.11044383331102418,
                    0.041222981076764025,
                    0.01845046105595263
                ],
                [
                    0.09300002602352371,
                    -0.16086211448125873,
                    0.06363153930735302,
                    -0.07502628137773473,
                    0.05021146816370047,
                    -0.1473242653906733,
                    -0.01527729699436551,
                    -0.0006491057873995509,
                    0.07693797984913597,
                    0.17261770983954983
                ],
                [
                    0.20048704037890136,
                    -0.14041675216632304,
                    0.17734465230093488,
                    -0.06130020097864317,
                    -0.22569050868166707,
                    -0.20453868112868426,
                    -0.14148335853488006,
                    -0.21315025915236838,
                    0.1415253980037903,
                    -0.024042173605829432
                ],
                [
                    0.040767769367417606,
                    0.08337535480312995,
                    0.043328770719989244,
                    -0.13102896800334124,
                    -0.20562343935334385,
                    -0.12721023830170974,
                    -0.1269165957949439,
                    0.024783591608451803,
                    -0.07700773618278267,
                    0.2538256011812851
                ],
                [
                    0.08172979731170033,
                    0.013245476218898615,
                    0.08186154573607562,
                    -0.10841893634654211,
                    -0.12506887941146003,
                    -0.014338482470352793,
                    -0.18885984428532696,
                    -0.014963370422358057,
                    -0.013884740894055206,
                    0.04864729716177257
                ],
                [
                    0.09213475176268465,
                    0.17752549096520764,
                    0.013239443087702106,
                    0.012428055710462751,
                    -0.13683906585865285,
                    -0.12904136952453876,
                    -0.14695077441523063,
                    -0.1446183919640481,
                    -0.06898010835865351,
                    0.22062870997156556
                ],
                [
                    0.05998600706625745,
                    -0.01586077911534399,
                    0.013207384660578936,
                    -0.04921354152655446,
                    0.010694593479076461,
                    -0.18393992506901857,
                    -0.12167142409359497,
                    0.004891193582496073,
                    -0.023397134975786257,
                    0.10957020518605251
                ],
                [
                    0.050155316714580914,
                    0.02913703690791772,
                    0.06131813352943028,
                    -0.12259124652163955,
                    0.03295428903374165,
                    -0.1470639902322258,
                    0.05420274198453682,
                    -0.17397321772107754,
                    0.02099777085285473,
                    0.11373417982471257
                ],
                [
                    0.016675957640986398,
                    0.21231676102146393,
                    0.009712026924385244,
                    -0.014242591404071164,
                    0.02385126921133078,
                    -0.2005233809643341,
                    -0.03473493749949817,
                    0.03337327722504423,
                    -0.024276349104561085,
                    -0.0062483232879775785
                ],
                [
                    -0.09727344736454042,
                    0.09054389460276795,
                    0.015280502555866245,
                    0.027532719977872308,
                    -0.09969651686122213,
                    -0.12168024357468364,
                    0.13982002467386556,
                    -0.23659181077778754,
                    -0.00463369222022714,
                    0.10748287075494412
                ],
                [
                    -0.05455455832652839,
                    0.1251266428996068,
                    -0.0219219263269031,
                    -0.14451637011616866,
                    -0.0955762688904656,
                    0.029852460005858405,
                    0.04473014740876897,
                    -0.1119223292392927,
                    -0.08967165319124339,
                    0.14428029545330037
                ],
                [
                    -0.09784381491878438,
                    0.1470532439440088,
                    -0.06916675446750492,
                    0.06039061710695749,
                    0.08305548886203123,
                    0.003406920385391547,
                    0.09926224234900499,
                    -0.13399491870117064,
                    0.1953461892857381,
                    -0.006151326904218769
                ],
                [
                    -0.024716290716835388,
                    0.04984230265041422,
                    -0.049059390215935146,
                    -0.07847503492811683,
                    0.032270813391418546,
                    0.06499266209407323,
                    0.08990269400653805,
                    -0.03627341318111601,
                    0.07135539243193671,
                    0.01216682490280655
                ],
                [
                    -0.003273188780280247,
                    -0.017981770255390044,
                    -0.06708117189555364,
                    0.11107547292325966,
                    -0.015474415553544826,
                    0.018054670910005084,
                    -0.0943240137103823,
                    -0.1303140466955295,
                    0.009565521669381728,
                    0.03057826676251761
                ],
                [
                    -0.17671864671972864,
                    0.06393432374143057,
                    -0.06885819006437235,
                    0.01802759056205031,
                    -0.0063576213711513925,
                    -0.17602593795564864,
                    -0.09898319943402624,
                    0.18056701419479987,
                    0.12008303844529773,
                    -0.10195529026314838
                ],
                [
                    -0.11226597556032533,
                    0.04979613688639677,
                    -0.041944288216041056,
                    0.03759110466124079,
                    -0.10780855948529192,
                    0.05740947131362565,
                    -0.13479104213851872,
                    0.03991223237838008,
                    -0.010383524348583313,
                    0.08398237792853644
                ],
                [
                    -0.08915870211985573,
                    -0.12506227032249415,
                    0.04596775608836454,
                    -0.030142287827905574,
                    0.07688187744226327,
                    -0.031781019580484134,
                    0.020364418667493955,
                    -0.22967468064432267,
                    -0.18645829656525456,
                    0.10898309510583734
                ],
                [
                    -0.1205279134864261,
                    -0.015139151373230604,
                    0.1630747298558077,
                    0.16294101196118332,
                    -0.055196991712084933,
                    0.07047497651714381,
                    -0.08767706535739254,
                    -0.016943548578724443,
                    -0.05890648185538877,
                    0.1065513048313142
                ],
                [
                    -0.08571241080654474,
                    -0.16128053675214682,
                    0.1870154561334549,
                    0.0021285663631574617,
                    -0.06044581171078063,
                    -0.06747725652397776,
                    0.041553980880441876,
                    0.11681032305570034,
                    0.051231501095925,
                    -0.022045515355783078
                ],
                [
                    -0.0978760497080981,
                    0.15105668852885656,
                    0.06137596273264075,
                    -0.03253940520677973,
                    0.015206737905299342,
                    0.048028698483132126,
                    -0.07602824566964957,
                    -0.0731318339820402,
                    0.028490494312904024,
                    -0.027760613544323257
                ],
                [
                    -0.09473748800825092,
                    -0.018732447186216708,
                    0.06419661059607369,
                    0.25837473362477087,
                    0.09288093912730992,
                    -0.013964902401300498,
                    0.07580820317808774,
                    0.04929926163265505,
                    0.0727155197802984,
                    -0.055631402739828195
                ],
                [
                    0.1569460796702019,
                    0.06072246865709689,
                    -0.1026851725347397,
                    0.25879185681782024,
                    -0.004591199806793678,
                    -0.15401374528167538,
                    -0.0974035038052822,
                    -0.04108953612697259,
                    -0.04892128496267838,
                    0.003617415659426511
                ],
                [
                    -0.03719900702167547,
                    -0.05538928692436206,
                    0.11786271443153087,
                    -0.18841963146290863,
                    -0.09882683738329251,
                    -0.08284228113648931,
                    -0.03269976722775866,
                    0.028599292527482,
                    0.11598113333456636,
                    0.07934172083764009
                ],
                [
                    -0.06296538276868861,
                    -0.023233400727186104,
                    -0.18692564604936723,
                    0.029152735828420574,
                    -0.005121420696528384,
                    -0.10815033253374075,
                    0.19604288504926182,
                    0.041482234002464535,
                    0.0626466177425251,
                    0.07800321638298377
                ],
                [
                    -0.20029191471635632,
                    0.04162301855573076,
                    0.07863987657336569,
                    0.06549758793509536,
                    -0.016072769795756354,
                    0.04749946287270283,
                    0.04374329968297265,
                    -0.06313353793270236,
                    -0.17456010625285484,
                    0.19414712234358023
                ],
                [
                    0.1192887173811543,
                    -0.01677299971293601,
                    0.1358460445808202,
                    0.05097221765285037,
                    0.10857536787165371,
                    -0.01654614393600179,
                    0.19561701146066593,
                    -0.14849656292377636,
                    -0.01305623000806793,
                    0.05074761186381968
                ],
                [
                    0.0467593456414154,
                    -0.013112499923773755,
                    0.18601533328805403,
                    0.01975454712584256,
                    0.1484901450787762,
                    -0.058787807448216614,
                    -0.015288866848162674,
                    0.02187783179498841,
                    -0.0495963650472326,
                    0.1407492044139233
                ],
                [
                    0.21367137162244615,
                    -0.06563740882669167,
                    0.21614440258305667,
                    -0.07117051288908176,
                    -0.006638550955582573,
                    -0.0806126628371655,
                    -0.08305160848977529,
                    -0.1076272427785241,
                    0.14376727257365335,
                    0.01846367126816389
                ],
                [
                    0.1550271511269223,
                    -0.19476054688320305,
                    0.10081849091919308,
                    -0.1174231574863022,
                    -0.07862874476177054,
                    -0.022419332417640467,
                    -0.19152236883462187,
                    -0.02315943567602971,
                    -0.1026638606107924,
                    0.08473760439714396
                ],
                [
                    -0.00371825844356948,
                    0.07584099200536144,
                    0.10432802052872613,
                    -0.1626917923087026,
                    0.12451852774025515,
                    -0.10904719282003013,
                    -0.09423916534489829,
                    -0.1538155574271684,
                    -0.049856510872051195,
                    0.11795172443236329
                ],
                [
                    0.2034391823465629,
                    0.0778929863847934,
                    0.13331749621266173,
                    -0.06813330006628171,
                    0.10871461589772256,
                    -0.1711149594797916,
                    -0.053791308279577864,
                    -0.12075948666868161,
                    -0.06348017547383238,
                    0.08990553476664447
                ],
                [
                    0.013977443339422045,
                    0.091475216662662,
                    0.23010483395241757,
                    -0.1339372963364058,
                    0.12651673071493783,
                    -0.04767013061754205,
                    -0.06739045930374904,
                    -0.28356668993053713,
                    0.045831284284440416,
                    0.07031428781739815
                ],
                [
                    0.09452288730462124,
                    -0.037085669734318524,
                    0.15912299104202915,
                    -0.14733690191998766,
                    0.025712686476259943,
                    -0.0759468024591158,
                    0.022041059377533076,
                    -0.2114907579786234,
                    -0.005890888614974468,
                    0.059238781707568994
                ],
                [
                    0.12558896663937974,
                    0.16377966619664058,
                    0.09672222017070194,
                    -0.18960852767172598,
                    -0.08058937634910027,
                    -0.13187301012216332,
                    0.03021727815450266,
                    -0.1069614395881928,
                    0.029300637780320805,
                    0.012010778437308611
                ],
                [
                    0.029034412372825693,
                    0.1529915928790401,
                    0.09209074729591489,
                    -0.010324245620240204,
                    -0.07376320608844,
                    0.0796922864208182,
                    -0.11888979147936081,
                    -0.15523824899435681,
                    -0.0029770719869633574,
                    -0.020533408391799172
                ],
                [
                    0.14846297865567532,
                    -0.08683206548672327,
                    0.06733915208593562,
                    -0.15058353730879603,
                    -0.02710708563153018,
                    -0.05681023365189762,
                    -0.09085630690776132,
                    -0.1539943068922381,
                    0.10737937263992893,
                    0.03456127293431493
                ],
                [
                    0.09984975857796528,
                    0.197988868167968,
                    0.006714579823594016,
                    0.07534128330990593,
                    -0.03748719500637351,
                    0.027158315873435937,
                    -0.04216105246017748,
                    -0.13180350126026227,
                    -0.055429363210975885,
                    0.04307434685527368
                ],
                [
                    -0.04698934573284913,
                    -0.062343186889666204,
                    -0.04354738921748551,
                    -0.19354566862824726,
                    -0.04358546949176751,
                    -0.04337518282447563,
                    0.011427954265102019,
                    -0.14215741303589563,
                    -0.09024074361772394,
                    -0.04093315744466509
                ],
                [
                    -0.1468699274359201,
                    0.05015628752439821,
                    -0.06100344267677274,
                    0.03663315962364412,
                    0.09568020662617664,
                    -0.13404465517104353,
                    0.14622418743529203,
                    0.015497824503396566,
                    -0.01591763617663927,
                    -0.033023032093798775
                ],
                [
                    -0.1167321016449477,
                    0.14810449880127757,
                    -0.1733613246529691,
                    0.02590531608808063,
                    -0.20665430431610324,
                    -0.10489096423875346,
                    0.06497423171767454,
                    -0.06943557418684873,
                    -0.026368865707607443,
                    -0.11524200356657259
                ],
                [
                    -0.046687653370341524,
                    0.11545308936738996,
                    -0.10340250621979863,
                    -0.03723407144861165,
                    -0.009531993823514889,
                    0.05976193635795001,
                    -0.09647348396638297,
                    -0.034384985860027244,
                    -0.00572996655757881,
                    0.019064704156235436
                ],
                [
                    -0.11637370443732645,
                    0.10653275728433567,
                    0.0031794514405669564,
                    -0.10565794899113355,
                    0.039581989183859446,
                    0.08853116062350183,
                    0.09539526262141419,
                    -0.05278812105598135,
                    0.03121367122944986,
                    -0.10674542350249032
                ],
                [
                    -0.09896395920284907,
                    0.10770858399944705,
                    -0.0036305252225309784,
                    -0.128982596686042,
                    -0.06498855517270127,
                    -0.19217593985437742,
                    0.06349409437193569,
                    0.016588736791109726,
                    -0.07850471438729388,
                    -0.25377503486429953
                ],
                [
                    0.05540770184919916,
                    0.12824974755337984,
                    0.042875442766267806,
                    0.017862967007432312,
                    0.07565120160573613,
                    0.06316003966265334,
                    0.013739714489136128,
                    0.06960319679385617,
                    -0.005657142842910951,
                    0.029487051306971362
                ],
                [
                    0.06340321843566961,
                    0.058403597917928304,
                    0.006305611872909185,
                    -0.03943864285618201,
                    -0.04400130575845944,
                    -0.11293409016492166,
                    -0.14175332604762306,
                    0.06352076975247402,
                    -0.03260107203685488,
                    -0.05790128066138768
                ],
                [
                    0.013937167997818868,
                    0.06289695349873405,
                    0.031540758458068016,
                    0.07004353692117622,
                    0.048724035775960954,
                    -0.13455427231789258,
                    0.12613479933744104,
                    0.07929850914693523,
                    -0.09936115124674465,
                    -0.06527634224994146
                ],
                [
                    0.0075816860131154365,
                    0.20523140710961701,
                    0.0011549715974352168,
                    -0.04115003575672933,
                    0.13388497537137795,
                    0.11418471845294303,
                    0.02818127366625081,
                    0.08083197826068528,
                    -0.01793229359971731,
                    0.021188296803087262
                ],
                [
                    0.10114051709491229,
                    0.026657694095961772,
                    0.07887817300415367,
                    0.06650236844594787,
                    0.00769391741465346,
                    0.03506631523178596,
                    -0.0522562931324974,
                    -0.0583678545085283,
                    0.03696426654430808,
                    0.09698348337710763
                ],
                [
                    0.19517448732378798,
                    0.00956193522886724,
                    -0.08703934480894703,
                    0.056331288336403905,
                    0.015384030715505717,
                    0.09410893665625111,
                    -0.08545187197455018,
                    -0.13348825503052744,
                    -0.10284943326788891,
                    0.004629554406026634
                ],
                [
                    0.1141389566976713,
                    -0.049050629148244665,
                    -0.0183660395437425,
                    -0.10927464087407122,
                    0.08999948496025577,
                    -0.05835505205751,
                    -0.004096865594434097,
                    0.10635332602388671,
                    0.1900076163115026,
                    0.014447398843478518
                ],
                [
                    0.08066100182691002,
                    0.0014072998801163748,
                    0.06024685549812169,
                    -0.0012818027349682116,
                    0.12414939194991323,
                    0.02391504221789718,
                    0.12646535874344114,
                    -0.007486436384225679,
                    -0.02871539572082661,
                    -0.1168040194902471
                ],
                [
                    0.08954677303420307,
                    -0.028432984474013837,
                    0.1268915479849425,
                    -0.016944524638810368,
                    0.07077994219788937,
                    0.04451730707578875,
                    -0.07023179077837458,
                    -0.06588904396304611,
                    -0.2289382959677341,
                    0.14696725090819238
                ],
                [
                    0.02569418435616247,
                    -0.09625545791785085,
                    -0.0017752499437181275,
                    0.08734551596510118,
                    -0.07930495079397684,
                    0.001814109148006046,
                    -0.08640892914684092,
                    -0.07741993787327374,
                    -0.05940150805824771,
                    0.05222060960725774
                ],
                [
                    0.16526254794717266,
                    -0.020096473960542188,
                    0.1437995917012031,
                    -0.12072973944237783,
                    -0.0739367695850548,
                    0.11265173189455906,
                    -0.13635666300376045,
                    -0.10893144037057577,
                    -0.04178733490318459,
                    -0.114868500317814
                ],
                [
                    0.12184020631657133,
                    -0.044035574520501816,
                    0.04943905480474512,
                    0.25992337243007746,
                    -0.1093477736518563,
                    0.014491986198012043,
                    -0.03806235667286928,
                    -0.14365922755506566,
                    0.02783750226280354,
                    0.08355661602607546
                ],
                [
                    0.05777024611784456,
                    0.10233881419086976,
                    -0.010210414842700062,
                    -0.07867658600146447,
                    0.11729213301940604,
                    0.0852297511863656,
                    0.03147616154893077,
                    -0.09675407792760661,
                    -0.041602920503895774,
                    -0.014809791497673995
                ],
                [
                    0.2315530195960886,
                    0.002607137120741927,
                    0.10438049803491434,
                    -0.093631941172931,
                    -0.13347524605992608,
                    -0.3391197299562351,
                    0.09355237530921218,
                    -0.2676189560676456,
                    0.10913900863208167,
                    0.015039901533063574
                ],
                [
                    0.2818126278680018,
                    0.09215791934508777,
                    0.11937150717186874,
                    0.12934496205943924,
                    -0.013012294172259837,
                    -0.18168721455551107,
                    0.08549577578778625,
                    -0.1852292276596183,
                    0.11119739141359497,
                    -0.07513968388998674
                ],
                [
                    0.18039723364452329,
                    0.047902396501955775,
                    0.1681688814611171,
                    0.07097364985310513,
                    -0.10240202436668701,
                    -0.11609514390413082,
                    0.11405284399800708,
                    -0.055908655269531,
                    0.008296484103091742,
                    0.020228160846820498
                ],
                [
                    0.28221969537217884,
                    0.023550959641172188,
                    0.12595303124898835,
                    0.15424776455086636,
                    0.0018274776721929546,
                    0.026372855048084315,
                    0.08122237384554422,
                    -0.15169127100706534,
                    0.017794732531793825,
                    -0.058112687298340675
                ],
                [
                    0.09704930850457945,
                    0.06254599106664323,
                    0.06723140837761997,
                    0.056061048015555726,
                    0.011747433037572226,
                    0.05160300598066043,
                    0.050181660223413034,
                    -0.33969368026941255,
                    0.04792119653881531,
                    0.023531054332819122
                ],
                [
                    0.1625265403234921,
                    -0.0020615777989506402,
                    0.1912601324387227,
                    -0.04053762381033233,
                    -0.03174771321804762,
                    -0.060871684724078966,
                    0.04142100285391267,
                    -0.14070134535539205,
                    0.048746097614653344,
                    0.07029742375512156
                ],
                [
                    0.023910351270957052,
                    -0.0065354170752214965,
                    0.035108771440065425,
                    -0.11297409647073754,
                    0.026520998485662098,
                    -0.024655117905211632,
                    -0.002815484560448162,
                    0.13148053094654139,
                    -0.07040972950025413,
                    -0.06297176198268861
                ],
                [
                    0.022799665602422314,
                    0.011451893604380346,
                    -0.014793953677634903,
                    -0.14394502655333716,
                    -0.008294536838824107,
                    -0.04312191390450499,
                    -0.03064853341051385,
                    -0.016246500908166973,
                    0.08763614714622786,
                    -0.09856571135496991
                ],
                [
                    -0.05140306691815681,
                    0.07614621320563078,
                    -0.017718646098960004,
                    -0.07475936695579469,
                    0.07942342893422548,
                    -0.10216558707217269,
                    -0.0198546161398686,
                    0.04267075510688795,
                    -0.05274748305007157,
                    -0.028541085364348406
                ],
                [
                    -0.02002057578075879,
                    -0.055863604878850635,
                    0.05515250411001972,
                    -0.11715655352354433,
                    -0.0623271458052674,
                    0.005903248887063082,
                    -0.003357128631945291,
                    0.08254136117257155,
                    0.019303969604259716,
                    -0.03174048795787674
                ],
                [
                    -0.021647257365988905,
                    -0.028185717072905753,
                    0.12024430608171138,
                    -0.13070181969091896,
                    0.008681682701499006,
                    -0.007975667258487452,
                    -0.07764363937886998,
                    -0.0068414784405550905,
                    0.09393882732908142,
                    0.05474310319107893
                ],
                [
                    -0.0027037875850597936,
                    0.11879168682336409,
                    0.032571040450028614,
                    -0.03331001226605727,
                    0.045502475948708335,
                    0.050316162673279055,
                    0.040686281430650555,
                    0.15239943990538166,
                    -0.051816356390535834,
                    0.018731756172388318
                ],
                [
                    -0.0785717797529273,
                    -0.003690989184970004,
                    -0.10952664105204048,
                    -0.1372678277599157,
                    0.009971541239839354,
                    0.01669342208721876,
                    0.08156088070719753,
                    0.03971281013841178,
                    -0.06304460527561373,
                    -0.111327192402356
                ],
                [
                    -0.26392398801277855,
                    0.06594612819631859,
                    -0.03188596796795193,
                    0.03161523854232427,
                    0.039060618415178494,
                    -0.09374577640551043,
                    0.03751148953828427,
                    0.004779844945192551,
                    0.0060714320920977885,
                    -0.16013888089953837
                ],
                [
                    0.0618009348056676,
                    0.08965583499496434,
                    -0.0765827897906725,
                    0.04124050823747773,
                    0.12053144184750485,
                    -0.05829342801566636,
                    0.1854811374558621,
                    -0.053115886284509466,
                    0.10629860064749236,
                    0.09579773402849405
                ],
                [
                    -0.09734410099385657,
                    -0.034624152191231564,
                    0.05730271335646504,
                    -0.04767620642418298,
                    -0.029410422650114985,
                    -0.04452778399255266,
                    -0.05837420196915712,
                    -0.01315286437403549,
                    -0.02514424528172505,
                    0.005176407396907188
                ],
                [
                    -0.07664360601945645,
                    -0.018507852390187922,
                    0.1449647103610025,
                    0.10866017476848655,
                    0.16468217985077135,
                    0.13995894819449253,
                    -0.11929512635564318,
                    0.051937929332831256,
                    -0.07393146448726585,
                    0.090007364794661
                ],
                [
                    -0.12193909266580008,
                    -0.02482691139088285,
                    0.034954107791912416,
                    0.027469873887504097,
                    -0.06862712428414335,
                    -0.09458677864944175,
                    0.07236316355232957,
                    0.013796386500006794,
                    -0.1625451552155638,
                    -0.1469076968825307
                ],
                [
                    -0.017585315415456167,
                    -0.10032187783463349,
                    -0.049038026086285776,
                    -0.12856424187439797,
                    0.09072119127699517,
                    -0.0613766681561041,
                    0.07174495895489279,
                    -0.04931046698955541,
                    0.07258425038753023,
                    0.13582690327936417
                ],
                [
                    0.07734700567346284,
                    -0.15501392287107998,
                    0.054609559617150916,
                    0.19524095708922617,
                    -0.02120875798553293,
                    0.09481205445778981,
                    -0.017948742709232832,
                    -0.1591189157471156,
                    0.13182674768977165,
                    -0.2228629516355955
                ],
                [
                    -0.17740694424545203,
                    0.09543414454615634,
                    -0.09337007918595006,
                    0.05078711228628051,
                    -0.10576913560240618,
                    0.0788641534917817,
                    -0.05275455027690475,
                    0.05521352698014906,
                    0.07595560868816072,
                    -0.035112220195612234
                ],
                [
                    0.1358475619299615,
                    -0.08986628489645364,
                    0.18151498520571765,
                    0.010061349697505733,
                    -0.09874036896899548,
                    0.15004882035187608,
                    0.1153602808007216,
                    0.014486800703020457,
                    -0.06759485796998795,
                    0.0444087141959681
                ],
                [
                    0.060720675911492716,
                    -0.023774755801884054,
                    -0.020754822270944537,
                    0.11394892706048818,
                    0.009387149936458982,
                    -0.03584252554636494,
                    -0.01738889227719926,
                    0.056611380171919155,
                    -0.05901465215787208,
                    -0.05507549694371468
                ],
                [
                    -0.10464022920935473,
                    0.04854009906364644,
                    0.11530370677503635,
                    0.0970845113997748,
                    0.17615376832202553,
                    0.02328749576869777,
                    -0.0378007068309501,
                    -0.06778116460850724,
                    -0.12138556981183676,
                    0.025551632318215542
                ],
                [
                    0.12293985560922702,
                    -0.05505275706599302,
                    0.0648296534542109,
                    0.03309291721958163,
                    0.09243809751380477,
                    -0.1956194221328466,
                    0.16071104071578413,
                    -0.08510354291832946,
                    -0.07432297866028874,
                    0.039648950864376066
                ],
                [
                    -0.013775884949976223,
                    -0.10558274679657229,
                    -0.07999221007999714,
                    0.011725328682981907,
                    -0.10956031827663443,
                    0.10239956726215606,
                    -0.04342258438211367,
                    -0.055685367607051874,
                    -0.060654474191646886,
                    0.10939440309171726
                ],
                [
                    0.0888993450509153,
                    -0.12109518589232399,
                    0.02064454507331912,
                    -0.014659844747495834,
                    0.05810230106053062,
                    -0.19851189941206213,
                    0.08401034495203268,
                    -0.01699540901424336,
                    -0.029842469018457538,
                    -0.03685974036191869
                ],
                [
                    -0.03372352062569631,
                    -0.05316315325672644,
                    0.04353187782630095,
                    0.015662316477764584,
                    0.08875152045257301,
                    -0.12464570089681623,
                    -0.07738968332173567,
                    0.09253200485362295,
                    -0.1063848907183202,
                    -0.030440965803512073
                ],
                [
                    0.09334470250246318,
                    -0.002319875623474348,
                    0.018726444301015638,
                    0.04630543799271231,
                    0.010826798117348702,
                    -0.21714569556673993,
                    0.007115451618493054,
                    0.09483449875536404,
                    -0.1276005798700023,
                    0.026225036824347958
                ],
                [
                    0.05742586072497146,
                    0.09597718003333926,
                    0.13591065159978374,
                    0.13803883395225242,
                    -0.053568559594253606,
                    -0.0956122412635394,
                    0.042861557793098505,
                    -0.04886996999767165,
                    -0.022130481464426137,
                    0.04928749994032138
                ],
                [
                    0.015757248224300694,
                    0.035912682314373764,
                    0.004780919144254743,
                    0.11276273540292377,
                    -0.07302576314043512,
                    -0.1566872161626078,
                    0.10411115645625416,
                    0.06436497394728016,
                    0.14547013693990674,
                    0.03514496008090957
                ],
                [
                    0.16265526436095876,
                    0.08709876348508298,
                    0.124072720195887,
                    0.04320356972395188,
                    0.038416116156147144,
                    -0.05388337611353562,
                    -0.014761067562435311,
                    0.006676206239123828,
                    -0.07652502783629148,
                    -0.08097395545561033
                ],
                [
                    0.0840716316028369,
                    0.019414324831943698,
                    0.009540499278371344,
                    0.04719727394423514,
                    -0.12078937696173171,
                    -0.017101067432476268,
                    -0.013307046949728897,
                    0.17856823670747451,
                    0.012969723519447442,
                    -0.029995275081399507
                ],
                [
                    0.11954376901488581,
                    0.06670805917751073,
                    0.03277649201893531,
                    0.054687087934173526,
                    -0.0583292780072669,
                    -0.01990021970349633,
                    -0.08281065393610205,
                    0.1574469965273778,
                    0.034743471447853835,
                    -0.017615918328624795
                ],
                [
                    0.1356346440765222,
                    0.0252482868175415,
                    0.0984428633615815,
                    0.1343316693993292,
                    -0.14636717443304711,
                    -0.08046993749449252,
                    -0.05119248242424569,
                    -0.09524796648694511,
                    0.007986907969467038,
                    0.06285222733377296
                ],
                [
                    0.07112442763679766,
                    -0.09245678439099751,
                    -0.007543902074537265,
                    0.029675208522881955,
                    -0.03701667612916212,
                    -0.02610122415355086,
                    -0.03539126810841944,
                    0.13478019705059477,
                    -0.009541021009003774,
                    -0.07377165432984428
                ],
                [
                    0.1422889137968973,
                    0.056333064112280416,
                    0.0121795279359702,
                    0.0007235405456155697,
                    -0.037934245359758006,
                    -0.013135838093858553,
                    -0.0750838360555602,
                    0.14967413297510102,
                    -0.0745744889412547,
                    -0.12536023214381892
                ],
                [
                    -0.004145982705397802,
                    0.05787738102665475,
                    -0.022140376678505037,
                    -0.012218914139283403,
                    -0.07305782557008395,
                    -0.11466764149430168,
                    0.05547657524121601,
                    0.10931996349863426,
                    0.02768882002746536,
                    -0.02722432714101219
                ],
                [
                    0.011427500187479723,
                    0.055248163963799335,
                    0.024864482612452655,
                    0.05270226906366029,
                    0.042562871656193456,
                    0.006579850764593237,
                    -0.0056265647562243,
                    -0.10795899778698062,
                    0.006178158516279929,
                    -0.09413881981818621
                ],
                [
                    0.1120690420310491,
                    -0.038069508450788374,
                    -0.019991994013186864,
                    -0.048237000805951634,
                    -0.05312985557296771,
                    -0.09069773435400877,
                    0.006802624857615493,
                    0.058476376280855585,
                    0.03884308596750487,
                    -0.05010682678634668
                ],
                [
                    -0.019822577404608598,
                    0.05460194256524995,
                    -0.07157364816615205,
                    -0.05259538972970013,
                    0.11679631786310664,
                    -0.05276005996603425,
                    0.07394801646523484,
                    0.011017047433876602,
                    -0.02592391485344564,
                    -0.02609161646755546
                ],
                [
                    -0.10265132625011347,
                    0.23161510393315532,
                    0.1577528498385475,
                    -0.02933767831038904,
                    -0.014467340750968475,
                    0.2847161181970042,
                    0.21565533193991449,
                    -0.12542818666428993,
                    0.14474869781718866,
                    -0.12508025304238446
                ],
                [
                    0.05207022591512869,
                    0.11476930646306184,
                    -0.10407032410987531,
                    0.010664844593234926,
                    -0.008985896846571926,
                    -0.0555258577538648,
                    -0.04782324525745346,
                    0.02679200455430532,
                    0.07488051765815705,
                    -0.15666117897256565
                ],
                [
                    -0.0564870857276568,
                    0.2732487910962162,
                    0.010671048861404726,
                    -0.09044860181225584,
                    -0.03636740972086606,
                    -0.0070303775149142414,
                    0.08705028467154848,
                    -0.038507258879587024,
                    -0.06167539065053968,
                    -0.14913489921420595
                ],
                [
                    0.005010291065001392,
                    -0.07743786423582372,
                    -0.036016022126204104,
                    0.07369837082486097,
                    0.18373338425337907,
                    -0.028030620774034034,
                    0.032236139612689035,
                    0.06834635981954734,
                    0.031856197393405894,
                    0.029821989940124374
                ],
                [
                    0.021111282326780657,
                    0.039819462130460524,
                    -0.005048066284601843,
                    0.013162123060502521,
                    0.013109519426197622,
                    0.16109965070671217,
                    0.025122061076729513,
                    0.015366682852571843,
                    -0.03431888041740569,
                    0.0592147293972047
                ],
                [
                    -0.11554936433736668,
                    0.1540751102860245,
                    -0.11529228004915851,
                    -0.02732731817669826,
                    0.06661317718690522,
                    0.11883809033870593,
                    -0.0752650012588174,
                    0.034746399880804996,
                    -0.028388423969371537,
                    0.11211732752649528
                ],
                [
                    0.1693032892449291,
                    -0.027677524515814764,
                    0.05606529347810458,
                    0.007342933523853086,
                    0.043085526937046204,
                    -0.07188938566847003,
                    -0.001788184939254034,
                    0.11613970547125498,
                    0.05066686803881809,
                    0.08327121013731727
                ],
                [
                    -0.05738406318257986,
                    0.010031091272286113,
                    -0.031258897706927476,
                    0.04933103990610603,
                    0.18714778568403562,
                    -0.03458819192055163,
                    -0.014268949280962272,
                    0.0020315856359819583,
                    0.09246038588968679,
                    0.004563825430647377
                ],
                [
                    -0.04311788444607949,
                    -0.08913923898698715,
                    -0.0663388092360641,
                    0.19115171973898612,
                    0.08850462863403546,
                    0.05930878946559466,
                    -0.08609724171535046,
                    0.05107371973196912,
                    -0.02125469315103124,
                    0.006736810722185336
                ],
                [
                    0.1046792129925223,
                    -0.05992960613538897,
                    0.05721324947836178,
                    -0.049746653298815544,
                    -0.03010156457074573,
                    0.06163095822212807,
                    -0.032277783006228064,
                    0.026214108195631525,
                    -0.20245809599174178,
                    -0.08669168804457945
                ],
                [
                    -0.019946141355957233,
                    -0.09519748754223192,
                    0.11303657472952897,
                    -0.17440770330788632,
                    0.024916647067302202,
                    -0.01221289616413519,
                    0.12087311880541496,
                    -0.13467051092421395,
                    -0.15445436480781957,
                    0.04810809686313992
                ],
                [
                    -0.05198320644350229,
                    -0.008955247354634717,
                    -0.006050704593569055,
                    0.07031706691324754,
                    0.07607260033127543,
                    -0.10846484464797256,
                    -0.14062482779928384,
                    -0.1387244194607309,
                    -0.06232538384578237,
                    0.06510293884163339
                ],
                [
                    0.008013092740675137,
                    0.019228762101869672,
                    -0.06799109465568459,
                    -0.06757393931847648,
                    -0.03874770374835082,
                    -0.021009791564346156,
                    0.02138071366189141,
                    -0.039315061200975755,
                    -0.09987408933665128,
                    0.0033315366814592622
                ],
                [
                    0.06691575009928835,
                    -0.04945689924364113,
                    0.03234886225521932,
                    -0.06637583251244511,
                    -0.05106605190311278,
                    -0.08578918506393444,
                    0.0031107298514248135,
                    -0.1131262501863489,
                    0.046895196810606526,
                    -0.03635318185425798
                ],
                [
                    0.041325153000924306,
                    0.03145347100968778,
                    -0.014635677027258117,
                    -0.03170211971255519,
                    -0.02983604910616888,
                    -0.1851870129457291,
                    0.03825742905515792,
                    0.03266446043881438,
                    -0.025067785065858363,
                    0.0011648134988821949
                ],
                [
                    -0.03844855467717705,
                    0.012863513623619295,
                    -0.08106592753796,
                    0.08294233694511804,
                    0.02385684574509301,
                    -0.13799788627816126,
                    0.07262985750435375,
                    -0.0009670095816985564,
                    0.0051528207255994015,
                    -0.0687592867906291
                ],
                [
                    0.028691215119776032,
                    -0.03776884303834914,
                    -0.08633858375967851,
                    -0.05908309384554805,
                    -0.015950005889283376,
                    -0.12711907566023153,
                    0.037723201483401775,
                    0.09876119518578859,
                    -0.1151237185778464,
                    0.001028868490583487
                ],
                [
                    0.09873213964525726,
                    0.10073706783902232,
                    0.09303661835591161,
                    0.0840404485996736,
                    -0.0659060078794889,
                    0.19529826231625383,
                    -0.040539614461361166,
                    0.030392556730512225,
                    -0.05238223336892188,
                    -0.024595020183505227
                ],
                [
                    0.0828841458972807,
                    -0.06430849132502407,
                    0.018672714838354924,
                    0.042091889151550786,
                    -0.14263717469427856,
                    0.031221052221942224,
                    -0.016363793173792923,
                    0.20859847002934487,
                    0.004624420024465059,
                    0.037076051827662486
                ],
                [
                    0.17084108375599752,
                    0.19977142403543877,
                    0.09887100180440005,
                    0.13493852482909421,
                    -0.010885784903167172,
                    0.14861431782682383,
                    -0.08798777248607931,
                    0.009139978158391206,
                    -0.013772064827150815,
                    0.0941665000176668
                ],
                [
                    0.09701518746825254,
                    0.05174582976348811,
                    0.08324208810370684,
                    0.11623856014279103,
                    -0.06443793025424253,
                    -0.09753582000362454,
                    -0.10292446268707041,
                    0.11628771167746264,
                    0.12867336042526378,
                    -0.006210143124971022
                ],
                [
                    0.09759133090097183,
                    0.1046076097465275,
                    0.0646909459280725,
                    0.08541138718521929,
                    -0.13225320766091986,
                    0.04245027737063011,
                    0.010135209498220102,
                    0.05416731565413229,
                    -0.0012009073112076187,
                    -0.01013995093878841
                ],
                [
                    0.01959101403361306,
                    0.07047040359929746,
                    -0.04955856453200044,
                    0.06386188429588434,
                    -0.10376839252894868,
                    0.01801126713172238,
                    -0.05224924773232718,
                    -0.05692181685638771,
                    -0.039281179705214976,
                    -0.05522605517685603
                ],
                [
                    0.17220590689843618,
                    0.12005709366225417,
                    0.08775116068299925,
                    0.056085596347268896,
                    0.01326918099973932,
                    -0.02334698652996756,
                    0.0489287070979217,
                    -0.1785129122593784,
                    0.07337047287430239,
                    0.04856281823377416
                ],
                [
                    0.0488619872790095,
                    -0.010365003862044558,
                    0.06538082013156572,
                    0.01728456089508541,
                    -0.028556155178267654,
                    0.005564939892382908,
                    0.039066177326600754,
                    -0.0721532328826464,
                    -0.028169469669382573,
                    -0.11735040096399911
                ],
                [
                    0.019614580092251446,
                    0.030066962698127163,
                    -0.04936815332328765,
                    0.052743131557272935,
                    0.030172837766450935,
                    -0.03274103056506224,
                    -0.013367366482289783,
                    -0.057758200870776266,
                    -0.05150776195314109,
                    -0.07087329750419791
                ],
                [
                    0.032820880734203146,
                    0.15271608555031,
                    0.12078757591721166,
                    0.043113468140247496,
                    0.0833230264801269,
                    -0.010696277261244157,
                    0.09841668141985559,
                    -0.10448838611177208,
                    -0.038311317921302046,
                    -0.0686207468623282
                ],
                [
                    0.0952045099997344,
                    -0.006585056197827087,
                    -0.09429455791128963,
                    0.0637588248559068,
                    0.0530761871973462,
                    -0.06365380876146377,
                    0.04906480948046111,
                    -0.13049429531770468,
                    -0.028968422518599317,
                    -0.06466579176725237
                ],
                [
                    -0.013252141484548206,
                    0.0870713651595992,
                    0.2271713819276508,
                    -0.036185673007095145,
                    0.12805739523735385,
                    0.03163958752482326,
                    0.10116441303812866,
                    0.11221356514509201,
                    0.0694659998252471,
                    -0.15797094646019808
                ],
                [
                    0.03350577156575079,
                    0.18124809373032308,
                    -0.030539239862980554,
                    -0.07769450448384052,
                    0.06703593344114234,
                    0.029393671857870982,
                    0.18592905389188696,
