{
    "network": {
        "LayerDense-0": {
            "weights": [
                [
                    0.17443113739536997,
                    -0.16378012032298603,
                    -0.05217079841675143,
                    -0.05223216555180996,
                    0.021434306868905073,
                    -0.014001612528210318,
                    -0.010015357724655899,
                    0.2055309616579752,
                    0.04887197752420831,
                    0.07261484183917077
                ],
                [
                    -0.08199015604667964,
                    -0.08216861237619293,
                    -0.20681174166730112,
                    0.11484467413313068,
                    -0.033042910555719306,
                    -0.03154985083828097,
                    0.0233082173515376,
                    0.09129247408866396,
                    0.10406575702778458,
                    -0.024723965197945907
                ],
                [
                    -0.007854782591548487,
                    0.053732531966930216,
                    -0.06881995047427387,
                    -0.011986537042243478,
                    -0.07949977601084397,
                    -0.000523432512745292,
                    -0.22690327488824175,
                    0.058498604699168635,
                    -0.1765721250381631,
                    -0.026396800654495813
                ],
                [
                    -0.028652344048337913,
                    -0.1484118079038858,
                    0.1113293553788745,
                    -0.21877032319249617,
                    -0.015902175558978816,
                    0.004611067596833326,
                    -0.055840811918998465,
                    -0.07246049030918834,
                    0.013843167809016012,
                    0.019539963538294076
                ],
                [
                    -0.04573250667213265,
                    0.03683619874936242,
                    -0.03142545042060831,
                    0.21212924645660067,
                    0.1621298119227984,
                    0.06761754105684006,
                    -0.04054064734662809,
                    0.07697686428218652,
                    0.030136187485841223,
                    0.09852116922360935
                ],
                [
                    0.01005586252442949,
                    -0.007982421974847642,
                    0.06980174031254102,
                    -0.07009495026419708,
                    -0.05398339342436992,
                    -0.06955208954270554,
                    0.1285301113488411,
                    -0.019197389812254998,
                    -0.00069961655855602,
                    0.035368653420266905
                ],
                [
                    -0.18224656394897593,
                    0.013980471155839407,
                    -0.05397023151419012,
                    -0.02739343010251744,
                    -0.012349466757860295,
                    0.06152997224245279,
                    -0.02442406516622045,
                    0.005086847524316074,
                    0.030512577699656613,
                    -0.0268661984877262
                ],
                [
                    0.26495827509555464,
                    0.06911741545458541,
                    0.0856066817081699,
                    0.07296466377264922,
                    0.11019067086752359,
                    -0.06614195290770744,
                    -0.021156793773351477,
                    0.0741130654933601,
                    0.08725698630978652,
                    -0.0004485206057120349
                ],
                [
                    0.10548686484021609,
                    -0.009688296183258721,
                    -0.0051675054852371154,
                    0.025853948948620368,
                    -0.03823311647425086,
                    -0.003267606321733037,
                    0.042763395372563615,
                    -0.06646889106325737,
                    0.10108286942757547,
                    -0.04560960425918368
                ],
                [
                    0.14742139845671903,
                    0.03739657000658366,
                    -0.09624758834358657,
                    0.011214134893898338,
                    -0.034580999131318846,
                    0.039552703730663594,
                    0.040693529822953586,
                    0.017845256632918374,
                    0.07172449093170695,
                    0.0278498810857871
                ],
                [
                    -0.05454750590141105,
                    -0.07360711045870025,
                    -0.08121073567924726,
                    -0.07763304305215456,
                    0.09297919110271378,
                    -0.0635231056003197,
                    -0.02153262270515133,
                    0.0581237415084994,
                    -0.015199508238014655,
                    -0.044111372379548236
                ],
                [
                    -0.047311208535970914,
                    0.002176307814727552,
                    -0.019044118178489788,
                    0.12351167087401678,
                    0.1406633890375616,
                    0.03123709314898298,
                    -0.06444159505648624,
                    0.04538097995671406,
                    0.04115110897043995,
                    0.01858236964917753
                ],
                [
                    -0.009834812172319424,
                    0.009792664337080105,
                    -0.038757125070916616,
                    0.10294906211663171,
                    0.04037631385918003,
                    0.05806190447596297,
                    0.04266325063650762,
                    -0.03378839705898013,
                    0.008578651090255317,
                    -0.02960740623793383
                ],
                [
                    -0.1172738876667353,
                    0.026978376870629074,
                    -0.0740300888381756,
                    0.024764796067469758,
                    -0.14324768959108264,
                    -0.1361285367772674,
                    0.025327014294822828,
                    0.06889440880634727,
                    -0.05682631156187769,
                    0.06983613090693584
                ],
                [
                    -0.17261683721337862,
                    0.103919749300191,
                    0.08210719356213053,
                    0.10298767474179822,
                    0.003438746893736684,
                    0.05827529917972037,
                    -0.15576174573438664,
                    -0.05911132000637501,
                    0.08557041287039688,
                    0.01634276787651929
                ],
                [
                    -0.07689494673434015,
                    -0.08950696132830169,
                    -0.09725681967796812,
                    0.05378968937741232,
                    0.05970321847942377,
                    0.08578525513277069,
                    -0.0679060405793905,
                    -0.031793649447058,
                    0.05519258572130591,
                    -0.012628648964109772
                ],
                [
                    -0.0010458351559082776,
                    0.013170546317436523,
                    0.1778370825216216,
                    0.0637927507869718,
                    -0.12229309273683472,
                    -0.005747058640970649,
                    -0.08471192314816556,
                    -0.11864202973214855,
                    0.09849608998852118,
                    -0.07102046684294287
                ],
                [
                    -0.0288257984691364,
                    -0.04692475064542906,
                    0.05067973780367369,
                    0.012394843664096829,
                    0.11957540498716442,
                    -0.23979800123928896,
                    -0.10280268920755492,
                    0.04480852975679217,
                    0.040270222381497495,
                    -0.029352604549625416
                ],
                [
                    0.10765225857716924,
                    -0.09360729179411094,
                    -0.1771350767629473,
                    -0.06374999435793308,
                    0.06865181879499502,
                    0.077935198297001,
                    -0.04013410594849957,
                    0.08152559539435571,
                    -0.05455474824500724,
                    -0.03954610890360455
                ],
                [
                    0.18251414363182394,
                    0.0666770446527089,
                    -0.016451830118214075,
                    0.11952910352009734,
                    -0.06161147124932568,
                    -0.10815423757652222,
                    -0.144363562431006,
                    0.11189344435296102,
                    0.04597517980603178,
                    0.044122694991014504
                ],
                [
                    -0.03621203567591198,
                    0.03210812435900929,
                    0.03793429386015681,
                    -0.09290906261050888,
                    0.0812236360595244,
                    -0.12953262810212174,
                    0.09104891143520842,
                    -0.026204731247573554,
                    0.10128271330234745,
                    0.054980244145543096
                ],
                [
                    0.04975647432912951,
                    -0.1475252678919006,
                    -0.05576469983993185,
                    -0.03329152631894474,
                    0.017114964407363917,
                    0.010248152191550362,
                    -0.0848921006695365,
                    -0.07292672847833383,
                    0.032183321440709,
                    0.0115294537966631
                ],
                [
                    0.07752524049620603,
                    -0.07214832774399545,
                    0.08290327834057198,
                    -0.08163720843147926,
                    0.007977768231280952,
                    -0.04992898910988452,
                    0.08410996419622942,
                    0.0991994976677952,
                    -0.0721047484405602,
                    -0.08985758124357897
                ],
                [
                    -0.15727734711467498,
                    0.1186007870589256,
                    -0.049098305182758456,
                    -0.04788252435275407,
                    -0.0380277781507473,
                    -0.05703432633681818,
                    -0.06782825505075779,
                    -0.03961696602019418,
                    -0.1140063102990537,
                    0.12435057580231103
                ],
                [
                    -0.05298911431103652,
                    0.12603085912379813,
                    -0.013496261540380203,
                    0.02216979216994698,
                    0.12699923136590976,
                    -0.007890866244017516,
                    -0.11683677030474535,
                    0.26275768488033613,
                    0.06420215367300722,
                    -0.12336725195067222
                ],
                [
                    -0.017315358770237554,
                    -0.009372774076566722,
                    0.10591955983706282,
                    -0.026105057537405992,
                    0.06689935509597521,
                    0.012153730685640738,
                    0.15433131138955022,
                    0.09181621340186798,
                    -0.008008166161152658,
                    -0.1059375672591728
                ],
                [
                    0.018466484475855218,
                    -0.0021622902196928805,
                    0.14093910995589504,
                    0.029711267684437846,
                    0.0475136904173672,
                    -0.04349498264532051,
                    0.004322115355037982,
                    0.007345823990706704,
                    -0.015575930976505463,
                    0.0022789199321184353
                ],
                [
                    0.02503380385406694,
                    -0.10108150221301022,
                    -0.12539381346302161,
                    0.02509880804935546,
                    -0.07705954183383808,
                    -0.1104357461409466,
                    0.021626051885873444,
                    0.029819617422933143,
                    0.004611708830733836,
                    -0.04701122811114355
                ],
                [
                    0.15335395839704574,
                    -0.10485673069531282,
                    -0.012761403773690071,
                    -0.1836468822747013,
                    -0.05865302071652264,
                    -0.10314679926584622,
                    0.054271048647766953,
                    -0.053164478348897794,
                    -0.10085705905812223,
                    -0.054000346908234784
                ],
                [
                    0.10090141541550943,
                    -0.1467743618501429,
                    0.040305112138798095,
                    -0.12504325507810043,
                    -0.004281818064898793,
                    -0.008590211376383428,
                    -0.17023599461301106,
                    0.052884209703587697,
                    -0.11353732625420145,
                    -0.036855755274918675
                ],
                [
                    0.0530536850585173,
                    -0.053990122203546216,
                    0.0040602060177066844,
                    0.01018797927031466,
                    0.06935972642942485,
                    0.04343464472151295,
                    0.03521467490018287,
                    0.042662335831880734,
                    -0.05836293035121919,
                    0.020864890897215133
                ],
                [
                    0.09338856266200375,
                    -0.09584947921033028,
                    -0.026164632658463704,
                    -0.0570299779550574,
                    -0.020884011474935123,
                    -0.16205588886017558,
                    0.0017892823735785196,
                    -0.0324614477617191,
                    0.1430404557080449,
                    0.03775743420878871
                ],
                [
                    -0.07574513256005683,
                    -0.23025210632714727,
                    0.0925849788368102,
                    -0.05246938157211586,
                    0.007405163861445307,
                    -0.050034110411060644,
                    0.02539148520003081,
                    -0.10216743441357376,
                    0.003956727165983664,
                    0.04752572858455156
                ],
                [
                    -0.00557878875232514,
                    0.08755897451791905,
                    -0.028505338985920434,
                    -0.015603732797896853,
                    0.15639691573248482,
                    -0.06475323967843971,
                    -0.00927964749636183,
                    0.039777692864481747,
                    -0.06460048939750404,
                    0.02185023901495171
                ],
                [
                    -0.15434008569781207,
                    -0.05403310612276361,
                    0.05802724750689574,
                    -0.014549525847977881,
                    0.09153737117665864,
                    0.060357261823613645,
                    0.13974815867210505,
                    0.03646871651069486,
                    -0.011848344109041484,
                    0.0012622411759757872
                ],
                [
                    0.012891460374636406,
                    -0.0629349096230043,
                    -0.043855685304300326,
                    0.06753233401427748,
                    0.08759941262314352,
                    0.033003647707788346,
                    -0.07317092663862886,
                    -0.09881919654736268,
                    0.07986471478183753,
                    0.014983727936789357
                ],
                [
                    -0.07207409662099243,
                    -0.007436864487594245,
                    -0.0022337665772110913,
                    0.025497072035378363,
                    -0.06285761306922559,
                    0.1676306624722464,
                    -0.0034201571416081784,
                    -0.03711393798215176,
                    0.07290773030886778,
                    0.06500306661572058
                ],
                [
                    -0.060483773451316794,
                    0.011277774087387562,
                    0.0007043856633170421,
                    -0.22297225830630912,
                    -0.0517140901568578,
                    0.14392867973742568,
                    0.05766407762360934,
                    -0.12338154935249251,
                    0.07836784327676559,
                    0.1441541195404483
                ],
                [
                    0.04194428712479756,
                    0.06415747211537945,
                    -0.1246867112332278,
                    -0.1383078491761318,
                    0.06128288605852254,
                    -0.09998774290707348,
                    -0.054445363118885926,
                    0.004625622708337771,
                    0.08476366189624729,
                    0.14227062969915025
                ],
                [
                    0.03121924033573225,
                    -0.02767767433213489,
                    -0.024119827549543286,
                    0.04156684061437286,
                    -0.0746429592838695,
                    0.06889440233045396,
                    0.09457990541283624,
                    -0.04708191324939019,
                    0.07476351320982376,
                    0.014614230609322107
                ],
                [
                    -0.018067514466434537,
                    -0.033491906458540076,
                    -0.09622504923226591,
                    -0.011824565523534303,
                    -0.14552196384056842,
                    -0.11637690269888458,
                    0.08491669794255642,
                    -0.09941123905294934,
                    0.07440270842646217,
                    0.007279665177905371
                ],
                [
                    0.09315587876880636,
                    0.017216566196494726,
                    -0.06041921481819584,
                    -0.025827048333851906,
                    0.012740014583843957,
                    -0.03221809419760406,
                    -0.05894104504229167,
                    -0.03513796133987676,
                    -0.12098151131640808,
                    -0.1632132567615926
                ],
                [
                    0.14839478642551868,
                    -0.04955506292702628,
                    0.05065398412915069,
                    -0.09389152986487229,
                    0.09688710493436706,
                    0.06100779638402093,
                    0.006964428987249213,
                    0.07506981159170756,
                    0.026253015251357245,
                    -0.02192559427857025
                ],
                [
                    -0.032390803872347655,
                    0.04295897569363046,
                    -0.02074092761696776,
                    0.09673664274534004,
                    -0.1666359568020383,
                    -0.017738149378836908,
                    -0.01728397883498865,
                    -0.004668980693032669,
                    -0.03415561031851042,
                    0.07960479232364293
                ],
                [
                    0.06058027124749562,
                    0.06297951090559037,
                    -0.05286426564282162,
                    0.14130650471375944,
                    0.14764678177967816,
                    -0.11171940897443598,
                    0.10778225615497393,
                    0.028226811286718223,
                    -0.008936372993739767,
                    -0.0543563177289187
                ],
                [
                    0.09677363120115609,
                    0.028812841898161357,
                    -0.06261687405352093,
                    -0.06852957783394069,
                    -0.0316336335193087,
                    0.1125380257136298,
                    -0.021092992055309224,
                    0.04424892389981291,
                    -0.02287583315822114,
                    -0.1581562298463599
                ],
                [
                    0.03636239806692431,
                    -0.1334231126732803,
                    0.039462299907647255,
                    0.007087557482021746,
                    -0.06638685751080244,
                    -0.008072010564099981,
                    0.13316271651879588,
                    0.015209013671405943,
                    0.05294811776297046,
                    -0.017852423477031646
                ],
                [
                    -0.03285766511387905,
                    0.02778169120840144,
                    -0.11954943417024584,
                    0.007607642795962754,
                    -0.03081740640411616,
                    0.0652193392974587,
                    0.0394125174744718,
                    0.05791593503981548,
                    0.02798318473196878,
                    -0.06283789190818787
                ],
                [
                    0.05408116812525256,
                    -0.05237085084858316,
                    -0.12906618055878913,
                    -0.07866021294600371,
                    0.06303879939077162,
                    0.0015509425073008396,
                    0.06263819931701307,
                    -0.03491993113317604,
                    0.014552446308658134,
                    -0.0252979917385832
                ],
                [
                    0.0853014432915905,
                    0.09137588428485376,
                    -0.07175091300814623,
                    0.25332444877767246,
                    -0.0919931663893718,
                    -0.06835618208070823,
                    -0.024350300478560225,
                    0.09015741874142785,
                    0.03785269836290117,
                    0.07744635245052663
                ],
                [
                    0.022860199059435437,
                    0.03265221774769621,
                    0.1438212865211976,
                    -0.09892988100990466,
                    -0.10270464679889969,
                    0.0010999057301971592,
                    0.021730165258137594,
                    0.09740601420127667,
                    0.08164437319756904,
                    0.022079571685016085
                ],
                [
                    0.09570349039511508,
                    0.06459923689320111,
                    0.07999625394019855,
                    0.09158955882753236,
                    0.014917128385269655,
                    -0.057948528291846504,
                    0.07301097913222512,
                    -0.03820642151761446,
                    0.04642911298067544,
                    -0.005370252016458541
                ],
                [
                    -0.06001425622892102,
                    0.05274416111497926,
                    0.017396860512890397,
                    -0.008900085404284216,
                    0.10563194502480099,
                    -0.1570082155399657,
                    -0.048616000383843457,
                    -0.05086816692972642,
                    -0.13657103435673185,
                    -0.07332644579060615
                ],
                [
                    0.0048590670471006445,
                    0.010547066398907581,
                    0.08780707101530824,
                    -0.058948149771405216,
                    0.11032182545333219,
                    -0.04969610933473025,
                    0.06765916598017924,
                    -0.11646472704338548,
                    0.10224591155748217,
                    -0.02954823636613522
                ],
                [
                    0.08149089679926395,
                    -0.06281278846208403,
                    0.12324979766056444,
                    0.18206722628429606,
                    0.11704150866262528,
                    -0.08582585991412825,
                    0.029657838833785054,
                    0.15069076441623044,
                    -0.08308249991135566,
                    -0.038318861905432385
                ],
                [
                    -0.038584377157254345,
                    0.053291472405997194,
                    0.14924232771039941,
                    -0.07529552645916555,
                    0.05445263003295968,
                    -0.058293457573613726,
                    -0.10711362731615236,
                    -0.04263920107775064,
                    0.14582963219896405,
                    -0.017996009744821385
                ],
                [
                    -0.06872433395025952,
                    0.058038256522547696,
                    -0.05109794008973497,
                    0.024180187184218455,
                    -0.03993161842379339,
                    -0.0843030483507216,
                    0.06889501592638889,
                    0.014029438977321528,
                    0.04824352335866475,
                    0.030412363053291657
                ],
                [
                    -0.1023739468678766,
                    -0.0930091529752862,
                    -0.02087855374373963,
                    0.05883783396854411,
                    -0.07784719877498797,
                    0.06941223550800198,
                    0.07169591138058085,
                    0.05787428850326556,
                    0.07723958592540413,
                    0.10476080771254075
                ],
                [
                    -0.11271952983653138,
                    -0.0354956022231291,
                    0.0073036584677029885,
                    -0.19161821569351484,
                    0.08354426500880408,
                    -0.05546415114583629,
                    0.008807210719438307,
                    0.0049584821542564515,
                    -0.00455361842389494,
                    -0.1250227993068176
                ],
                [
                    -0.30175878726241373,
                    -0.1030909304109105,
                    -0.09775846636840513,
                    0.1819943019790002,
                    -0.03115252700829655,
                    0.021312522320969387,
                    -0.0842481824794881,
                    -0.0600272640420965,
                    -0.01857014042107803,
                    0.042036239300720576
                ],
                [
                    -0.06361898563314138,
                    -0.10237205555589082,
                    0.054499014912561115,
                    0.08743383916751225,
                    0.09340841122148004,
                    -0.1469333073124328,
                    0.13653987239358106,
                    -0.026694964760032976,
                    0.0948741383879936,
                    -0.05860658931721076
                ],
                [
                    -0.012333037044276018,
                    -0.08245454307429477,
                    0.05354769173502384,
                    -0.08580958745204771,
                    -0.059124356225861374,
                    0.0017151470213409585,
                    -0.11954399910887284,
                    0.1212314292499815,
                    0.06225520167525163,
                    0.0030934844326802402
                ],
                [
                    0.07352497854622729,
                    0.04758963549293318,
                    0.022264626332868964,
                    0.03210181602955223,
                    0.09726609635844716,
                    -0.0404645934656189,
                    -0.05387150948311015,
                    -0.15095138997491833,
                    0.05751682768112661,
                    -0.015866390502624877
                ],
                [
                    -0.0841343684861313,
                    0.0850048700544842,
                    0.06589512339015537,
                    -0.06995211830480898,
                    -0.12366113683209003,
                    0.06891205671457692,
                    -0.16048970992338676,
                    -0.0400462497591846,
                    0.030943360337156476,
                    0.13436865176142299
                ],
                [
                    0.0014366013734671884,
                    0.012890722133079947,
                    -0.0726532125168363,
                    -0.07858684947743182,
                    -0.13075332847161938,
                    -0.027999870931536077,
                    0.07215747252093094,
                    -0.06276192211680262,
                    0.09847413768688361,
                    0.001925636351093408
                ],
                [
                    0.11574198170929365,
                    0.02554334070929603,
                    0.1012578976722529,
                    0.11080633356513465,
                    0.14973592722068343,
                    -0.16855362069736224,
                    -0.016606309055688818,
                    0.09013740744148813,
                    0.045696710562260455,
                    -0.09384303248952154
                ],
                [
                    0.040571373498420285,
                    0.22825472503248054,
                    -0.01135727085547856,
                    0.05785942829677442,
                    -0.15076342282069077,
                    0.14567924152942704,
                    -0.07299997303941419,
                    -0.10920845966479373,
                    0.17994357005872633,
                    0.08525342999014769
                ],
                [
                    0.04774067039358158,
                    0.0663963453529487,
                    0.03260650438257494,
                    -0.0830272869394817,
                    -0.0807054032291583,
                    0.12374250773570765,
                    -0.11892730350612163,
                    -0.02832912554907867,
                    0.09057486635960722,
                    0.07496295141570306
                ],
                [
                    -0.03471418423423211,
                    0.11837539726066347,
                    -0.03978492564003479,
                    0.05644851677936787,
                    -0.1062637079976542,
                    0.03584267163222351,
                    0.13953241841473926,
                    0.02671031767573325,
                    -0.03623891700391547,
                    0.11397986479364021
                ],
                [
                    -0.17455044429203417,
                    0.06224053068459944,
                    -0.10319497184698019,
                    0.014381866693705697,
                    -0.08178090525480369,
                    -0.004790608309118042,
                    -0.030953638627717904,
                    -0.1735663462825083,
                    -0.014729062994023552,
                    0.03130578676386687
                ],
                [
                    -0.08884151450037098,
                    -0.08029209145970898,
                    0.025397518983826663,
                    -0.20048620496424552,
                    -0.1475837550244285,
                    0.1590939949386034,
                    0.061601264021311275,
                    -0.1581006802707343,
                    0.008087719544389811,
                    -0.05625683209942528
                ],
                [
                    0.15439134702141669,
                    -0.01634804025915049,
                    0.060114554120067276,
                    0.034789054904908204,
                    0.009350005365017117,
                    -0.17592772678740556,
                    -0.02607883735122143,
                    -0.013872609350085947,
                    0.001554877828708578,
                    -0.21767290179524298
                ],
                [
                    -0.04606196075345637,
                    0.07119225088271823,
                    -0.15132233800377426,
                    0.07248072338181487,
                    0.04426442765697726,
                    -0.05079006953665451,
                    0.0017296636351315643,
                    -0.04396125922598061,
                    0.1709548632150625,
                    -0.07170151112399804
                ],
                [
                    0.04638182040757864,
                    0.038302007418761365,
                    -0.0627695443307464,
                    0.0909835453539375,
                    -0.11874541461857487,
                    -0.03779652677186108,
                    -0.018473222657333983,
                    -0.0083824434788778,
                    -0.0020016415043690064,
                    -0.028102808637929667
                ],
                [
                    -0.09872527774734036,
                    -0.017634718664417126,
                    0.14476094067383335,
                    -0.13413414845884125,
                    -0.0608445950064481,
                    0.17684455026185592,
                    -0.09407924164745331,
                    0.11859279443054747,
                    -0.13331543435408114,
                    0.10394161504352317
                ],
                [
                    -0.07129204333824853,
                    -0.05215346413041361,
                    -0.02160042698664451,
                    -0.015924314755456664,
                    -0.060027055732861934,
                    0.019594455784936522,
                    0.16359566646893317,
                    -0.1605351028227712,
                    -0.04865012557328017,
                    -0.10579708469366937
                ],
                [
                    -0.05371819296810082,
                    0.08682089258799187,
                    -0.0459477600862887,
                    0.05463124587905086,
                    -0.011875220828480627,
                    -0.06785096438829662,
                    0.01679788513707209,
                    -0.12995560926504743,
                    0.03846554623724049,
                    0.17814693766729708
                ],
                [
                    -0.08937318992609872,
                    0.015093455029243698,
                    -0.18157968769126304,
                    -0.010296340832298845,
                    -0.07424152152475465,
                    0.15667941302102598,
                    -0.060256620952942506,
                    -0.11780089145777463,
                    -0.07676093692187026,
                    -0.044413962831169565
                ],
                [
                    -0.15979232360109905,
                    -0.00399387715524553,
                    -0.019943802338072778,
                    -0.041638912875047805,
                    -0.0031500705737488002,
                    0.028194665983967533,
                    0.047350191051033864,
                    0.00960646662769314,
                    0.004109205904765048,
                    -0.03416460886069491
                ],
                [
                    0.025027429403163756,
                    -0.07051936231644046,
                    -0.059862113511942164,
                    -0.006738929290813077,
                    0.08974424039560129,
                    -0.04173785984691684,
                    0.10324647956105998,
                    -0.01718105195759597,
                    0.05431612586129004,
                    0.04970619093064048
                ],
                [
                    0.04039079202313472,
                    -0.016899295698874155,
                    0.10586019692338915,
                    -0.027633950778895675,
                    -0.07370734624780705,
                    -0.0003968742984003425,
                    0.08434422205315396,
                    0.06965764234430699,
                    0.05233786787546117,
                    0.06781570789499691
                ],
                [
                    -0.1949497558400808,
                    -0.1541050604968272,
                    0.10739303320986068,
                    -0.011234282958470763,
                    -0.029281650210945302,
                    -0.021533750056978263,
                    -0.02546656780938609,
                    -0.09646901396483645,
                    -0.040787976431388276,
                    0.022073221352647155
                ],
                [
                    0.0733310998071563,
                    -0.0990564444868648,
                    0.0060372703308049155,
                    0.15760613881925914,
                    -0.013001148389843632,
                    -0.04311528346580185,
                    -0.11406430283502307,
                    -0.04763185906064063,
                    0.054378086567947126,
                    -0.12169500966826792
                ],
                [
                    -0.14433361146998858,
                    0.1412073534449263,
                    -0.043745367332154075,
                    -0.07544511474855002,
                    -0.027218341872980164,
                    -0.18086964018517918,
                    0.05791235719766554,
                    -0.05888362501234591,
                    0.05510325065037449,
                    -0.13938462148114886
                ],
                [
                    -0.029082898830734605,
                    0.07560664612357643,
                    -0.03148767763547473,
                    0.13067624312099857,
                    0.044236618996462064,
                    -0.07222541852008249,
                    0.05964719133845168,
                    0.010343305907413421,
                    -0.13884108912972584,
                    0.11383912616840211
                ],
                [
                    0.02547703051174779,
                    -0.058139707395880064,
                    -0.030907403880621534,
                    0.04581387431837658,
                    -0.06266549947854724,
                    0.1327817060114557,
                    0.09995158258661113,
                    0.1874581429203273,
                    -0.18965171322547858,
                    0.01732539471960056
                ],
                [
                    -0.17018104081777805,
                    -0.016575028989846044,
                    0.054483789589968475,
                    0.07610380972304667,
                    -0.07409904396434346,
                    0.046373450859853116,
                    -0.0226648555559814,
                    0.11429903072677979,
                    -0.05376387263551174,
                    -0.08142397311205093
                ],
                [
                    -0.10346233562012831,
                    -0.008864255329470837,
                    -0.003063468212958411,
                    0.0048950917873717085,
                    0.002944703165236448,
                    0.11130328843025997,
                    -0.0021971069531509925,
                    0.011504285326268467,
                    0.2146194098813921,
                    0.042587632877673295
                ],
                [
                    -0.01997883931086996,
                    0.041517962302924365,
                    -0.055210238318712086,
                    -0.04395530098564665,
                    0.048620112917289036,
                    -0.03843460368631523,
                    -0.10954500264646085,
                    0.02527073918835644,
                    -0.06203081178444692,
                    0.006814279851790286
                ],
                [
                    0.0033719230963720455,
                    0.04849001136461243,
                    -0.1470551356719376,
                    0.19897610881843653,
                    -0.19824407330252428,
                    -0.06384394093446963,
                    0.04294656363145515,
                    -0.11226368326723858,
                    0.08357015071927738,
                    0.09839291338072007
                ],
                [
                    -0.16302252203232723,
                    -0.05863808914396064,
                    0.09309091761042845,
                    -0.027294568697728002,
                    0.11616047777274853,
                    -0.11921003512955128,
                    -0.06191548538342186,
                    0.033712097854388626,
                    0.10395629380661535,
                    -0.1468682678644557
                ],
                [
                    -0.015012473625502561,
                    -0.09508537078115323,
                    0.0013307981904941927,
                    -0.04394509578038695,
                    -0.03180847573802895,
                    0.16414807991294803,
                    0.08055963210134683,
                    -0.13798392374794718,
                    -0.08891348449567825,
                    0.015679691017859862
                ],
                [
                    0.2072671473806342,
                    0.11900834688186457,
                    0.15718857327249222,
                    0.08504684586677565,
                    -0.07569685475663222,
                    0.09540828561892559,
                    -0.04816773415918983,
                    -0.03844411577236972,
                    0.054225805175219015,
                    0.08161781114842823
                ],
                [
                    -0.0059842080487330805,
                    -0.0711618638644275,
                    0.04245147091119548,
                    -0.02731255930832844,
                    -0.09076725151062004,
                    0.08727365454528117,
                    -0.06812957831383304,
                    -0.01520153694517846,
                    0.09271802472309665,
                    0.04643134964900602
                ],
                [
                    0.1465984195873845,
                    -0.03975409007741101,
                    -0.022208478371523052,
                    0.0766540762208528,
                    -0.190265435209858,
                    0.08591716585561683,
                    -0.06703979417128385,
                    0.015057665458873309,
                    0.002545003303074213,
                    0.0202405245378149
                ],
                [
                    0.05166031410034958,
                    0.06576863612181987,
                    -0.05246015941609517,
                    0.03667056629832078,
                    -0.14692793456719067,
                    0.002446340013359982,
                    -0.002675364483391999,
                    0.017721499717220972,
                    -0.06579346235918052,
                    0.04284729832236692
                ],
                [
                    0.08897078384876661,
                    -0.011226769250502899,
                    0.15080845802418907,
                    0.15429279256865708,
                    -0.21854634407600662,
                    -0.038177345139754314,
                    0.0434375216691866,
                    0.12677459073346536,
                    0.011491536049468445,
                    0.18501844550662522
                ],
                [
                    0.014840622673055923,
                    0.09395038945165209,
                    0.06697957551271373,
                    0.10720274169250463,
                    -0.24525615796694375,
                    0.04245207154017878,
                    0.2128810358875747,
                    -0.11345064537359603,
                    -0.04943434460964477,
                    0.06153593782162552
                ],
                [
                    0.06588560607289085,
                    -0.057228111719561464,
                    0.0495972928938642,
                    0.12269080800799018,
                    -0.16795450261441308,
                    0.08770052046779726,
                    0.10119591535764497,
                    0.04499045175055037,
                    0.07117538628967138,
                    -0.05529289825833474
                ],
                [
                    -0.05461822434573667,
                    -0.08757607665949964,
                    0.08371208535594975,
                    -0.047547691355865625,
                    -0.2589199159726511,
                    0.0299347504706099,
                    0.12404518955163855,
                    0.0051079698582686605,
                    0.009594281180952303,
                    0.047925734007548994
                ],
                [
                    -0.06327655591401546,
                    0.03402423521810144,
                    -0.08369044246585237,
                    0.014563628149542365,
                    -0.04335383029212239,
                    0.06539156433847164,
                    0.06884603169293535,
                    -0.11394099733014934,
                    -0.09258762201669504,
                    -0.006749458635134656
                ],
                [
                    -0.07624315043475188,
                    0.03196996260421694,
                    -0.041114684310810966,
                    0.0415555122005142,
                    -0.15210014695284302,
                    -0.006233822530453481,
                    -0.001743130833439718,
                    0.03961627093442347,
                    -0.17357072304057608,
                    0.1132442637521196
                ],
                [
                    0.0614509724468869,
                    0.1338698443880588,
                    0.1661164553707117,
                    -0.04850744739894551,
                    0.0233022258881811,
                    -0.03158145684034951,
                    -0.16769168789055117,
                    -0.11151118981671967,
                    0.19597690813338303,
                    0.003136165090747535
                ],
                [
                    -0.009671988316930093,
                    -0.06505602664289298,
                    0.020224467598608183,
                    0.024392732268651487,
                    -0.05949873659602576,
                    0.1752221892871916,
                    0.1540712585551965,
                    0.002661883934875517,
                    0.0027811211466288385,
                    0.007725320738769581
                ],
                [
                    -0.1059197233207316,
                    0.1895361435312612,
                    0.11180545401903863,
                    0.00043694884936168905,
                    -0.014591164593288882,
                    0.1353110765108639,
                    -0.0061634230812812165,
                    -0.05297048594625111,
                    0.04747088959691758,
                    -0.025460633768945782
                ],
                [
                    -0.041412926977868976,
                    -0.04490244372035199,
                    -0.010474498360970724,
                    -0.13894020439248445,
                    -0.02560781254732031,
                    0.08654371276297529,
                    0.13414164436331097,
                    -0.014742599773519495,
                    0.11093755719640123,
                    0.01593957646118083
                ],
                [
                    0.10590014031256556,
                    -0.08536374922564162,
                    0.15253559197624758,
                    -0.0821827879647436,
                    -0.0629837198758294,
                    0.17201637272584036,
                    0.02256666802543117,
                    -0.05768991380660268,
                    0.048677101759289354,
                    -0.025702442975566703
                ],
                [
                    0.09192108042767554,
                    -0.12842690360581374,
                    0.13002258571246897,
                    -0.1048993287173435,
                    0.11989067207658738,
                    0.10791310123596386,
                    -0.025457890383066395,
                    0.13575323551276686,
                    0.09024302849818398,
                    0.0753214730475773
                ],
                [
                    -0.03833138018582147,
                    0.02713549554759161,
                    -0.0928991503719455,
                    -0.1013586519015984,
                    -0.03893887860782644,
                    0.08237612488648167,
                    -0.06457595271522425,
                    -0.06116138562441049,
                    -0.11284295576186827,
                    -0.03173948571359682
                ],
                [
                    -0.019136779358591975,
                    0.1816723550759019,
                    -0.08098565764060822,
                    0.08915119178874237,
                    -0.19750748137299903,
                    -0.008119598878361337,
                    0.0307749884671098,
                    0.1754775817312304,
                    0.06758558549783139,
                    0.058846218066492526
                ],
                [
                    -0.03440333214904126,
                    0.12403064230577597,
                    0.06778853138732611,
                    -0.04692125601450069,
                    -0.15116540888065957,
                    -0.23236823243396684,
                    -0.02915253668030387,
                    -0.036176810854724524,
                    -0.00911265849945536,
                    0.07849269747475776
                ],
                [
                    0.01019428963924184,
                    -0.05739985422392191,
                    -0.02913082203765762,
                    -0.19131014414617403,
                    -0.0597239209765494,
                    0.0343827154400497,
                    -0.149823356544088,
                    0.03999935612659139,
                    -0.07791217383772166,
                    0.027231613950432824
                ],
                [
                    0.05957645576002315,
                    0.157327154449422,
                    0.050490054728924066,
                    0.10734589496967979,
                    0.044062544208628734,
                    -0.11590702843264623,
                    0.009864123597615565,
                    0.20253786474570395,
                    -0.04292028263196594,
                    0.08467699075466065
                ],
                [
                    -0.1457501300126128,
                    0.08298128918388525,
                    0.08475775954081528,
                    -0.025011510468173584,
                    0.14813396303019943,
                    -0.15195432553733573,
                    0.011251097606939597,
                    0.006711376603445582,
                    -0.17838805274272548,
                    0.08348393543775787
                ],
                [
                    0.04977799081376286,
                    -0.02964398861357589,
                    0.03150777914471059,
                    -0.05699534765966241,
                    -0.01572854781698186,
                    -0.07296216185179306,
                    -0.006510150276570509,
                    0.06410414625392384,
                    0.07352830901080545,
                    0.1438111267337929
                ],
                [
                    0.022887937839143644,
                    0.19816269282903262,
                    0.08780871252225499,
                    0.013493461118749744,
                    -0.14075401638338925,
                    -0.13177371816472763,
                    -0.07959329878034808,
                    0.034237727408366,
                    0.17488087924526058,
                    -0.03450928655003371
                ],
                [
                    -0.028886997823007295,
                    0.054930579031532055,
                    -0.04558976884529449,
                    -0.10583194322732463,
                    -0.028306004780583097,
                    0.02058368793211611,
                    -0.16037513525212085,
                    -0.000913846557739987,
                    0.06831963732859653,
                    0.05271356393664308
                ],
                [
                    0.005614095511355582,
                    0.10748426091071667,
                    0.024639395462130967,
                    0.04576836003727653,
                    0.02042430570785156,
                    -0.06865091919504876,
                    -0.12279960117261104,
                    0.06800970854216493,
                    0.002900243279443059,
                    -0.011004184624461975
                ],
                [
                    -0.04813086462547387,
                    -0.019532706525884704,
                    0.015540827018293886,
                    0.07277421941766743,
                    -0.1878256920082304,
                    -0.02503824009474954,
                    -0.021961102681762018,
                    -0.044002399496630325,
                    0.05550837916926733,
                    0.007616717637047546
                ],
                [
                    -0.024554785560574457,
                    0.018887540333534215,
                    0.04702708853986101,
                    0.038302305275886274,
                    -0.03065962408377932,
                    -0.0043854249089164375,
                    0.040666511190291244,
                    0.08984142014151199,
                    -0.0635013011662861,
                    -0.12590564945333366
                ],
                [
                    -0.10215414250469908,
                    -0.11417224472772368,
                    -0.015610227708415851,
                    0.25907379346270343,
                    -0.29522170337964804,
                    0.18125847519075974,
                    -0.10151713471984407,
                    0.09108304166602191,
                    -0.008725621932375362,
                    0.013469827427325528
                ],
                [
                    0.00637146845465103,
                    0.05453145456095007,
                    0.07985788060163604,
                    0.16861352087139073,
                    -0.30466381149151495,
                    0.04294319934822121,
                    -0.01805252917406807,
                    0.00573091100608223,
                    0.024773583249862705,
                    -0.11374991762610856
                ],
                [
                    -0.052393278276662784,
                    0.05632334423546689,
                    0.09140411855740461,
                    0.11917845126360253,
                    -0.3367702671072433,
                    0.029311924853884348,
                    -0.06181715214506804,
                    0.11164365303942257,
                    0.04087825631126053,
                    -0.13025524442114297
                ],
                [
                    -0.030741183903570106,
                    0.046504259446574554,
                    0.09815410860133936,
                    0.13686269368090967,
                    -0.23498526068577463,
                    0.01946869180300536,
                    0.10001014348397097,
                    0.042671800802106065,
                    -0.047035884430773604,
                    -0.027133962366108315
                ],
                [
                    -0.049938854232637574,
                    -0.13404605000634442,
                    -0.01482290013002535,
                    0.15513762541698267,
                    -0.34792437955915173,
                    0.007995212254132635,
                    -0.10628332793104779,
                    0.0365404908708561,
                    -0.11829206685251657,
                    -0.06499932128077791
                ],
                [
                    0.02230039762656293,
                    0.03613221468684888,
                    0.020920758814323755,
                    0.07842154713333403,
                    -0.3284344966663392,
                    -0.0334124199914854,
                    -0.013870730722640461,
                    0.11698650653766528,
                    -0.04573070110239923,
                    -0.20572403673758505
                ],
                [
                    -0.024296837721194064,
                    0.053675286795425825,
                    0.03211540868200705,
                    0.1538103656975672,
                    -0.2727202847535255,
                    -0.09599628528656669,
                    0.024101078286565495,
                    0.11120724809080217,
                    -0.048410770867339886,
                    -0.06938680120359889
                ],
                [
                    -0.025349402505695406,
                    0.021733177400189162,
                    0.12502295896849214,
                    0.12963232394308885,
                    -0.2703279089021396,
                    0.001852538730949415,
                    0.14671076537562633,
                    0.035993532810699475,
                    0.021646968856840983,
                    -0.05219941924725996
                ],
                [
                    0.04642003023901655,
                    -0.003951658349605066,
                    0.04051688632586299,
                    0.08974694577261494,
                    -0.12752704691917635,
                    -0.10147444579599685,
                    0.06734209334799102,
                    0.0346684483060717,
                    0.02513755599917577,
                    0.014220402843683519
                ],
                [
                    -0.04202348530077582,
                    0.03200424828245385,
                    0.014242161032142864,
                    0.023557549008733032,
                    0.03636091887369982,
                    -0.0312230994902049,
                    0.06574873279891003,
                    -0.005998464509337495,
                    0.018307861590010865,
                    0.12702437620280058
                ],
                [
                    -0.04248851110971373,
                    -0.00988355607025894,
                    0.18244987306234894,
                    0.07369803360692541,
                    0.0583725825100356,
                    -0.007828081167715526,
                    -0.0520666742608813,
                    -0.13026737073433228,
                    0.07208479445760785,
                    0.06780752882803792
                ],
                [
                    -0.1313809880418183,
                    0.11329147577677862,
                    -0.05970783691112235,
                    -0.0141378553411235,
                    -0.13158390508409695,
                    0.03613977568219114,
                    0.08343027536357761,
                    0.06607341296614032,
                    0.0019207453820808357,
                    -0.04786752423414602
                ],
                [
                    0.06410589726863886,
                    0.06216406828909638,
                    0.10486364786126254,
                    0.029899073476749104,
                    0.010798702227117169,
                    0.05391833338194422,
                    0.017955171977590275,
                    -0.005805482312246272,
                    0.15290395529261427,
                    0.08206559650035188
                ],
                [
                    -0.21396006681574026,
                    0.00043729720520829275,
                    -0.014682278120991397,
                    -0.027195738389169246,
                    0.1567123882835126,
                    -0.009002064718383683,
                    0.0624474252302482,
                    0.0316136590689809,
                    0.0398530160205231,
                    -0.04759821942814502
                ],
                [
                    0.018261429083472547,
                    0.038310105428885695,
                    0.0628797944219682,
                    -0.09732701686167117,
                    -0.09775486647680168,
                    0.01629594316047287,
                    0.08746688948622555,
                    -0.059686869758855066,
                    0.062223105376447735,
                    -0.053063523656720187
                ],
                [
                    -0.18281520779167998,
                    -0.024970654815122395,
                    0.09932927719089586,
                    -0.15806726477798738,
                    0.16952230367734414,
                    0.09797203509964857,
                    0.023836393288071567,
                    0.05647329679698583,
                    0.027208860261241908,
                    0.12747218319244202
                ],
                [
                    -0.1242325332101701,
                    -0.15816253181453155,
                    -0.010556908308220108,
                    -0.1445535177030217,
                    -0.002398370729299062,
                    -0.10249514483566696,
                    -0.0751357390164577,
                    0.126424139008318,
                    0.14205909745919967,
                    0.00856081791596811
                ],
                [
                    -0.02117375132877892,
                    -0.02130362634607425,
                    0.13919464235513765,
                    -0.07942990733321259,
                    0.12479099902873961,
                    0.08145636230222403,
                    0.28932842913632567,
                    0.15590321015747546,
                    0.04969336416974932,
                    -0.07732192782768088
                ],
                [
                    -0.11621826354621012,
                    0.05082510220585036,
                    -0.10170911373382194,
                    -0.16357126187748816,
                    -0.0364375294664864,
                    -0.053554792182280424,
                    0.04700007921034493,
                    -0.02664695431107844,
                    0.10669081862854703,
                    0.15533120364116662
                ],
                [
                    0.03115232594699015,
                    0.1527925464104351,
                    -0.08968991025554553,
                    -0.11220125652101441,
                    -0.04196299793151026,
                    0.09866278077244933,
                    0.05119221442086579,
                    0.0843603768924248,
                    0.010946629809235792,
                    0.013969218241995237
                ],
                [
                    -0.10286194547893578,
                    0.037463158867011945,
                    -0.11022556717940189,
                    0.12160974999383012,
                    0.12653747967553952,
                    -0.02939711899062126,
                    -0.15508195488142779,
                    -0.04997813258345317,
                    -0.023766904710195484,
                    -0.038756190505559326
                ],
                [
                    -0.15190616293083178,
                    0.07623185401493753,
                    -0.13047485143630053,
                    -0.033243530695073145,
                    0.056402824681925263,
                    0.0028000954084771053,
                    -0.0991774280269028,
                    0.15968331789702866,
                    -0.13664905385829207,
                    0.03251442521084524
                ],
                [
                    -0.035020021894228065,
                    -0.03444582045660387,
                    0.11961004115220589,
                    -0.08603589639374426,
                    -0.08763251229931757,
                    0.10219552576625977,
                    0.002857881016685381,
                    -0.022383776960382486,
                    -0.18245085001814618,
                    -0.026176621513099647
                ],
                [
                    -0.0492110194457449,
                    0.032097595777053345,
                    -0.07989578128394392,
                    0.043285711080513455,
                    -0.05296100872855714,
                    -0.056754335473130295,
                    -0.03966237425378068,
                    0.05621941407159978,
                    -0.1131894366354736,
                    0.08258903451006358
                ],
                [
                    -0.0648589209688027,
                    -0.017653341895076585,
                    -0.022070833050550905,
                    0.08341644838844972,
                    0.035257074743514305,
                    0.12319916780979324,
                    0.01985282597616386,
                    0.06776838941100918,
                    -0.12068252944968881,
                    0.12458978035523498
                ],
                [
                    -0.08081569861550236,
                    -0.02191426998679335,
                    -0.12691607955709575,
                    0.02359657972909926,
                    -0.09341547125738982,
                    -0.09864719698424956,
                    0.034468451395588205,
                    0.2080885278432111,
                    -0.08062185173203167,
                    -0.044854740180113595
                ],
                [
                    -0.041808058732044365,
                    0.02170065711925555,
                    0.004692146945360797,
                    0.13630368653426714,
                    -0.0437267640338854,
                    0.08732700927171991,
                    -0.07828774252166973,
                    0.12142802554924456,
                    -0.09979953339106126,
                    -0.01633713125884294
                ],
                [
                    -0.06386647696983408,
                    -0.08172926693305167,
                    -0.04428806064346807,
                    0.08142863298388436,
                    -0.0694443754339963,
                    -0.11061532273172726,
                    -0.12500755366192987,
                    -0.1048265642897739,
                    -0.2226919912064445,
                    -0.006167209703289932
                ],
                [
                    -0.036373856658927554,
                    0.056253923637816824,
                    0.034978045224079254,
                    -0.08750909006691515,
                    -0.026779385958302156,
                    -0.03622186437609159,
                    -0.04057340123740042,
                    0.05762974785794623,
                    -0.10138120704519792,
                    -0.028393692955902293
                ],
                [
                    0.008516001832641418,
                    -0.07366412346535996,
                    -0.008471248340532127,
                    0.13066559381505435,
                    -0.022832186136532127,
                    0.13521484664011152,
                    0.07746091171814787,
                    0.06829325133995581,
                    -0.011373220062201391,
                    -0.09760303862107453
                ],
                [
                    0.11688675623838246,
                    0.009328395366367733,
                    0.06832570658519307,
                    0.051066448886218814,
                    0.03070346483734285,
                    -0.021715028204081617,
                    0.07875052570100391,
                    0.002467336283461704,
                    -0.1272618177283309,
                    -0.06577115432810197
                ],
                [
                    0.061903404682048885,
                    0.08143116451598696,
                    0.057511091998887695,
                    0.02368039024410412,
                    -0.013170774961185468,
                    -0.13333963592815848,
                    0.09873370362354597,
                    0.120220010375105,
                    -0.07654547025211166,
                    -0.006790870801103005
                ],
                [
                    0.1325594521079457,
                    -0.062230142817119125,
                    0.03278103289938317,
                    0.09012342797011323,
                    0.07109942955624389,
                    0.041252059789722906,
                    0.07084049940438353,
                    0.11312183342429086,
                    0.06882056600521559,
                    -0.014017832436762512
                ],
                [
                    0.03786941239389308,
                    -0.030963311370747645,
                    0.04013859093807819,
                    0.08905781315961449,
                    -0.013959363244462605,
                    -0.11469408715712921,
                    0.09829323514719968,
                    0.053214456037910966,
                    -0.08445154039788927,
                    0.06062204720310339
                ],
                [
                    0.058829342281237436,
                    -0.14935204894343812,
                    0.05735238165833984,
                    0.025328699727604684,
                    -0.17313538371785533,
                    -0.08342939868624073,
                    0.05523802162761121,
                    -0.006512542674744668,
                    -0.029420020638656678,
                    -0.005954490764014245
                ],
                [
                    0.01624037590701564,
                    -0.03736460288871219,
                    -0.023575884457263094,
                    0.099577842357891,
                    -0.013246571464000953,
                    -0.03054098648349282,
                    -0.02640397691840405,
                    -0.037692262948449864,
                    -0.049356808651518334,
                    -0.00413050802555179
                ],
                [
                    0.008979950259088924,
                    0.07231623301822873,
                    0.006181164291804941,
                    0.11416513537617848,
                    -0.17086791834157394,
                    -0.04703452846964036,
                    0.019977110903891624,
                    0.04557024254526704,
                    -0.031014103945740123,
                    -0.08117048772331498
                ],
                [
                    0.11696227442161662,
                    0.02500970915433806,
                    0.10558496652843583,
                    0.05780815019752584,
                    -0.036426455265370125,
                    0.030159568536387172,
                    0.032828442838559596,
                    -0.005965073842482753,
                    -0.03984643381979638,
                    -0.09710353108291274
                ],
                [
                    0.09768109424961045,
                    0.1636588797823868,
                    -0.024043184598085732,
                    0.10809515449789815,
                    -0.06305044744659466,
                    -0.08406885190671136,
                    0.10859861832464335,
                    0.04996197781763586,
                    -0.004733148125824424,
                    0.0031006335682162824
                ],
                [
                    0.07646905160815179,
                    0.011728616984464394,
                    -0.016617541229850107,
                    -0.0005714540044189028,
                    -0.032535283739888454,
                    -0.02883921310975045,
                    0.01860296774351936,
                    0.03303568404874621,
                    0.02375125765084644,
                    -0.11347329361878403
                ],
                [
                    -0.012037385954530631,
                    0.0873074433054841,
                    0.010393310485849065,
                    0.06237469255356807,
                    -0.09167664256633848,
                    0.08753058999739839,
                    0.05461898434437549,
                    0.11341263210749924,
                    -0.02967406740510619,
                    -0.09141326881372527
                ],
                [
                    -0.03383970702088718,
                    0.05180081144805713,
                    0.017316858580567137,
                    -0.021098964028891724,
                    0.008544385197300856,
                    -0.11291027409895334,
                    -0.023107148373525763,
                    -0.017040534805326385,
                    0.10123104805352225,
                    -0.060160558979704785
                ],
                [
                    -0.009556751332561307,
                    -0.06565693941205182,
                    -0.03673073867632883,
                    -0.09314687441600433,
                    -0.023934278928277455,
                    0.056657969406375644,
                    0.10584846659349373,
                    -0.035756486623906916,
                    0.06505587520610535,
                    -0.1704371007744167
                ],
                [
                    -0.12437579696457414,
                    -0.18225412729057436,
                    -0.006096509242173301,
                    -0.05635397051340148,
                    0.07602864707656479,
                    0.2561683927726008,
                    0.0056387085788933405,
                    0.0528166547115442,
                    0.13476280030115062,
                    -0.07932866945471753
                ],
                [
                    -0.08040811532951077,
                    -0.006338649773469554,
                    0.16548919171447732,
                    -0.09443741328194712,
                    0.08065051075925586,
                    0.017334191287669297,
                    0.09927455192623261,
                    -0.01546798657009273,
                    -0.038725544953061665,
                    0.062338200603411414
                ],
                [
                    -0.17915397756196386,
                    -0.07379590609400559,
                    0.14597613331964177,
                    0.06513877505600979,
                    0.12429485848375076,
                    -0.04049894214907033,
                    0.08945781869801676,
                    0.13878233867071738,
                    -0.04906489176452194,
                    0.06841696148441072
                ],
                [
                    0.12133390803097258,
                    -0.058052341052389975,
                    0.056136809731516885,
                    0.005476908534944393,
                    0.028102615344563986,
                    0.059765301416893575,
                    -0.023345122342915282,
                    0.037386531263827814,
                    -0.1418291536163366,
                    0.09725904526330185
                ],
                [
                    0.011359835905067811,
                    -0.03418422568076766,
                    -0.011454657603782963,
                    -0.2271730245710917,
                    -0.10163399874507723,
                    -0.05171910082527364,
                    0.05998248657243751,
                    0.03067071395825907,
                    -0.06400271641018863,
                    0.0012772387120493448
                ],
                [
                    0.11017222262245552,
                    0.02819395333916201,
                    0.03905532673189598,
                    0.019856671414801495,
                    -0.004571692240806829,
                    -0.08357835303299299,
                    0.06338162869202793,
                    -0.013939574472317693,
                    -0.02456069605516884,
                    0.07693972533588762
                ],
                [
                    -0.1991730823341944,
                    0.010551785687773993,
                    0.11171338063803554,
                    0.1442954241365314,
                    0.03352070934989538,
                    0.027385597068552765,
                    -0.0911040621478902,
                    -0.024698700677734928,
                    -0.13922645876780632,
                    -0.1319271965806939
                ],
                [
                    0.015486614456146516,
                    -0.01781157277385189,
                    -0.039484780824547386,
                    -0.05195767003951314,
                    0.06019994364027871,
                    0.030966572728191474,
                    0.056025381599951664,
                    -0.17961283259818486,
                    0.004351638260153373,
                    -0.08655684060086827
                ],
                [
                    -0.029629738233384266,
                    0.09273801453211677,
                    -0.07669248844699862,
                    0.09157985353126792,
                    0.04212698878934491,
                    0.03645887793846632,
                    0.11584022238805688,
                    0.10238659124014007,
                    0.06109088412723473,
                    -0.10906200168964664
                ],
                [
                    -0.0728934340371313,
                    0.029198498828333485,
                    -0.013780209175124953,
                    0.016785196540300945,
                    -0.05839483287067995,
                    -0.08938416798447993,
                    -0.04373055876747172,
                    0.03369887043765087,
                    -0.026905281449611563,
                    0.057988094924118404
                ],
                [
                    -0.09772467893398402,
                    -0.07974269141721774,
                    -0.024579416241298332,
                    0.014277727828322278,
                    0.06783206924437131,
                    0.08025627360864275,
                    0.043663355038403844,
                    0.07667461657277065,
                    -0.15336758932568234,
                    -0.022251103164257862
                ],
                [
                    -0.1695170559721341,
                    -0.07169437603550721,
                    -0.012063275998834238,
                    0.1967242368688813,
                    0.08377806119471791,
                    -0.023973684457252887,
                    0.07435955607107127,
                    0.03616581269924827,
                    -0.03438374133704877,
                    -0.022923386048427703
                ],
                [
                    0.1372063288419143,
                    -0.018201076298310553,
                    -0.0011149416018419993,
                    0.019922419000910848,
                    0.11177461470425318,
                    0.049550764774506345,
                    0.042990065822248215,
                    0.025508055540650162,
                    0.004389923771363444,
                    -0.11790343437588509
                ],
                [
                    0.018028934947856914,
                    0.04949067911833899,
                    0.10966661459233747,
                    0.015682766689413673,
                    0.012463628469535791,
                    -0.01898009347943611,
                    -0.041566721157157926,
                    0.07744614597629404,
                    -0.02753408340512775,
                    -0.12047908635581495
                ],
                [
                    -0.08217787071942964,
                    -0.03114006532273916,
                    -0.04726114837519898,
                    0.07147449271355721,
                    0.0670345389162191,
                    -0.005846231307024809,
                    0.01975934606313835,
                    -0.0476181294933188,
                    -0.14034311385523057,
                    0.0887594462354264
                ],
                [
                    -0.07362610566287317,
                    -0.00648280023975239,
                    -0.02056378657975853,
                    0.10069456512504538,
                    0.039446547728692924,
                    -0.07882347115065343,
                    0.06835945138181575,
                    0.14257184239464638,
                    -0.030446672335616546,
                    -0.21249310904718588
                ],
                [
                    0.033368868497040245,
                    0.04580339783869605,
                    -0.005208292307344503,
                    0.09995456270092296,
                    0.011981710526047941,
                    -0.10509364713675634,
                    0.029084782158403797,
                    0.013833047868285014,
                    -0.03833334742021556,
                    0.03930084732406715
                ],
                [
                    -0.02636489612110912,
                    -0.019380082118835764,
                    0.0036924334943501135,
                    0.08405770377815577,
                    0.07295663244566565,
                    -0.11116821733376787,
                    0.12520364730384292,
                    0.05778805031076736,
                    -0.04805100901338965,
                    0.003593194165874232
                ],
                [
                    0.051007050626402366,
                    -0.0029810817435711066,
                    0.0642364846797678,
                    0.07923932769594627,
                    0.05008455879461309,
                    -0.0385285776486597,
                    -0.0026351495827392608,
                    0.08071543215298874,
                    0.005085239052728078,
                    0.07176296276626846
                ],
                [
                    0.015324026941083315,
                    0.08292792255805115,
                    0.04960803114765985,
                    0.007623526658669113,
                    -0.05712402093134526,
                    -0.17135039144875655,
                    0.13780056677195565,
                    -0.004508342862372767,
                    -0.07908183050533545,
                    0.07578269383792745
                ],
                [
                    0.05624313959339229,
                    0.08420419511003663,
                    0.0328153316841808,
                    0.0830456516030687,
                    0.12108085185062299,
                    -0.061845458831716,
                    -0.003160311986462858,
                    0.10078022873266762,
                    -0.03345244351892664,
                    0.07697370103650497
                ],
                [
                    0.08267363444729946,
                    0.28507842052323457,
                    -0.046522763503001954,
                    0.05895581438626076,
                    0.011357251152502374,
                    -0.08445798754723745,
                    -0.019621212460703436,
                    0.09988458081153946,
                    -0.12567721792462758,
                    -0.09142202288620777
                ],
                [
                    0.03749725084859337,
                    0.21263591016284936,
                    -0.015422330639539954,
                    0.004776568869395329,
                    0.05539410075896118,
                    -0.10604319055020747,
                    0.09739232307912209,
                    0.05770029752249368,
                    -0.07021761907610329,
                    -0.038291627580808604
                ],
                [
                    -0.037743727437139926,
                    0.13112854364577764,
                    -0.03928537617228661,
                    0.03549700911603836,
                    -0.06259746649247809,
                    -0.05420009798240771,
                    -0.04492841022983553,
                    0.030792527561896106,
                    -0.061107477207385,
                    0.007125150750642503
                ],
                [
                    0.06042704529500509,
                    0.1035955911439406,
                    0.053964107776650866,
                    -0.04459691267172177,
                    0.07958554365713814,
                    -0.10497493109388782,
                    0.1294462011026861,
                    0.002224249451879246,
                    0.036304991537777755,
                    0.02480564245877856
                ],
                [
                    0.005970653748234443,
                    0.013083391891152745,
                    0.07932100534523667,
                    0.08865200581559132,
                    -0.02510440678075515,
                    -0.02709561722499685,
                    -0.020425845444402464,
                    0.052814057875987176,
                    0.05180254468022293,
                    -0.15819715809905785
                ],
                [
                    0.13588881746491852,
                    0.053000157392679464,
                    0.01792737504650102,
                    -0.022736333162757607,
                    0.1176373015203637,
                    -0.05048579384818088,
                    0.18067999284159006,
                    -0.03196067783611725,
                    0.02300831216139272,
                    0.162462451412294
                ],
                [
                    -0.06181553245314289,
                    -0.021016454034111332,
                    0.12404158965166404,
                    0.02550275961969992,
                    0.08050703423923693,
                    0.1199976127894279,
                    0.0037913800001882084,
                    -0.05647056070169345,
                    0.03404753422634291,
                    -0.1088101795414751
                ],
                [
                    -0.1140778493360808,
                    0.02186988210335458,
                    0.1306614781815667,
                    -0.03523455748220868,
                    0.02277871810330644,
                    0.06746714774505161,
                    -0.014031786983134105,
                    0.12842729523773988,
                    0.15320407105531095,
                    -0.015687362234052614
                ],
                [
                    -0.16511438517781707,
                    0.09997846074879263,
                    0.08252562726662489,
                    -0.1542937900926934,
                    -0.06260297084952315,
                    0.17816054554167604,
                    0.03850911818099436,
                    -0.03342717827774934,
                    0.13760417328281233,
                    0.03657748887915602
                ],
                [
                    -0.15803506798372177,
                    0.11465642788256143,
                    0.1106081904737038,
                    -0.054105216592124195,
                    0.04700580224542288,
                    -0.05278648081522282,
                    0.060695645062852764,
                    0.02034423237272536,
                    0.03595287480733041,
                    -0.04174975873037349
                ],
                [
                    0.007984844374645696,
                    -0.06834582991674941,
                    0.12250420928224978,
                    -0.017047086104494683,
                    -0.039392124551889576,
                    0.01070102276487633,
                    0.036654572738766496,
                    0.020698502389654146,
                    -0.11639229322101068,
                    0.036231828980115524
                ],
                [
                    -0.03459798957851012,
                    0.2648063924974202,
                    0.026313664475735656,
                    0.11385676114801277,
                    -0.12878342829049116,
                    0.00956495673008911,
                    -0.059489594524759555,
                    0.10258809540467823,
                    -0.051619196904350864,
                    -0.019761141630430513
                ],
                [
                    0.012729784743659548,
                    -0.1004782281209571,
                    0.005873822437284652,
                    0.033354692241528705,
                    -0.045960011247528396,
                    -0.03796606718790188,
                    -0.143615134334894,
                    0.14176614415111968,
                    -0.03654131373749276,
                    0.05523698544164595
                ],
                [
                    -0.04106454201533052,
                    -0.07044978733700408,
                    -0.07766273662652261,
                    0.030556699183175495,
                    0.023626348298639004,
                    0.12861630037107333,
                    -0.011422909113237487,
                    0.01892888138806644,
                    -0.07135186334046557,
                    -0.1345378307026152
                ],
                [
                    0.05563937757302511,
                    0.1238888529063755,
                    -0.04610083716827636,
                    -0.019059595943687065,
                    -0.0019274067359246136,
                    0.05052113911602345,
                    0.03284350201976098,
                    0.00024442194743266377,
                    0.005358256554767601,
                    -0.19676512930697249
                ],
                [
                    -0.08145380417114621,
                    -0.03960177257280763,
                    0.05115141482824152,
                    0.2338024284642862,
                    -0.00461843296011227,
                    0.05275003479582577,
                    0.08367503439004727,
                    -0.14093004128865017,
                    -0.03457398648462506,
                    -0.037785591295366475
                ],
                [
                    0.034133877963426915,
                    0.006165259166606788,
                    -0.07990337338243515,
                    0.18709857536184263,
                    -0.0018017635954702244,
                    0.026543818277273083,
                    -0.025084229158588343,
                    0.056860302717986894,
                    -0.09202866688705703,
                    0.13907319312680672
                ],
                [
                    -0.08828041783476508,
                    -0.04013209445180856,
                    0.06940091552672517,
                    0.07700158880516383,
                    0.09230363621623087,
                    0.08607762004325034,
                    -0.10271703566460215,
                    0.10290781197260325,
                    0.02445792301773396,
                    -0.05283743317004518
                ],
                [
                    0.022989741001854712,
                    0.08210862973275959,
                    0.11511218846362314,
                    0.024186863657762472,
                    -0.008508862078417716,
                    0.13960076206545596,
                    0.004390753074483469,
                    -0.05711086669452468,
                    -0.10090365677381936,
                    -0.045612404691212444
                ],
                [
                    -0.0471844950834514,
                    0.01380727363137754,
                    -0.00651196844091105,
                    0.03161700621740514,
                    0.06811223814244885,
                    0.061496156900919995,
                    0.11153133712278332,
                    -0.008175361055961871,
                    -0.027299911134825015,
                    0.02650985795170646
                ],
                [
                    0.012433974948042822,
                    -0.015772828138672947,
                    0.06490525763982972,
                    0.15640094775994498,
                    0.09409946511989628,
                    0.030439316384396335,
                    -0.00663747140306543,
                    0.08441482026730493,
                    0.12914046255782946,
                    0.013316315570426117
                ],
                [
                    0.1292068545226603,
                    0.05039565613300128,
                    0.17996615471790428,
                    0.10054227867827058,
                    0.0751397293210627,
                    -0.06207385731664119,
                    0.07835419467596652,
                    -0.02156887891043744,
                    0.011461395743971352,
                    -0.0852232044126104
                ],
                [
                    -0.012728586006349183,
                    -0.055865522285868385,
                    -0.0026482308319638512,
                    -0.0016057684190279393,
                    0.0827129766781907,
                    -0.02408625458576905,
                    0.06826144479520771,
                    0.034863445789917936,
                    0.016103602488640248,
                    -0.09408371166364497
                ],
                [
                    0.04373778372850371,
                    0.03810559128947208,
                    0.03132662777688545,
                    -0.009502846352138052,
                    0.046722190490120726,
                    -0.058403823609438875,
                    -0.011370461430662499,
                    -0.06390536995596238,
                    -0.02226646199361589,
                    0.09235032143547481
                ],
                [
                    -0.06717283711516717,
                    0.05566142191572108,
                    0.08559286556839292,
                    0.01434293346776751,
                    0.046841997526126875,
                    -0.05817315037443192,
                    -0.007203378833534176,
                    -0.04203446200829508,
                    -0.0018263376660852687,
                    0.19124560642312055
                ],
                [
                    0.08416870412608221,
                    0.029721398270614173,
                    -0.07348255898551136,
                    0.07111650452470573,
                    0.08921393144139342,
                    -0.12916969322887123,
                    0.06897202736564059,
                    0.1395401628403361,
                    -0.11148522375978227,
                    0.13598052522522588
                ],
                [
                    -0.0630508050824877,
                    -0.03331354791270499,
                    -0.04926526505365756,
                    0.02457579295747377,
                    -0.09065317309924023,
                    -0.1297373747329711,
                    0.15825626527427636,
                    -0.006516069026688907,
                    -0.10463681812408333,
                    0.25173228437021644
                ],
                [
                    0.06231427290052141,
                    0.09907711002868999,
                    0.002112019132380874,
                    0.04090983924845832,
                    0.0471415387329003,
                    -0.12169238477048246,
                    0.1434525000590598,
                    0.10523165796260905,
                    0.035064081455243916,
                    -0.08742439841625271
                ],
                [
                    0.052768401502890847,
                    -0.037359741587848064,
                    -0.017563368721233232,
                    0.0641671918402251,
                    0.08509552871352241,
                    -0.19255366337483515,
                    0.23455022020138233,
                    0.13474119553717506,
                    -0.019139047864798808,
                    -0.05538384864289572
                ],
                [
                    -0.01847444616078471,
                    -0.0037000640135546412,
                    0.07177034078439049,
                    -0.03151371654689931,
                    0.07028189470089122,
                    -0.07415122872879512,
                    0.16544951490632523,
                    0.05116289479023663,
                    0.0223684755414522,
                    -0.22828390973772025
                ],
                [
                    0.09834734180143709,
                    -0.10193377274531457,
                    0.11153364514797767,
                    0.00745133073280569,
                    0.058536700506023866,
                    -0.11130804238528723,
                    0.13662349483254152,
                    -0.0532742204870953,
                    -0.006330002525438737,
                    -0.020535111720928777
                ],
                [
                    0.042577379302141956,
                    -0.12772843945892107,
                    -0.0243777174342173,
                    0.02909087722899652,
                    0.08293428654520228,
                    0.0008882199890385896,
                    0.24922050412216923,
                    0.07448812632610165,
                    0.0006427788450105186,
                    -0.007302451078956339
                ],
                [
                    -0.11467059944775049,
                    -0.06639973036495321,
                    -0.003782890796918026,
                    -0.017990106854175927,
                    0.1004727004193148,
                    -0.11086452870936585,
                    0.014272399442028691,
                    -0.014276011785425861,
                    0.0341806436126936,
                    -0.11244030579367789
                ],
                [
                    0.06326767985279574,
                    -0.19478817272015841,
                    0.039040014850724475,
                    -0.09057056314200801,
                    -0.005380419172143695,
                    -0.07973307673394112,
                    0.22987748382173104,
                    0.11381442883722227,
                    0.015604054436893555,
                    0.09608877971377196
                ],
                [
                    0.06335444955070373,
                    -0.2816218853706056,
                    -0.015564854797691242,
                    0.08548861109312361,
                    0.08643217919829808,
                    0.00220133906447273,
                    0.12960702639597857,
                    -0.11006697847239102,
                    0.1636217338774349,
                    -0.1592362277895255
                ],
                [
                    0.01388211606982432,
                    -0.14113676480093698,
                    0.20095286834841516,
                    -0.16582071746848878,
                    0.044179488206492465,
                    -0.027551357448869218,
                    0.054753693219789755,
                    -0.0028107449580691618,
                    0.13614865316549224,
                    0.04212418289918659
                ],
                [
                    -0.1099989011329042,
                    -0.15602628582437766,
                    0.14969345576868262,
                    -0.15050871447357775,
                    0.03752941121400473,
                    0.10046336709085306,
                    -0.042885083068465564,
